/*!
 * The following copyright notice may not be removed under any circumstances.
 * 
 * Copyright:
 * Copyright (c) 2009 by La Tipomatika. All rights reserved.
 * 
 * Trademark:
 * Candela is a trademark of La Tipomatika.
 * 
 * Description:
 * Copyright (c) 2009 by La Tipomatika. All rights reserved.
 * 
 * Manufacturer:
 * La Tipomatika
 * 
 * Designer:
 * La Tipomatika
 * 
 * Vendor URL:
 * www.tipomatika.co.nr
 * 
 * License information:
 * www.tipomatika.co.nr
 */
Cufon.registerFont({"w":541,"face":{"font-family":"Candela Bold","font-weight":400,"font-style":"italic","font-stretch":"normal","units-per-em":"1000","panose-1":"2 0 0 0 0 0 0 0 0 0","ascent":"750","descent":"-250","x-height":"22","bbox":"-181 -1002 1095.1 264.217","underline-thickness":"50","underline-position":"-50","unicode-range":"U+0020-U+2122"},"glyphs":{" ":{"w":310},"!":{"d":"70,-50v1,-39,64,-60,97,-34v15,12,9,36,5,55v-6,27,-34,39,-71,39v-31,0,-41,-31,-31,-60xm100,-167r109,-519v0,-26,61,-35,87,-20v9,5,13,12,13,20r-109,523v-11,22,-109,39,-100,-4","w":331},"\"":{"d":"91,-505r42,-229v12,-32,91,-15,97,9r-53,205v-8,36,-45,50,-75,32v-7,-5,-12,-11,-11,-17xm206,-505r42,-229v12,-32,91,-15,97,9r-53,205v-8,36,-45,50,-75,32v-7,-5,-12,-11,-11,-17","w":305},"#":{"d":"181,-2v-17,33,-95,14,-91,-24r89,-186r-89,-1v-15,0,-22,-10,-22,-31v0,-22,17,-67,35,-67r121,1r16,-32r-1,0r31,-63r-84,-1v-15,0,-22,-10,-22,-31v0,-22,18,-67,36,-67r114,1r47,-96v6,-12,21,-45,46,-100v4,-8,16,-12,35,-12v40,1,58,10,55,40r-80,169r135,0r95,-197v4,-8,15,-12,34,-12v40,1,58,10,55,40r-81,171r115,1v11,0,17,11,17,33v0,39,-11,63,-33,63r-144,0r-46,96r110,1v11,0,17,11,17,33v0,39,-11,63,-33,63r-138,0r-100,208v-16,33,-95,14,-91,-24r86,-185r-134,0r-50,103r1,0xm372,-404r-46,95r136,0r16,-32r-1,0r31,-63r-136,0","w":797},"$":{"d":"266,-305v-92,-7,-145,-29,-146,-118v-2,-142,106,-264,251,-263r15,-50v3,-9,26,-18,40,-17v25,0,38,11,38,32r-13,40v69,13,103,29,103,49v4,13,-46,73,-58,70v-21,-14,-44,-23,-69,-28r-54,197v87,12,131,59,131,141v0,142,-117,248,-242,259r-19,68v-8,36,-88,24,-79,-11r15,-58v-66,-8,-112,-27,-139,-57v-5,-2,-7,-6,-7,-13v0,-15,51,-73,69,-68v5,0,9,2,11,5r-1,-2v26,24,48,38,93,43xm288,-91v73,-19,121,-63,121,-144v0,-35,-21,-56,-63,-65xm346,-593v-69,15,-117,73,-117,152v0,37,25,43,62,45","w":547},"%":{"d":"286,-625v-45,2,-86,44,-86,94v0,30,20,56,50,56v42,0,87,-50,87,-93v0,-31,-20,-58,-51,-57xm656,-707v26,-18,90,12,77,46r-498,659v-24,31,-81,-9,-83,-34v0,-6,2,-10,5,-13r424,-560v-48,16,-108,19,-159,9v5,20,7,33,4,49v-16,80,-99,164,-190,165v-74,1,-127,-57,-127,-131v0,-120,119,-226,245,-184v90,30,240,31,303,-6r-1,0xm594,7v-89,0,-145,-77,-126,-172v17,-83,99,-155,192,-155v74,-1,129,52,129,126v0,97,-102,201,-195,201xm695,-179v0,-37,-31,-62,-71,-52v-35,9,-68,51,-68,93v-1,30,20,56,50,56v44,0,89,-51,89,-97","w":758},"&":{"d":"196,-210v0,84,72,133,154,133v162,0,254,-86,276,-259v-45,-25,-120,-7,-120,41v28,-3,60,-5,60,26v0,34,-47,56,-77,56v-40,1,-81,-27,-79,-66v3,-55,60,-97,102,-115v30,-12,60,-18,88,-18v56,0,113,38,154,38v21,0,41,-10,41,-31v0,-3,-20,-2,-27,-2v-22,1,-35,-3,-36,-22v-3,-36,53,-64,86,-64v38,0,74,25,73,64v-1,70,-87,132,-166,120v-33,215,-172,323,-410,332v-158,6,-280,-126,-219,-282v23,-60,74,-101,120,-135r16,-9v-33,-24,-49,-67,-49,-130v0,-135,148,-222,288,-176v27,10,10,80,-9,86v-88,-22,-183,6,-183,94v0,60,37,90,112,90v27,0,23,9,23,42v0,34,-8,51,-23,51v-117,0,-195,36,-195,136","w":844},"'":{"d":"96,-505r42,-229v12,-32,91,-15,97,9r-53,205v-8,36,-45,50,-75,32v-7,-5,-12,-11,-11,-17","w":201},"(":{"d":"219,116v2,14,-51,57,-67,53v-10,0,-15,-4,-16,-11r1,1v-80,-162,-105,-344,-65,-541v31,-145,113,-293,248,-445v24,-27,64,18,66,38v0,7,-1,10,-3,11v-84,98,-190,264,-220,402v-36,161,2,375,56,492","w":318},")":{"d":"164,-777v2,-18,65,-83,83,-45v72,155,95,277,60,444v-45,214,-168,407,-292,539v-23,25,-65,-19,-66,-38v0,-5,1,-9,4,-11v67,-82,130,-181,187,-297v57,-116,85,-216,85,-300v0,-100,-20,-197,-61,-292","w":331},"*":{"d":"115,-577v0,-19,47,-71,64,-69v5,0,9,2,11,5r-1,-2r79,65r5,-102v4,-29,61,-37,87,-21v9,5,14,12,14,21r-31,93r92,-56r-1,0v27,-16,52,33,52,57v0,16,-6,25,-18,27r-113,59r84,70v4,8,6,13,6,14v5,21,-56,70,-73,67r-63,-82r-10,104v-4,12,-44,24,-63,24v-25,0,-37,-10,-37,-29r38,-104r-106,88v-15,1,-47,-39,-47,-58v0,-8,3,-16,10,-24r125,-74r-94,-55r0,1v-7,-3,-10,-9,-10,-19","w":468},"+":{"d":"58,-319v-1,-23,14,-69,35,-69r131,0r28,-129v0,-26,61,-34,87,-19v9,5,13,11,13,19r-27,129r140,-1v10,2,17,23,16,38v0,38,-10,62,-31,62r-147,1r-30,148v-15,15,-107,32,-98,-10r28,-138r-123,0v-15,0,-22,-10,-22,-31","w":486},",":{"d":"220,-30r-137,158v-26,17,-71,2,-69,-28v14,-45,38,-65,66,-104r54,-74v23,-13,39,-6,63,6v21,10,26,20,23,42","w":234},"-":{"d":"369,-389v29,16,18,100,-15,100r-261,1v-15,0,-23,-10,-23,-31v-1,-22,16,-69,36,-69","w":410},".":{"d":"229,-74v0,53,-34,86,-86,86v-32,1,-56,-21,-56,-52v2,-51,37,-87,89,-87v31,0,53,23,53,53","w":294},"\/":{"d":"418,-712v26,1,67,11,61,44r-410,666r0,-1v-19,36,-93,-1,-85,-32r412,-669r0,1v3,-6,10,-9,22,-9","w":403},"0":{"d":"261,-544v-50,65,-95,210,-95,325v0,86,31,129,94,129v57,0,100,-23,132,-69v43,-62,86,-197,86,-310v0,-98,-34,-147,-102,-147v-41,0,-78,25,-115,72xm399,-715v126,0,186,111,184,246v-3,157,-52,277,-121,370v-45,61,-116,108,-213,108v-123,0,-185,-68,-185,-204v0,-46,7,-98,19,-156v26,-123,66,-215,121,-275v55,-60,120,-89,195,-89","w":574},"1":{"d":"403,-687r-145,682v-43,9,-63,14,-98,-4r119,-555r-136,88v-14,-1,-52,-36,-44,-55v0,-5,20,-22,59,-51r116,-84r59,-39v28,-6,70,-10,70,18","w":373},"2":{"d":"450,-62v1,18,-15,71,-29,71r-361,0v-43,0,-39,-50,-29,-93v36,-155,172,-221,291,-298v52,-34,117,-81,117,-167v0,-78,-108,-82,-172,-52v-39,19,-57,31,-81,54v-11,1,-53,-39,-49,-54v0,-8,3,-15,10,-22v95,-78,172,-103,301,-80v77,14,115,86,95,175v-39,177,-220,221,-336,323v-39,33,-64,68,-77,121v11,1,47,2,110,1r198,-3v8,5,12,13,12,24","w":527},"3":{"d":"356,-393v68,0,108,-83,108,-159v0,-41,-30,-62,-90,-62v-52,0,-114,31,-162,60v-12,1,-46,-41,-43,-57v0,-12,27,-31,80,-57v53,-26,100,-38,141,-38v101,0,173,39,173,141v0,96,-30,191,-106,220v36,19,54,56,54,110v0,63,-25,121,-76,173v-101,105,-283,101,-393,-1r1,0v-4,-2,-6,-6,-6,-12v-3,-19,54,-82,74,-78v3,0,14,4,16,9v29,43,73,64,130,64v84,1,156,-56,156,-141v0,-51,-45,-77,-136,-77v-25,0,-76,17,-74,-21v1,-23,12,-63,32,-66v51,-6,91,-8,121,-8"},"4":{"d":"52,-170r-8,-4v-10,-28,6,-70,19,-85r373,-415v34,-7,84,-7,77,25r-82,380r82,0v-3,31,3,82,-15,95v-8,6,-63,4,-86,4r-39,177v-42,8,-59,15,-94,-4v0,-11,11,-68,34,-173r-261,0xm190,-264r143,-5r46,-219","w":536},"5":{"d":"452,-283v0,-75,-57,-110,-133,-110v-45,0,-96,12,-152,35v-26,10,-43,-4,-43,-39v0,-61,71,-253,93,-293v46,-35,305,-19,412,-17v10,39,1,65,-18,99r-318,7v-21,25,-38,83,-47,127v42,-7,118,-8,164,4v82,21,150,73,149,177v-1,109,-55,196,-117,242v-61,46,-150,68,-254,61v-54,-4,-113,-22,-178,-63v-8,-8,0,-24,26,-48v26,-24,42,-36,49,-36v8,0,18,5,29,14v57,49,173,38,238,5v55,-28,100,-79,100,-165","w":593},"6":{"d":"237,9v-119,1,-200,-87,-179,-219v25,-152,66,-274,127,-364v97,-140,225,-175,378,-87v9,9,-48,96,-62,77v-46,-24,-78,-42,-150,-23v-87,23,-123,110,-155,192v43,-33,91,-50,142,-50v97,2,166,74,166,184v0,89,-27,159,-82,211v-55,52,-117,79,-185,79xm409,-255v0,-65,-35,-120,-101,-120v-52,0,-119,34,-131,70v-15,47,-23,86,-23,117v0,67,33,111,102,111v92,0,153,-89,153,-178","w":525},"7":{"d":"559,-712v25,7,41,30,33,59v-31,107,-158,306,-367,599r-33,47v-10,13,-48,21,-72,21v-33,1,-52,-13,-38,-31v192,-260,323,-460,390,-602r-288,0v-10,-2,-23,-40,-23,-56v0,-20,8,-32,23,-37r375,0","w":529},"8":{"d":"378,-18v-134,68,-342,23,-337,-137v0,-19,2,-35,5,-48v25,-107,74,-177,147,-210v-37,-29,-31,-112,-10,-157v35,-77,104,-140,220,-140v95,0,163,52,163,141v0,70,-34,129,-79,159v66,66,58,217,2,294v-31,43,-68,76,-111,98xm255,-81v102,0,177,-82,177,-174v1,-64,-40,-110,-102,-112v-108,20,-152,82,-175,181v-14,63,37,105,100,105xm265,-532v-23,89,107,101,163,52v24,-21,41,-47,47,-80v-8,-52,-88,-76,-142,-50v-34,16,-59,44,-68,78","w":562},"9":{"d":"355,-707v119,0,202,83,182,215v-26,167,-71,291,-132,374v-61,83,-136,125,-225,125v-55,0,-121,-25,-146,-48v-21,-20,-3,-36,21,-57v21,-18,31,-25,39,-19v122,73,202,25,273,-106v12,-23,21,-44,27,-63v-45,32,-92,48,-139,48v-96,-2,-164,-73,-164,-182v0,-89,27,-159,81,-210v54,-51,115,-77,183,-77xm193,-441v0,61,27,124,91,113v61,-10,101,-37,122,-88v17,-40,25,-62,29,-113v4,-50,-38,-97,-92,-97v-93,0,-150,98,-150,185","w":513},":":{"d":"168,-416v2,-48,34,-82,84,-82v37,0,59,32,49,72v-8,33,-38,60,-80,60v-30,0,-54,-21,-53,-50xm88,-39v2,-48,36,-81,84,-81v36,0,58,35,48,72v-8,32,-39,60,-80,60v-30,0,-53,-21,-52,-51","w":352},";":{"d":"277,-447v0,49,-34,82,-83,81v-30,0,-53,-21,-52,-51v2,-49,35,-81,84,-81v29,0,52,21,51,51xm198,-30r-137,158v-26,16,-74,4,-68,-30v6,-32,31,-55,48,-78r77,-104v36,-1,88,14,80,54","w":268},"<":{"d":"62,-230v-8,-15,-2,-28,8,-45r178,-182v26,-29,74,11,74,37r-174,172r98,163v-2,16,-62,71,-84,32","w":302},"=":{"d":"588,-499v10,2,17,23,16,38v0,38,-10,62,-31,62r-369,1v-15,0,-23,-10,-23,-31v-1,-22,16,-69,36,-69xm539,-269v29,16,18,100,-15,100r-369,1v-15,0,-23,-10,-23,-31v-1,-22,16,-69,36,-69","w":685},">":{"d":"278,-225r-164,167v-29,24,-42,26,-67,1v-11,-12,-16,-22,-16,-31r169,-165r-99,-171v4,-17,63,-67,84,-30r105,189v0,22,-4,35,-12,40","w":309},"?":{"d":"215,-234v0,42,-10,70,-56,70v-75,0,-40,-52,-32,-104v6,-38,49,-78,75,-96v71,-52,185,-76,184,-201v0,-41,-25,-61,-74,-61v-53,0,-100,19,-142,58v-14,1,-46,-39,-46,-57v0,-15,24,-32,68,-55v114,-58,293,-43,288,104v-3,121,-67,187,-153,225v-65,29,-102,70,-112,117xm74,-32v1,-42,30,-68,70,-68v31,-1,49,28,42,61v-6,29,-32,51,-67,51v-26,0,-45,-18,-45,-44","w":454},"@":{"d":"521,158v90,-1,224,-47,287,-87r3,101v-68,41,-213,85,-308,87v-231,5,-409,-162,-407,-386v2,-181,96,-334,201,-423v103,-87,252,-161,423,-165v202,-4,380,134,375,324v-5,198,-143,336,-279,409v-45,24,-85,35,-119,35v-31,0,-56,-11,-73,-33v-34,8,-75,19,-113,19v-96,0,-161,-44,-162,-134v0,-32,8,-70,27,-113v35,-80,83,-145,144,-194v61,-49,129,-73,202,-73v18,0,165,13,167,24v-8,29,-99,244,-126,309r-41,98v18,6,35,-1,59,-14v81,-44,156,-119,193,-212v14,-36,21,-71,21,-108v1,-144,-137,-239,-292,-236v-145,2,-274,68,-354,144v-78,74,-148,189,-150,327v-2,176,141,305,322,301xm527,-54v40,0,76,-4,108,-12r131,-318v-152,-17,-236,72,-283,184v-17,39,-25,68,-25,89v0,38,23,57,69,57","w":1120},"A":{"d":"2,-26r423,-675r0,1v2,-19,91,-24,94,1r88,675v1,27,-16,34,-47,34v-35,0,-53,-10,-56,-30r-20,-191r-259,0r-122,198v-21,37,-98,29,-101,-13xm472,-306r-43,-237r-143,237r186,0","w":679},"B":{"d":"353,-723v103,-2,159,51,162,138v0,23,-9,55,-27,96v-18,41,-42,70,-73,89v73,39,104,102,86,194v-27,135,-132,227,-286,228v-73,0,-148,-16,-193,-40r143,-673v35,-23,118,-30,188,-32xm249,-349r-57,2r-58,269v41,19,129,25,178,0v50,-25,96,-89,96,-167v0,-69,-53,-104,-159,-104xm210,-429v117,2,208,-37,214,-147v4,-77,-101,-81,-171,-63","w":524},"C":{"d":"643,-637v2,9,-37,76,-50,70v-5,0,-8,-2,-11,-6v-25,-38,-57,-52,-120,-52v-112,0,-201,93,-244,180v-28,53,-41,108,-41,164v0,107,62,206,164,205v52,0,101,-18,146,-53r-1,0v26,-15,46,27,45,52v0,25,-23,49,-67,69v-44,20,-90,30,-139,30v-150,2,-249,-133,-247,-288v2,-167,103,-319,212,-392v95,-64,201,-89,302,-34v34,19,51,38,51,55","w":589},"D":{"d":"479,-72v-81,73,-207,98,-363,95v-44,0,-73,-4,-88,-13r151,-711v6,-14,128,-21,151,-21v209,0,313,86,313,259v0,175,-75,311,-164,391xm262,-629r-118,561v222,10,345,-99,388,-284v7,-31,10,-61,10,-89v0,-126,-75,-189,-226,-189v-30,0,-48,0,-54,1","w":640},"E":{"d":"582,-710v24,15,9,81,-11,87v-66,-1,-129,-1,-190,-1v-85,0,-128,3,-129,8r-42,193r261,0v17,0,26,10,26,31v0,21,-22,67,-39,67r-269,1r-49,233v54,14,230,5,312,3v14,0,21,10,21,29v0,22,-20,67,-37,68v-105,2,-409,17,-410,-34r137,-647v7,-13,33,-23,77,-30v97,-17,230,-9,342,-8","w":534},"F":{"d":"467,-395v0,21,-17,69,-34,70r-234,0r-71,331v-30,10,-63,4,-97,1r141,-682v7,-23,97,-35,270,-35v69,0,121,1,156,4v0,29,-8,59,-24,89v-75,-6,-295,-10,-315,6v-9,17,-22,79,-40,188r227,-1v14,0,21,10,21,29","w":509},"G":{"d":"394,-389r48,-4v32,-3,60,-4,85,-4v85,2,129,16,120,62v-22,111,-67,197,-129,261v-62,64,-135,96,-217,96v-142,2,-229,-132,-227,-281v2,-168,98,-321,202,-397v59,-43,118,-66,179,-66v74,0,132,29,173,81v1,21,-6,26,-26,49v-16,19,-29,27,-37,27v-11,-37,-77,-61,-127,-60v-43,0,-85,17,-126,51v-74,59,-137,176,-138,300v-1,101,49,198,143,198v48,0,93,-21,135,-64v42,-43,73,-95,92,-157v-5,-4,-20,-6,-44,-6v-27,0,-74,11,-121,11v-11,0,-17,-8,-17,-25v-1,-22,14,-71,32,-72","w":657},"H":{"d":"672,-686r-144,684v-13,14,-108,34,-98,-10r64,-304r-305,0r-66,314v-13,15,-107,34,-97,-10r144,-681v14,-15,107,-36,98,7r-57,271r305,0r59,-278v14,-15,106,-36,97,7","w":626},"I":{"d":"275,-691r-143,678v-4,34,-106,38,-98,0r145,-685v14,-16,105,-37,96,7","w":227},"J":{"d":"192,-66v-48,48,-117,87,-206,72v-16,-33,-6,-47,13,-81v115,-4,176,-97,195,-188r90,-432v14,-15,109,-38,100,5r-85,402v-17,89,-59,174,-107,222","w":339},"K":{"d":"196,-305r-66,306v-9,12,-77,17,-99,0r148,-695v14,-15,107,-36,98,7r-45,217r345,-242v33,25,51,49,54,72r-355,254r275,329v4,11,-70,73,-83,67","w":616},"L":{"d":"133,-82v68,11,263,0,329,-6v32,-3,28,45,18,70v-5,14,-11,20,-16,21v-52,9,-296,14,-384,2v-39,-5,-58,-11,-56,-20r144,-682v17,-16,107,-30,98,11","w":542},"M":{"d":"218,-466r-99,464v-11,20,-105,27,-98,-6r145,-688v12,-18,90,-28,99,-1r136,444r347,-445v18,-14,106,-30,97,10r-145,686v-2,11,-21,17,-57,17v-28,0,-42,-8,-42,-23r106,-501r-300,380v-26,22,-65,27,-78,-10","w":795},"N":{"d":"725,-682r-139,660v-7,23,-28,35,-63,35v-20,0,-33,-5,-38,-16r-256,-521r-110,519v-13,22,-107,29,-98,-12r140,-661v6,-36,86,-46,103,-11r253,513r109,-511v4,-12,44,-25,63,-25v24,0,36,10,36,30","w":675},"O":{"d":"287,22v-171,1,-253,-192,-212,-376v22,-99,67,-185,139,-258v72,-73,148,-110,227,-110v147,-2,224,115,223,264v-1,173,-90,331,-195,411v-59,45,-119,69,-182,69xm566,-439v1,-96,-46,-185,-135,-185v-49,0,-99,25,-148,76v-49,52,-82,112,-105,183v-40,125,9,288,130,290v39,0,79,-18,119,-53v72,-61,138,-185,139,-311","w":644},"P":{"d":"446,-543v3,-79,-67,-104,-146,-89v-25,5,-36,7,-54,12r-61,294v70,18,119,6,174,-36v46,-35,84,-98,87,-181xm553,-557v4,177,-146,339,-316,336v-22,0,-46,-3,-73,-8r-50,234v-28,10,-72,9,-100,0r148,-692v54,-23,122,-35,204,-35v116,-1,184,54,187,165","w":515},"Q":{"d":"445,-722v140,-1,224,132,224,280v0,157,-83,300,-171,376v-48,42,-98,70,-150,83v15,43,50,65,107,65v6,38,5,84,-37,84v-105,0,-164,-49,-178,-146v-108,-21,-175,-139,-174,-273v1,-169,96,-326,200,-403v60,-44,119,-66,179,-66xm564,-368v29,-120,-13,-252,-125,-254v-51,0,-101,26,-152,76v-70,68,-121,169,-125,289v-3,89,48,174,123,183v89,-8,164,-70,203,-132v34,-54,62,-104,76,-162","w":648},"R":{"d":"370,-280r-103,1v-46,0,-73,0,-80,-1r-62,286v-21,7,-38,10,-52,10v-28,0,-41,-10,-37,-30r142,-669v75,-26,153,-39,234,-39v117,0,200,65,200,177v0,106,-45,182,-135,227v73,50,61,195,35,311v-12,17,-85,34,-94,2r7,-64v16,-91,13,-195,-55,-211xm509,-528v0,-69,-44,-105,-114,-105v-37,0,-83,6,-138,18r-51,244v149,22,303,-2,303,-157","w":584},"S":{"d":"164,-78v118,32,229,-47,228,-157v0,-47,-36,-70,-107,-70v-119,0,-178,-45,-178,-136v0,-106,49,-187,119,-237v86,-62,237,-53,318,0v4,18,-5,25,-22,50v-14,21,-26,30,-35,30v-31,-22,-74,-33,-129,-33v-81,0,-142,87,-142,168v0,44,32,66,97,66v102,-1,174,49,174,145v0,78,-29,144,-87,196v-58,52,-122,78,-190,78v-97,0,-162,-22,-197,-67v-3,-17,49,-77,68,-73v16,3,34,21,44,26v9,4,22,10,39,14","w":503},"T":{"d":"649,-676v1,26,-16,65,-41,64v-50,-2,-95,-3,-136,-3v-36,0,-56,0,-61,1r-137,605v-5,13,-22,20,-52,20v-30,0,-45,-9,-45,-27r136,-598r-207,2v-33,-1,-23,-85,2,-91v44,-10,478,-9,526,0v10,2,15,11,15,27","w":599},"U":{"d":"179,-248v-24,107,57,174,154,175v97,1,189,-101,206,-181r95,-437v9,-34,93,-16,98,7r-92,430v-28,145,-161,274,-326,276v-160,3,-269,-111,-233,-279r93,-437v14,-15,107,-36,98,7","w":702},"V":{"d":"324,2v-16,7,-58,6,-82,5r-106,-677v2,-11,61,-48,78,-44v12,0,20,5,22,16r85,542r373,-546v20,-21,42,-10,62,12v14,15,21,26,21,31","w":694},"W":{"d":"529,12v-33,0,-45,-13,-57,-23r0,-466r-251,485v-26,4,-66,9,-81,-5r-4,-17r-3,-666v7,-35,54,-35,92,-17v12,124,16,323,16,481r246,-477v14,-26,73,-26,97,-4r5,482r244,-483v18,-38,86,5,90,23r-335,683v-16,3,-36,4,-59,4","w":840},"X":{"d":"556,-40v9,30,-47,51,-72,52v-11,0,-20,-3,-24,-12r-120,-274r-255,283v-28,22,-83,-10,-83,-38v-2,-5,295,-337,301,-337r-139,-270r0,1v-24,-33,41,-71,66,-72v12,0,18,5,22,14r132,258r270,-270v36,-29,104,29,66,67r-295,295","w":645},"Y":{"d":"191,1r69,-321r-130,-329v-4,-12,60,-69,76,-63v7,0,17,8,24,26r103,264r295,-279r-1,0v30,-30,67,38,68,62r-333,315r-71,329v-44,8,-67,12,-100,-4","w":611},"Z":{"d":"230,-711r182,-1v64,0,129,3,194,3v38,0,37,74,12,90v-4,10,-489,527,-490,539v80,5,237,-2,329,-4v11,0,17,8,17,24v0,20,-16,69,-31,69r-171,1v-139,0,-219,-2,-240,-5v-17,-2,-26,-15,-26,-40v0,-14,7,-36,22,-67v205,-237,361,-409,466,-516v-73,-5,-200,2,-281,3v-18,0,-27,-9,-27,-26v1,-34,23,-59,44,-70","w":557},"[":{"d":"402,-749v-68,1,-96,9,-108,63r-1,0r-152,719v-13,51,25,54,79,54v10,0,15,7,15,20v-1,40,-13,59,-55,59v-80,0,-145,-13,-145,-94v-1,-11,1,-23,4,-38r158,-746v14,-48,39,-85,83,-100v40,-13,64,-13,115,-16v25,-1,30,8,31,30v1,16,-9,49,-24,49","w":355},"\\":{"d":"341,-35v0,19,-50,47,-73,47v-16,0,-23,-6,-25,-17r-126,-663v-2,-27,49,-45,75,-44v9,0,17,5,22,15","w":403},"]":{"d":"-20,139v-1,-16,11,-52,25,-52v63,-1,97,-9,107,-58r43,-201v51,-232,88,-406,111,-523v10,-49,-25,-55,-79,-54v-10,0,-15,-7,-15,-21v1,-20,16,-63,41,-58v97,-5,178,22,157,121r-158,745v-12,54,-38,92,-83,110v-40,15,-60,18,-111,18v-27,1,-37,-3,-38,-27","w":324},"^":{"d":"368,-728r151,130v17,22,5,37,-17,58v-17,15,-28,21,-33,20r-133,-123r-209,126v-14,4,-35,-32,-35,-50v0,-11,4,-23,15,-30r223,-129v4,-4,33,-3,38,-2","w":525},"_":{"d":"547,67v10,2,17,23,16,38v0,38,-10,62,-31,62r-496,1v-15,0,-22,-10,-22,-31v-1,-23,14,-69,35,-69","w":616},"`":{"d":"278,-544r-153,-69v-26,-21,-11,-38,13,-63v17,-18,31,-26,39,-27r137,79v22,16,17,47,-5,64v-13,11,-23,16,-31,16","w":330},"a":{"d":"34,-159v0,-186,118,-339,301,-339v62,0,129,9,165,26v13,7,21,13,21,20v0,55,-63,309,-77,369v1,35,42,51,77,54v-55,35,-98,52,-129,52v-27,0,-46,-11,-57,-34v-35,22,-69,33,-102,33v-133,0,-199,-60,-199,-181xm343,-101r69,-298v-63,-23,-146,-12,-195,27v-43,34,-76,111,-76,201v0,69,29,103,88,103v39,0,77,-11,114,-33","w":542},"b":{"d":"207,-348r-54,237v18,26,47,39,88,39v43,0,83,-21,118,-63v35,-42,53,-100,53,-173v0,-61,-24,-91,-71,-91v-47,0,-91,17,-134,51xm372,-498v109,-2,165,107,140,223v-21,97,-61,170,-120,221v-59,51,-125,76,-199,76v-88,0,-123,-41,-143,-104r127,-605v6,-27,98,-46,101,-2r-51,245v50,-36,98,-54,145,-54","w":511},"c":{"d":"57,-182v0,-167,128,-319,288,-316v68,1,108,7,143,42r1,13v-7,35,-25,56,-55,65r-6,-3v-15,-17,-48,-26,-101,-26v-95,0,-169,112,-169,213v0,65,30,117,93,117v60,-1,78,-12,119,-40v24,-7,42,31,42,52v3,51,-121,87,-174,87v-115,0,-181,-89,-181,-204","w":458},"d":{"d":"54,-150v0,-179,153,-353,326,-349v24,0,47,2,68,7r41,-197v7,-20,108,-36,99,7r-139,658v-42,23,-136,46,-208,46v-116,0,-187,-60,-187,-172xm162,-165v-2,62,38,92,98,92v39,0,74,-7,104,-20r63,-300v-71,-13,-115,0,-172,39v-50,34,-90,102,-93,189","w":539},"e":{"d":"312,-499v108,1,165,25,168,120v1,27,-8,73,-24,132v-6,21,-66,34,-174,31r-128,-4v-3,14,-4,29,-4,44v-1,116,126,124,224,84v23,-2,30,30,31,52v0,41,-60,62,-181,62v-117,0,-176,-61,-176,-182v0,-181,95,-339,264,-339xm382,-369v-3,-42,-30,-46,-81,-47v-64,0,-107,38,-129,114r199,2v7,-35,11,-58,11,-69","w":481},"f":{"d":"408,-456v1,22,-13,63,-33,63v-35,0,-68,-3,-97,-3v-20,0,-34,0,-41,1r-70,337v-33,144,-101,256,-235,292v-27,7,-49,7,-76,4v-9,-4,-10,-15,-10,-28v0,-16,7,-34,22,-55v115,-4,175,-96,194,-187r73,-358v-34,-3,-61,9,-61,-22v0,-13,14,-70,29,-67v12,2,48,1,53,0r26,-116v16,-68,118,-129,205,-127v34,0,89,9,91,39v1,18,-32,68,-48,65v-49,-29,-143,-10,-154,39r-21,94r58,0r80,4v10,3,15,11,15,25","w":389},"g":{"d":"465,43v1,152,-139,221,-285,221v-103,0,-189,-35,-193,-138v-2,-24,49,-48,74,-47v14,0,21,5,21,15v0,50,37,75,111,75v91,1,166,-32,166,-113v0,-81,-146,-27,-215,-54v-44,-17,-70,-40,-86,-80r99,-74v-31,-28,-46,-65,-46,-112v-2,-120,111,-243,239,-235r232,14v14,7,14,50,15,72r-104,7v69,152,-81,298,-222,296v-21,0,-37,-2,-48,-6v-4,4,-9,9,-16,14r1,0r-13,13v2,4,55,5,91,5v119,0,179,42,179,127xm338,-408v-67,3,-129,63,-131,133v-1,43,37,74,82,74v62,0,130,-60,130,-122v0,-45,-35,-86,-81,-85","w":564},"h":{"d":"412,-288v11,-100,-120,-134,-204,-88r-82,380v-34,13,-67,12,-101,-2r149,-698v3,-10,21,-18,54,-18v29,0,44,10,44,28r-46,220v37,-21,76,-31,117,-31v113,-1,196,92,170,213r-62,288v-40,11,-73,15,-101,-4","w":516},"i":{"d":"184,-644v30,-23,95,-15,87,32v-7,38,-25,61,-74,61v-23,0,-41,-19,-36,-43v5,-21,7,-38,23,-50xm237,-478r-97,464v-4,34,-109,38,-101,0r99,-471v14,-16,108,-37,99,7","w":234},"j":{"d":"-160,172v133,-5,189,-118,212,-228r90,-424v15,-15,104,-40,102,8r-3,0r-86,420v-34,152,-101,272,-243,307v-27,7,-55,6,-83,3v-9,-4,-10,-15,-10,-28v0,-17,7,-37,21,-58xm250,-554v-30,22,-100,15,-84,-32r-1,1v2,-39,24,-61,72,-61v48,0,41,71,13,92","w":233},"k":{"d":"460,-49v1,11,-61,69,-78,63v-9,0,-15,-4,-16,-12r-149,-291r-18,4r-62,291v-43,8,-65,12,-98,-4r148,-697v14,-15,108,-38,98,7r-67,309v58,-26,144,-74,202,-109v8,-8,15,-12,20,-12v15,-2,47,38,47,55v0,9,-19,26,-57,51v-38,25,-76,46,-113,65","w":514},"l":{"d":"277,-730r-152,717v-5,34,-111,38,-103,0r154,-724v14,-17,110,-37,101,7","w":228},"m":{"d":"658,-396v-53,2,-118,33,-145,69v-5,93,-43,231,-61,324v-4,24,-94,22,-101,-2r51,-244v5,-25,8,-47,8,-65v0,-55,-27,-82,-81,-82v-54,0,-112,34,-140,70r-68,323v-5,22,-94,19,-101,-3r98,-461v3,-10,19,-23,51,-23v33,0,47,4,49,28r-7,30v51,-44,100,-66,147,-66v79,0,127,32,145,97v42,-47,107,-97,185,-97v106,0,161,47,159,166v-3,118,-39,218,-58,331v-3,18,-98,19,-102,-6r51,-245v21,-77,0,-148,-80,-144","w":859},"n":{"d":"371,-498v109,-1,163,56,161,168v-2,115,-40,221,-60,324v-4,21,-63,21,-86,12v-11,-4,-16,-9,-15,-16r51,-239v5,-21,7,-40,7,-59v0,-58,-29,-87,-87,-87v-56,0,-117,31,-145,68r-25,111r-45,218r-4,-1v-16,16,-102,16,-97,-11r100,-462v15,-19,99,-30,99,12r-7,29v46,-45,97,-67,153,-67","w":540},"o":{"d":"459,-250v23,-89,-31,-160,-114,-157v-104,4,-185,99,-185,214v0,72,38,123,109,122v106,-2,166,-84,190,-179xm256,22v-119,1,-200,-76,-197,-198v3,-114,41,-192,116,-252v57,-46,120,-70,188,-70v134,0,228,107,195,249v-19,83,-60,148,-116,197v-56,49,-118,74,-186,74","w":561},"p":{"d":"95,238v-9,27,-62,34,-90,17v-10,-6,-15,-13,-12,-25r146,-689v57,-26,130,-39,218,-39v123,-1,198,55,201,172v5,189,-153,351,-333,348v-31,0,-59,-3,-82,-8xm243,-79v119,0,201,-92,201,-232v0,-64,-36,-96,-107,-96v-36,0,-83,9,-111,17r-61,300v24,7,50,11,78,11","w":535},"q":{"d":"378,-86r68,-315v-18,-11,-69,-12,-100,-9v-92,9,-184,125,-184,239v0,79,71,110,160,95xm238,22v-114,0,-189,-50,-186,-161v3,-130,56,-225,130,-285v62,-50,133,-74,214,-74v82,1,135,14,163,48r-146,691r-1,-1v-9,15,-27,23,-55,24v-26,0,-41,-8,-46,-23r46,-233v-43,9,-82,14,-119,14","w":530},"r":{"d":"366,-498v33,0,106,28,104,60v4,17,-40,72,-55,67v-71,-57,-178,-9,-211,44r-34,158v-11,47,-22,100,-33,159v-20,27,-56,34,-85,16v-10,-7,-15,-13,-15,-18r96,-455v5,-27,99,-36,100,4r-6,26v38,-41,84,-61,139,-61","w":419},"s":{"d":"199,-69v57,1,88,-30,88,-83v0,-25,-18,-38,-54,-38v-92,0,-140,-23,-145,-97v-12,-170,226,-287,342,-158r0,-1v8,20,-2,30,-18,56v-13,20,-25,30,-34,30v-20,-34,-48,-51,-84,-51v-59,0,-107,38,-104,101v2,31,26,34,66,35v88,0,132,34,132,101v0,154,-144,235,-287,184v-28,-10,-51,-25,-68,-42r1,0v-4,-3,-6,-7,-6,-12v-6,-16,56,-68,67,-67v18,23,64,42,104,42","w":408},"t":{"d":"394,-462v1,17,-18,76,-32,76r-116,-1r-44,215v-6,29,-9,49,-9,60v3,39,31,42,79,43v10,0,15,7,15,22v0,19,-16,64,-43,57v-65,0,-106,-8,-121,-25r0,1v-64,-73,-5,-217,9,-304r14,-68v-32,-1,-64,10,-64,-20v0,-12,20,-82,33,-79r52,1r22,-102v10,-22,108,-37,99,4r-21,97r92,-1v24,1,34,1,35,24","w":353},"u":{"d":"171,-161v1,59,29,80,90,80v52,0,118,-40,145,-76r71,-322v7,-7,23,-10,49,-10v33,0,50,7,50,21r-98,458v-8,25,-100,41,-100,-5r8,-38v-63,64,-124,90,-216,70v-39,-9,-74,-33,-87,-74v-21,-64,-15,-138,2,-215r44,-199v4,-21,62,-22,85,-11v11,5,17,10,16,15r-49,233v-7,31,-10,56,-10,73","w":553},"v":{"d":"100,-456v4,-26,30,-35,61,-35v29,0,47,11,49,32r34,317r197,-329v18,-32,103,-26,97,18r-279,448v-33,21,-70,14,-96,-2","w":497},"w":{"d":"175,-489v22,0,41,9,42,27r18,309r143,-298v17,-25,40,-37,69,-37v28,0,42,12,43,36r17,300r135,-284r13,-21v10,-19,30,-29,59,-29v26,0,49,8,48,34r-234,451v-33,14,-71,13,-104,-3r-24,-278r-144,281v-32,14,-71,13,-103,-3r-41,-445v2,-26,31,-40,63,-40","w":745},"x":{"d":"452,-47v13,35,-46,60,-85,56r-97,-175r-81,81r0,-1r-83,85v-25,18,-44,13,-70,-3v-14,-10,-21,-20,-21,-30v24,-33,170,-171,221,-221r-100,-190v3,0,4,-2,4,-5v3,-20,44,-40,69,-40v17,0,30,7,29,16r79,149r160,-157v39,-29,100,27,61,65r-187,181r49,95v16,31,33,63,52,96r0,-2","w":535},"y":{"d":"469,-478v18,-33,83,-2,87,22v0,5,-2,9,-6,13r2,-1r-209,359v-61,107,-109,188,-147,242v-52,74,-121,108,-224,101v-9,-4,-10,-15,-10,-28v0,-17,7,-36,20,-57v123,-4,175,-103,208,-197r-105,-427v-2,-2,-3,-8,-3,-17v19,-22,97,-36,108,5r79,325","w":505},"z":{"d":"126,-421v8,-30,7,-61,33,-63v94,-8,186,-6,289,3v14,1,25,22,25,42v0,27,-14,52,-42,76v-12,12,-55,48,-83,71v-78,62,-151,130,-218,214r246,-4v38,16,-8,89,-28,92v-9,1,-94,2,-254,2v-52,0,-85,2,-85,-39v0,-21,10,-45,31,-70v74,-92,192,-205,309,-302r-194,5v-19,0,-29,-9,-29,-27","w":428},"{":{"d":"71,-336v-1,-23,14,-51,34,-53v40,-4,75,-40,84,-81r51,-242v15,-48,41,-84,85,-99v40,-13,63,-13,113,-16v25,-1,30,8,31,30v1,16,-9,49,-24,49v-66,1,-95,7,-107,58r-49,226v-13,46,-41,85,-83,95v-8,1,-12,25,-12,36v0,3,-1,4,-3,4v45,4,57,56,47,106r-54,257v-13,51,25,54,79,54v9,0,14,7,14,20v-1,40,-12,59,-54,59v-80,0,-147,-13,-145,-94v1,-57,34,-170,32,-170r28,-132v11,-41,-8,-80,-47,-80v-13,-1,-20,-10,-20,-27","w":402},"|":{"d":"321,-688r-142,672v-4,18,-21,27,-52,27v-29,0,-43,-9,-43,-27r144,-679v13,-17,102,-36,93,7","w":354},"}":{"d":"195,-827v99,-5,186,17,165,119r-51,242v-12,40,13,74,48,77v12,1,18,10,18,27v-1,22,-14,57,-41,53v-43,6,-67,40,-76,84r-56,264v-12,54,-38,93,-83,111v-40,15,-60,17,-111,17v-27,1,-37,-3,-38,-27v0,-15,11,-52,26,-52v65,0,95,-8,106,-58r54,-257v17,-60,40,-93,87,-102v8,-2,11,-28,10,-40v-34,-7,-56,-52,-46,-99r49,-226v10,-49,-25,-55,-79,-54v-10,0,-15,-7,-15,-21v0,-18,19,-57,33,-58","w":389},"~":{"d":"252,-212v-12,0,-53,-19,-75,-29r0,1v-45,-23,-56,-20,-90,5v-29,22,-49,-28,-50,-53v0,-11,2,-18,6,-22v49,-44,119,-32,176,9v23,17,34,11,56,-3v17,-11,26,-20,34,-32v7,-3,11,-5,13,-5v22,2,59,51,36,77v-1,2,-4,5,-7,8r6,-8v-31,35,-66,52,-105,52","w":364},"\u00a0":{"w":310},"\u00a1":{"d":"298,-618v-30,23,-101,16,-88,-32v5,-20,6,-36,22,-48v15,-12,29,-12,53,-12v47,0,41,71,13,92xm286,-533r-109,519v-4,34,-109,38,-101,0r111,-526v14,-17,108,-37,99,7","w":327},"\u00a2":{"d":"416,-129v24,-7,42,30,42,51v-1,46,-94,81,-140,87r-14,69v-4,18,-21,27,-52,27v-29,0,-47,-9,-43,-27r15,-75v-83,-20,-139,-99,-139,-199v0,-149,119,-275,245,-299r24,-112v13,-17,102,-36,93,7r-21,98v41,4,106,14,106,52v0,28,-28,61,-57,69v-15,-17,-38,-27,-69,-29r-66,318v21,-5,47,-17,76,-37xm308,-397v-62,32,-120,95,-122,186v0,56,20,93,59,110","w":547},"\u00a3":{"d":"243,17v-45,0,-102,-23,-141,-24v-20,-1,-50,9,-87,17v-33,-6,-9,-83,10,-90v29,-10,55,-17,79,-17v31,-49,56,-111,76,-186v-42,-1,-73,5,-63,-33v8,-30,-4,-56,40,-56v21,0,34,0,41,-1r46,-213v15,-69,123,-129,209,-127v32,0,85,8,87,38v1,19,-32,69,-48,66v-31,-18,-84,-19,-118,1v-18,11,-32,22,-36,39r-40,190r57,0r80,4v33,12,6,88,-18,88v-36,0,-69,-3,-98,-3v-20,0,-33,0,-40,1v-41,111,-61,177,-61,197v0,17,16,25,48,25v39,0,106,-15,200,-46v29,-3,32,40,21,64v-4,10,-9,16,-14,18v-99,32,-175,48,-230,48","w":554},"\u00a4":{"d":"158,-641v5,-23,54,-51,80,-51v2,0,5,2,6,3r55,96v67,-33,154,-37,218,-4r96,-97r13,-5v17,-1,64,28,60,48v0,3,-3,11,-9,23r-91,91v21,31,31,68,31,110v-1,93,-46,172,-98,222r51,95v2,17,-55,62,-74,58v-11,0,-17,-4,-18,-12r-44,-80v-82,41,-165,44,-236,-1r-37,38r0,-1v-17,15,-32,43,-58,48v-22,-1,-71,-41,-50,-68r0,1r87,-88v-17,-29,-25,-64,-25,-103v1,-93,44,-169,97,-218r-51,-92v-2,-4,-3,-8,-3,-13xm517,-413v0,-70,-50,-118,-119,-116v-100,3,-184,94,-184,203v0,69,42,122,111,122v109,0,192,-94,192,-209","w":687},"\u00a5":{"d":"491,-175v10,2,17,23,16,38v0,38,-10,62,-31,62r-154,1r-18,79v-45,8,-66,13,-100,-4r17,-75r-135,0v-15,0,-23,-11,-23,-33v-1,-22,16,-67,36,-67r141,0v4,-18,9,-29,14,-62r-129,0v-15,0,-23,-10,-23,-31v-1,-22,16,-69,36,-69r137,0r7,-24r-115,-292v-4,-12,60,-69,76,-63v7,0,17,9,25,29r84,223r130,-123r134,-129r-1,0v30,-28,68,38,68,63r-300,289v-1,10,-6,17,-7,27r154,-1v11,2,18,26,17,41v0,35,-10,59,-32,59r-158,1v-4,18,-9,29,-14,62","w":650},"\u00a6":{"d":"276,-691r-71,337v-4,18,-22,27,-53,27v-29,0,-44,-9,-44,-27r72,-344v14,-17,105,-37,96,7xm181,-244r-71,337v-4,34,-105,38,-97,0r72,-344v14,-17,105,-37,96,7","w":234},"\u00a7":{"d":"197,-17v62,0,93,-29,92,-90v0,-39,-15,-72,-53,-72v-93,0,-144,-25,-144,-108v0,-69,24,-118,71,-149v-28,-30,-22,-106,-11,-161v15,-71,118,-126,205,-124v39,0,115,13,115,49v4,18,-42,70,-55,69v-17,-17,-43,-26,-78,-26v-69,0,-102,25,-102,92v0,43,28,54,79,54v74,-1,118,42,118,112v1,63,-34,120,-67,151v10,19,15,44,15,76v3,142,-72,220,-200,220v-66,0,-118,-17,-157,-50r1,0v-4,-2,-6,-6,-6,-11v-6,-18,55,-70,67,-69v27,25,64,37,110,37xm251,-276v59,0,93,-25,93,-78v0,-28,-23,-30,-57,-30v-71,0,-106,33,-100,97v19,7,41,11,64,11","w":468},"\u00a8":{"d":"348,-598v1,-42,30,-68,70,-68v30,-1,49,25,42,58v-6,29,-31,53,-67,53v-26,0,-45,-18,-45,-43xm176,-598v1,-42,30,-68,70,-68v30,-1,49,25,42,58v-6,29,-32,53,-67,53v-26,0,-45,-18,-45,-43","w":529},"\u00a9":{"d":"333,5v-180,2,-291,-167,-248,-361v22,-98,69,-182,147,-252v78,-70,161,-105,249,-105v152,0,259,123,257,278v-2,166,-103,310,-213,379v-63,40,-127,61,-192,61xm171,-285v0,110,70,200,176,199v139,-1,264,-142,289,-271v27,-140,-42,-272,-170,-271v-72,0,-140,35,-202,106v-62,71,-93,150,-93,237xm577,-503v2,12,-35,71,-49,67v-5,0,-9,-3,-14,-6v-80,-47,-177,21,-177,110v0,43,29,76,70,76v25,0,49,-10,74,-31r-1,0v22,-14,38,25,38,46v0,45,-84,73,-126,73v-84,0,-146,-68,-146,-153v0,-157,201,-292,331,-182","w":739},"\u00aa":{"d":"82,-490v0,-146,94,-267,238,-267v49,0,104,7,132,21v10,6,15,12,16,17v-4,40,-47,242,-60,286v4,28,48,41,77,42v-53,31,-92,46,-118,46v-23,0,-40,-9,-49,-26v-29,17,-54,26,-77,26v-106,0,-159,-48,-159,-145xm176,-498v0,48,15,72,61,73v30,0,62,-12,82,-22r53,-225v-63,-13,-96,-1,-144,40v-35,30,-52,75,-52,134","w":432},"\u00ab":{"d":"342,-53r-100,-177r-1,1v-7,-14,0,-30,9,-46r178,-182v26,-29,74,11,74,37r-174,172r98,163v-2,16,-62,71,-84,32xm162,-53r-100,-177r-1,1v-7,-14,0,-30,9,-46r178,-182v26,-29,74,11,74,37r-174,172r98,163v-2,16,-62,71,-84,32","w":484},"\u00ac":{"d":"562,-296v0,60,-29,143,-38,195v-2,12,-36,23,-54,23v-21,0,-36,-9,-32,-27r25,-125r-366,0v-15,0,-23,-10,-23,-29v-1,-23,13,-60,34,-60r407,-1v34,2,47,-5,47,24","w":586},"\u00ad":{"d":"479,-389v29,16,18,100,-15,100r-369,1v-15,0,-23,-10,-23,-31v-1,-22,16,-69,36,-69","w":505},"\u00ae":{"d":"362,-293r-22,113v-34,13,-92,15,-82,-29r68,-315v85,-33,234,-32,234,76v0,74,-43,123,-103,133r59,100v-4,17,-68,65,-88,32xm399,-458r-15,72v49,3,85,-11,85,-46v0,-30,-39,-33,-70,-26xm333,5v-180,2,-291,-167,-248,-361v22,-98,69,-182,147,-252v78,-70,161,-105,249,-105v152,0,259,123,257,278v-2,166,-103,310,-213,379v-63,40,-127,61,-192,61xm171,-285v0,110,70,200,176,199v139,-1,264,-142,289,-271v27,-140,-42,-272,-170,-271v-72,0,-140,35,-202,106v-62,71,-93,150,-93,237","w":751},"\u00af":{"d":"419,-675v12,1,21,13,20,28v0,30,-10,49,-30,49r-304,1v-17,0,-25,-8,-25,-24v-1,-24,14,-53,33,-53","w":386},"\u00b0":{"d":"247,-553v48,0,65,-39,65,-93v0,-29,-28,-38,-58,-31v-26,6,-49,49,-49,88v0,24,14,36,42,36xm121,-572v0,-110,62,-182,164,-182v76,0,114,31,114,93v-1,116,-57,189,-164,189v-76,0,-114,-33,-114,-100","w":392},"\u00b1":{"d":"147,-469v-1,-22,16,-67,36,-67r131,0r27,-129v1,-26,60,-34,87,-19v9,5,14,11,14,19r-27,129r139,-1v10,2,17,23,16,38v0,38,-10,62,-31,62r-145,1r-30,142v-11,22,-109,39,-100,-4r29,-138r-123,0v-15,0,-23,-11,-23,-33xm477,-174v10,2,17,23,16,38v0,38,-10,62,-31,62r-369,1v-15,0,-23,-11,-23,-33v-1,-22,16,-67,36,-67","w":602},"\u00b2":{"d":"215,-587v-31,23,-55,-38,-56,-60v-1,-5,4,-7,6,-11v34,-27,112,-58,177,-58v73,0,135,29,132,108v-2,70,-25,114,-69,144v-34,25,-45,30,-85,50v-71,34,-114,72,-131,115r205,0v10,41,-6,70,-23,90r-271,0v-35,0,-27,-52,-20,-84v26,-117,126,-158,224,-207v31,-16,69,-40,68,-88v0,-27,-13,-40,-40,-40v-47,1,-86,14,-118,41r1,0","w":473},"\u00b3":{"d":"290,-491v39,-4,69,-51,69,-97v0,-25,-20,-38,-60,-38v-29,0,-60,11,-95,33r1,0v-19,14,-26,2,-42,-21v-12,-17,-17,-30,-17,-38v36,-32,135,-72,207,-58v64,13,114,63,96,146v-14,64,-33,105,-68,122v19,18,29,44,29,77v1,97,-98,187,-204,187v-57,0,-105,-18,-145,-53r1,0v-4,-2,-6,-6,-6,-12v-3,-18,50,-77,69,-73v12,25,45,48,82,48v52,0,113,-33,112,-85v0,-32,-29,-48,-87,-48v-22,0,-57,16,-57,-22v0,-24,7,-63,28,-65","w":447},"\u00b4":{"d":"137,-544v-14,0,-35,-23,-35,-41v0,-19,11,-33,33,-44r162,-75v14,-2,42,38,42,58v0,14,-7,28,-23,34","w":330},"\u00b5":{"d":"238,-133v26,53,123,73,194,49v20,-7,33,-15,40,-26v9,-15,30,-101,61,-257r28,-131r103,0v-3,17,-6,32,-9,47v-45,239,-81,373,-108,403v-45,49,-112,73,-203,73v-55,0,-99,-14,-130,-43r-51,246v-3,23,-32,34,-59,34v-29,0,-43,-8,-43,-24r157,-736r98,0","w":632},"\u00b6":{"d":"127,-457v4,-168,99,-257,265,-258r219,-1v9,1,17,10,16,24v0,13,-41,227,-132,642v-9,43,17,72,58,71v11,0,16,7,16,21v0,16,-16,50,-29,50v-72,-3,-132,-36,-132,-111v0,-109,40,-215,71,-357v23,-103,42,-188,55,-254v-23,-3,-36,-3,-56,1r-122,577v-14,60,-14,146,42,150v30,10,7,71,-15,71v-78,0,-121,-60,-121,-148v0,-23,21,-131,62,-324v-116,8,-200,-39,-197,-154","w":653},"\u00b7":{"d":"212,-300v-2,55,-38,91,-93,91v-34,0,-60,-22,-59,-55v1,-54,37,-93,95,-93v33,0,58,24,57,57","w":226},"\u00b8":{"d":"27,117v-2,-11,21,-18,45,-23v42,-8,63,-22,63,-37v0,-18,-27,-31,-43,-37r18,-58r77,0r-4,54v49,18,34,74,-5,100v-36,25,-81,40,-126,43v-14,0,-26,-27,-25,-42","w":264},"\u00b9":{"d":"146,-455v-16,-6,-64,-50,-32,-74r237,-173v26,-8,68,-5,68,24r-107,486v-17,8,-77,6,-92,-4r76,-360","w":425},"\u00ba":{"d":"338,-670v-72,3,-133,67,-133,144v-1,48,32,86,80,86v65,0,135,-75,135,-142v0,-48,-34,-89,-82,-88xm271,-350v-109,0,-176,-95,-153,-211v20,-101,122,-195,235,-195v91,0,159,65,159,156v0,122,-125,250,-241,250","w":484},"\u00bb":{"d":"329,-225r-164,167v-29,24,-42,26,-67,1v-11,-12,-16,-22,-16,-31r169,-165r-99,-171v4,-17,63,-67,84,-30r105,189v0,11,-4,24,-12,40xm509,-225r-164,167v-29,24,-42,26,-67,1v-11,-12,-16,-22,-16,-31r169,-165r-99,-171v4,-17,63,-67,84,-30r105,189v0,11,-4,24,-12,40","w":554},"\u00bc":{"d":"901,-501v31,-8,81,-8,74,25r-54,253r65,0v-1,46,-9,77,-23,93r-62,0r-29,137v-42,8,-60,12,-92,-4r29,-133r-207,0r-11,-11r21,-68xm770,-718v26,1,70,19,61,51r-481,674v-23,32,-81,-6,-83,-32v0,-5,1,-8,4,-11r481,-674r0,1v3,-6,9,-9,18,-9xm156,-455v-16,-6,-64,-50,-32,-74r237,-173v26,-8,68,-5,68,24v-2,4,-30,132,-83,384v-15,74,-24,111,-25,110v-1,0,-1,-2,0,-7v-18,7,-75,5,-91,-4r76,-361xm740,-218r89,-5r24,-112","w":1044},"\u00bd":{"d":"756,-369v-31,23,-55,-38,-56,-60v-1,-5,4,-7,6,-11v34,-27,112,-58,177,-58v73,0,135,29,132,108v-2,70,-25,114,-69,144v-34,25,-45,30,-85,50v-71,34,-114,72,-131,115r205,0v10,41,-6,70,-23,90r-271,0v-35,0,-27,-52,-20,-84v26,-117,125,-158,223,-207v31,-16,70,-40,69,-88v0,-27,-13,-40,-40,-40v-47,1,-86,14,-118,41r1,0xm760,-711v26,1,70,19,61,51r-479,667v-24,32,-81,-6,-84,-31v0,-5,2,-9,5,-12r479,-667r0,1v3,-6,9,-9,18,-9xm158,-456v-16,-6,-66,-50,-34,-73r240,-173v24,-9,72,-4,66,24r-107,484r2,1v-14,10,-79,7,-94,-3r76,-360","w":1026},"\u00be":{"d":"961,-501v31,-8,81,-8,74,25r-54,253r65,0v-1,46,-9,77,-23,93r-62,0r-29,137v-42,8,-60,12,-92,-4r29,-133r-207,0r-11,-11r21,-68xm326,-491v36,-5,69,-53,69,-96v0,-26,-20,-39,-60,-39v-29,0,-61,11,-96,33r1,0v-5,4,-10,6,-13,6v-14,-1,-51,-45,-45,-66v67,-41,123,-61,167,-61v76,0,140,32,140,113v0,74,-33,139,-73,159v19,18,29,43,29,76v1,98,-97,188,-204,188v-57,0,-105,-18,-145,-53r1,0v-4,-2,-6,-7,-6,-14v-4,-16,54,-74,69,-71v12,25,45,48,82,48v52,0,112,-34,112,-86v0,-43,-70,-53,-128,-44v-24,-2,-16,-48,-9,-68v5,-14,12,-21,21,-22xm830,-718v26,1,70,19,61,51r-481,674v-23,32,-81,-6,-83,-32v0,-5,1,-8,4,-11r481,-674r0,1v3,-6,9,-9,18,-9xm802,-223r87,0r23,-108","w":1104},"\u00bf":{"d":"326,-23v-114,59,-293,42,-289,-105v4,-122,68,-186,154,-224v59,-27,105,-58,113,-131v4,-40,17,-55,54,-55v75,0,43,45,33,103v-27,154,-259,112,-260,298v0,40,25,60,74,60v56,0,102,-18,134,-53v7,-3,10,-5,11,-5v13,0,42,40,42,57v0,15,-22,32,-66,55xm329,-647v2,-40,28,-68,70,-68v26,0,45,18,45,44v-2,40,-30,68,-71,68v-25,1,-45,-19,-44,-44","w":454},"\u00c0":{"d":"25,-26r423,-675r0,1v2,-19,91,-24,94,1r88,675v1,27,-16,34,-47,34v-35,0,-53,-10,-56,-30r-20,-191r-259,0r-122,198v-21,37,-98,29,-101,-13xm495,-306r-43,-237r-143,237r186,0xm501,-756r-153,-69v-26,-21,-10,-38,14,-63v17,-18,30,-26,38,-27r137,79v22,16,17,47,-5,64v-13,11,-23,16,-31,16","w":688},"\u00c1":{"d":"25,-26r423,-675r0,1v2,-19,91,-24,94,1r88,675v1,27,-16,34,-47,34v-35,0,-53,-10,-56,-30r-20,-191r-259,0r-122,198v-21,37,-98,29,-101,-13xm495,-306r-43,-237r-143,237r186,0xm414,-756v-14,0,-35,-23,-35,-41v0,-19,11,-33,33,-44r162,-75v14,-2,42,38,42,58v0,14,-7,28,-23,34","w":688},"\u00c2":{"d":"25,-26r423,-675r0,1v2,-19,91,-24,94,1r88,675v1,27,-16,34,-47,34v-35,0,-53,-10,-56,-30r-20,-191r-259,0r-122,198v-21,37,-98,29,-101,-13xm495,-306r-43,-237r-143,237r186,0xm528,-916r117,72v6,22,-3,34,-26,52v-19,14,-30,21,-35,18r-87,-58r-125,62v-14,2,-34,-31,-34,-49v0,-14,7,-28,23,-35r133,-61r0,1v5,-4,29,-3,34,-2","w":685},"\u00c3":{"d":"25,-26r423,-675r0,1v2,-19,91,-24,94,1r88,675v1,27,-16,34,-47,34v-35,0,-53,-10,-56,-30r-20,-191r-259,0r-122,198v-21,37,-98,29,-101,-13xm495,-306r-43,-237r-143,237r186,0xm615,-892v22,2,59,51,36,77v-1,2,-4,5,-7,8r6,-8v-31,35,-66,52,-105,52v-13,0,-53,-20,-75,-29r0,1v-45,-23,-56,-20,-90,5v-29,22,-49,-28,-50,-53v0,-11,2,-18,6,-22v49,-44,119,-32,176,9v23,17,34,12,56,-2v17,-11,26,-21,34,-33v7,-3,11,-5,13,-5","w":688},"\u00c4":{"d":"25,-26r423,-675r0,1v2,-19,91,-24,94,1r88,675v1,27,-16,34,-47,34v-35,0,-53,-10,-56,-30r-20,-191r-259,0r-122,198v-21,37,-98,29,-101,-13xm495,-306r-43,-237r-143,237r186,0xm520,-810v1,-42,30,-68,70,-68v30,-1,49,25,42,58v-6,29,-31,53,-67,53v-26,0,-45,-18,-45,-43xm348,-810v1,-42,30,-68,70,-68v30,-1,49,25,42,58v-6,29,-32,53,-67,53v-26,0,-45,-18,-45,-43","w":688},"\u00c5":{"d":"-6,-26r422,-675r0,1v2,-19,91,-24,94,1r88,675v1,27,-16,34,-47,34v-35,0,-53,-10,-56,-30r-20,-191r-259,0r-122,198v-21,37,-97,30,-100,-13xm478,-749v-68,0,-116,-55,-102,-128v12,-62,82,-125,152,-125v59,0,105,44,105,102v0,77,-78,151,-155,151xm463,-306r-43,-237r-143,237r186,0xm517,-926v-34,2,-64,28,-65,63v0,22,16,37,39,37v30,0,65,-31,65,-61v0,-22,-17,-39,-39,-39","w":667},"\u00c6":{"d":"1064,-683v1,18,-9,60,-23,60v-66,0,-129,-1,-190,-1v-86,0,-129,3,-130,8r-41,193r261,0v17,0,26,10,26,31v0,21,-23,67,-40,67r-268,1r-49,233v54,14,230,5,312,3v14,0,21,9,21,27v0,28,-15,79,-52,70r-221,3v-108,0,-166,-8,-168,-24r-23,-199r-259,0r-122,198v-22,37,-99,28,-101,-13r423,-678v25,-17,69,-13,94,-1r47,366r72,-333v7,-13,33,-23,77,-30v97,-17,230,-9,342,-8v8,5,12,14,12,27xm467,-306r-43,-237r-143,237r186,0","w":1020},"\u00c7":{"d":"326,10r-3,17v50,20,35,71,-5,99v-36,25,-79,44,-125,44v-17,0,-28,-29,-24,-47v0,-8,10,-12,29,-16v52,-10,78,-24,78,-39v-3,-17,-28,-30,-44,-37r11,-38v-92,-36,-160,-135,-157,-260v5,-197,117,-336,256,-407v84,-43,177,-53,256,-8v34,20,51,39,51,56v2,9,-37,76,-50,70v-6,0,-10,-3,-12,-8v-26,-36,-56,-50,-119,-50v-70,0,-135,34,-194,101v-59,67,-88,143,-88,228v0,107,64,198,166,197v52,0,101,-18,146,-53r-1,0v26,-15,46,27,45,52v0,25,-22,49,-66,69v-48,22,-94,31,-150,30","w":611},"\u00c8":{"d":"572,-710v24,15,9,81,-11,87v-66,-1,-129,-1,-190,-1v-85,0,-128,3,-129,8r-42,193r261,0v17,0,26,10,26,31v0,21,-22,67,-39,67r-269,1r-49,233v54,14,230,5,312,3v14,0,21,10,21,29v0,22,-20,67,-37,68v-105,2,-409,17,-410,-34r137,-647v7,-13,33,-23,77,-30v97,-17,230,-9,342,-8xm464,-756r-153,-69v-26,-21,-11,-38,13,-63v17,-18,31,-26,39,-27r137,79v22,16,17,47,-5,64v-13,11,-23,16,-31,16","w":534},"\u00c9":{"d":"579,-710v24,15,9,81,-11,87v-66,-1,-129,-1,-190,-1v-85,0,-128,3,-129,8r-42,193r261,0v17,0,26,10,26,31v0,21,-22,67,-39,67r-269,1r-49,233v54,14,230,5,312,3v14,0,21,10,21,29v0,22,-20,67,-37,68v-105,2,-409,17,-410,-34r137,-647v7,-13,32,-23,76,-30v97,-17,231,-9,343,-8xm368,-756v-14,0,-35,-23,-35,-41v0,-19,11,-33,33,-44r162,-75v14,-2,42,38,42,58v0,14,-7,28,-23,34"},"\u00ca":{"d":"577,-710v24,15,9,81,-11,87v-66,-1,-129,-1,-190,-1v-85,0,-128,3,-129,8r-42,193r261,0v17,0,26,10,26,31v0,21,-22,67,-39,67r-269,1r-49,233v54,14,230,5,312,3v14,0,21,10,21,29v0,22,-20,67,-37,68v-105,2,-409,17,-410,-34r137,-647v7,-13,32,-23,76,-30v97,-17,231,-9,343,-8xm424,-916r117,72v6,22,-3,34,-26,52v-19,14,-30,21,-35,18r-87,-58r-125,62v-14,2,-34,-31,-34,-49v0,-14,7,-28,23,-35r133,-61r0,1v5,-4,29,-3,34,-2","w":531},"\u00cb":{"d":"570,-710v24,15,9,81,-11,87v-66,-1,-129,-1,-190,-1v-85,0,-128,3,-129,8r-42,193r261,0v17,0,26,10,26,31v0,21,-22,67,-39,67r-269,1r-49,233v54,14,230,5,312,3v14,0,21,10,21,29v0,22,-20,67,-37,68v-105,2,-409,17,-410,-34r137,-647v7,-13,33,-23,77,-30v97,-17,230,-9,342,-8xm424,-810v1,-42,30,-68,70,-68v30,-1,49,25,42,58v-6,29,-31,53,-67,53v-26,0,-45,-18,-45,-43xm252,-810v1,-42,30,-68,70,-68v30,-1,49,25,42,58v-6,29,-32,53,-67,53v-26,0,-45,-18,-45,-43","w":528},"\u00cc":{"d":"264,-691r-143,678v-4,34,-106,38,-98,0r145,-685v14,-17,105,-37,96,7xm271,-756r-153,-69v-26,-21,-10,-38,14,-63v17,-18,30,-26,38,-27r137,79v22,16,17,47,-5,64v-13,11,-23,16,-31,16","w":232},"\u00cd":{"d":"242,-756v-14,0,-37,-23,-35,-41v-3,-30,37,-44,62,-56r133,-63v14,-2,42,38,42,58v0,14,-7,28,-23,34xm285,-691r-143,678v-4,34,-106,38,-98,0r145,-685v14,-17,105,-37,96,7","w":283},"\u00ce":{"d":"341,-691r-143,678v-4,34,-106,38,-98,0r145,-685v14,-16,105,-37,96,7xm333,-916r117,72v6,22,-3,34,-26,52v-19,14,-30,21,-35,18r-87,-58r-125,62v-14,2,-34,-31,-34,-49v0,-14,7,-28,23,-35r133,-61r0,1v5,-4,29,-3,34,-2","w":350},"\u00cf":{"d":"320,-691r-143,678v-4,34,-106,38,-98,0r145,-685v14,-16,105,-37,96,7xm305,-810v1,-42,30,-68,70,-68v32,-1,49,28,41,61v-7,27,-31,50,-66,50v-26,0,-45,-18,-45,-43xm133,-810v1,-42,30,-68,70,-68v32,-1,49,28,41,61v-6,27,-32,50,-66,50v-26,0,-45,-18,-45,-43","w":307},"\u00d0":{"d":"237,10v-41,0,-147,6,-142,-18r63,-305r-66,0v-15,0,-23,-10,-23,-31v-1,-22,16,-69,36,-69r75,0r58,-276v6,-14,128,-21,151,-21v211,0,316,83,316,250v0,31,-3,69,-13,112v-54,243,-167,356,-455,358xm466,-414v29,16,18,100,-15,100r-194,1r-48,232v213,13,337,-76,385,-271v7,-31,10,-60,10,-87v0,-120,-74,-180,-221,-180r-62,4r-43,202","w":699},"\u00d1":{"d":"720,-682r-139,660v-7,23,-28,35,-63,35v-20,0,-33,-5,-38,-16r-256,-521r-110,519v-13,22,-107,29,-98,-12r140,-661v6,-36,86,-46,103,-11r253,513r109,-511v4,-12,44,-25,63,-25v24,0,36,10,36,30xm597,-892v22,2,59,51,36,77v-1,2,-4,5,-7,8r6,-8v-31,35,-66,52,-105,52v-13,0,-53,-20,-75,-29r0,1v-45,-23,-56,-20,-90,5v-29,22,-49,-28,-50,-53v0,-11,2,-18,6,-22v49,-44,119,-32,176,9v23,17,34,12,56,-2v17,-11,26,-21,34,-33v7,-3,11,-5,13,-5","w":682},"\u00d2":{"d":"296,22v-171,1,-253,-192,-212,-376v22,-99,68,-185,140,-258v72,-73,147,-110,226,-110v147,-2,224,115,223,264v-1,173,-90,331,-195,411v-59,45,-119,69,-182,69xm575,-439v1,-96,-46,-185,-135,-185v-49,0,-99,25,-148,76v-49,52,-82,112,-105,183v-40,125,9,288,130,290v39,0,79,-18,119,-53v72,-61,138,-185,139,-311xm484,-756r-153,-69v-26,-21,-11,-38,13,-63v17,-18,31,-26,39,-27r137,79v22,16,17,47,-5,64v-13,11,-23,16,-31,16","w":662},"\u00d3":{"d":"309,22v-171,1,-253,-192,-212,-376v22,-99,67,-185,139,-258v72,-73,148,-110,227,-110v147,-2,224,115,223,264v-1,173,-90,331,-195,411v-59,45,-119,69,-182,69xm588,-439v1,-96,-46,-185,-135,-185v-49,0,-99,25,-148,76v-49,52,-82,112,-105,183v-40,125,9,288,130,290v39,0,79,-18,119,-53v72,-61,138,-185,139,-311xm424,-756v-14,0,-35,-23,-35,-41v0,-19,11,-33,33,-44r162,-75v14,-2,42,38,42,58v0,14,-7,28,-23,34","w":672},"\u00d4":{"d":"302,22v-171,1,-253,-192,-212,-376v22,-99,68,-185,140,-258v72,-73,147,-110,226,-110v147,-2,224,115,223,264v-1,173,-90,331,-195,411v-59,45,-119,69,-182,69xm581,-439v1,-96,-46,-185,-135,-185v-49,0,-99,25,-148,76v-49,52,-82,112,-105,183v-40,125,9,288,130,290v39,0,79,-18,119,-53v72,-61,138,-185,139,-311xm493,-916r117,72v6,22,-3,34,-26,52v-19,14,-30,21,-35,18r-87,-58r-125,62v-14,2,-34,-31,-34,-49v0,-14,7,-28,23,-35r133,-61r0,1v5,-4,29,-3,34,-2","w":679},"\u00d5":{"d":"298,22v-171,1,-253,-192,-212,-376v22,-99,68,-185,140,-258v72,-73,147,-110,226,-110v147,-2,224,115,223,264v-1,173,-90,331,-195,411v-59,45,-119,69,-182,69xm577,-439v1,-96,-46,-185,-135,-185v-49,0,-99,25,-148,76v-49,52,-82,112,-105,183v-40,125,9,288,130,290v39,0,79,-18,119,-53v72,-61,138,-185,139,-311xm575,-892v22,2,59,51,36,77v-1,2,-4,5,-7,8r6,-8v-31,35,-66,52,-105,52v-13,0,-53,-20,-75,-29r0,1v-45,-23,-56,-20,-90,5v-29,22,-49,-28,-50,-53v0,-11,2,-18,6,-22v49,-44,119,-32,176,9v23,17,34,12,56,-2v17,-11,26,-21,34,-33v7,-3,11,-5,13,-5","w":669},"\u00d6":{"d":"305,22v-171,1,-253,-192,-212,-376v22,-99,67,-185,139,-258v72,-73,148,-110,227,-110v147,-2,224,115,223,264v-1,173,-90,331,-195,411v-59,45,-119,69,-182,69xm584,-439v1,-96,-46,-185,-135,-185v-49,0,-99,25,-148,76v-49,52,-82,112,-105,183v-40,125,9,288,130,290v39,0,79,-18,119,-53v72,-61,138,-185,139,-311xm496,-810v1,-42,30,-68,70,-68v30,-1,49,25,42,58v-6,29,-31,53,-67,53v-26,0,-45,-18,-45,-43xm324,-810v1,-42,30,-68,70,-68v30,-1,49,25,42,58v-6,29,-32,53,-67,53v-26,0,-45,-18,-45,-43","w":669},"\u00d7":{"d":"395,-509v33,-19,72,28,68,64r-119,98r68,85v4,8,6,14,6,17v4,20,-55,68,-73,65v-3,0,-6,-5,-5,-9r-4,8r-74,-97r-123,102r1,0v-2,2,-6,3,-11,3v-19,-2,-72,-40,-54,-70r128,-107r-82,-100v-1,-12,53,-79,72,-72v5,0,9,1,14,4r81,98","w":464},"\u00d8":{"d":"556,-547r-281,455v61,15,107,-4,159,-42v77,-56,147,-175,147,-302v0,-45,-8,-82,-25,-111xm203,-149r284,-458v-13,-4,-26,-6,-39,-6v-63,0,-125,36,-184,109v-59,73,-88,154,-88,243v0,45,9,82,27,112xm598,-752v27,1,69,12,62,46r-49,68v80,86,83,248,33,372v-43,108,-112,189,-206,242v-68,39,-143,50,-217,23r-45,64r0,-1v-20,36,-90,-1,-85,-33r55,-85v-91,-101,-80,-294,-10,-422v38,-70,84,-126,141,-168v81,-58,166,-82,261,-46r39,-52r0,1v3,-6,10,-9,21,-9","w":709},"\u00d9":{"d":"174,-248v-24,107,57,174,154,175v97,1,189,-101,206,-181r95,-437v9,-34,93,-16,98,7r-92,430v-28,145,-161,274,-326,276v-160,3,-269,-111,-233,-279r93,-437v14,-15,107,-36,98,7xm514,-756r-153,-69v-26,-21,-11,-38,13,-63v17,-18,31,-26,39,-27r137,79v22,16,17,47,-5,64v-13,11,-23,16,-31,16","w":685},"\u00da":{"d":"174,-248v-24,107,57,174,154,175v97,1,189,-101,206,-181r95,-437v9,-34,93,-16,98,7r-92,430v-28,145,-161,274,-326,276v-160,3,-269,-111,-233,-279r93,-437v14,-15,107,-36,98,7xm421,-756v-14,0,-35,-23,-35,-41v0,-19,11,-33,33,-44r162,-75v14,-2,42,38,42,58v0,14,-7,28,-23,34","w":692},"\u00db":{"d":"174,-248v-24,107,57,174,154,175v97,1,189,-101,206,-181r95,-437v9,-34,93,-16,98,7r-92,430v-28,145,-161,274,-326,276v-160,3,-269,-111,-233,-279r93,-437v14,-15,107,-36,98,7xm488,-916r117,72v6,22,-3,34,-26,52v-19,14,-30,21,-35,18r-87,-58r-125,62v-14,2,-34,-31,-34,-49v0,-14,7,-28,23,-35r133,-61r0,1v5,-4,29,-3,34,-2","w":662},"\u00dc":{"d":"174,-248v-27,106,59,160,157,162v99,1,185,-86,203,-168r94,-437v9,-34,93,-16,98,7r-91,430v-28,144,-159,261,-323,263v-160,3,-272,-99,-236,-266r93,-437v14,-15,107,-36,98,7xm644,-835v-2,39,-26,68,-68,68v-26,0,-46,-18,-46,-43v2,-40,30,-68,71,-68v25,0,44,18,43,43xm432,-834v-2,38,-27,67,-68,67v-26,0,-46,-18,-46,-43v2,-40,30,-68,71,-68v25,0,44,18,43,44","w":685},"\u00dd":{"d":"186,1r69,-321r-130,-329v-4,-12,60,-69,76,-63v7,0,17,8,24,26r103,264r295,-279r-1,0v30,-30,67,38,68,62r-333,315r-71,329v-44,8,-67,12,-100,-4xm375,-756v-14,0,-35,-23,-35,-41v0,-19,11,-33,33,-44r162,-75v14,-2,42,38,42,58v0,14,-7,28,-23,34","w":625},"\u00de":{"d":"369,-495v109,-2,166,107,139,223v-21,89,-60,158,-118,207v-58,49,-124,74,-197,74v-23,0,-45,-6,-64,-19r-41,190v-4,18,-21,27,-52,27v-28,0,-42,-9,-42,-27r180,-853v13,-17,102,-36,93,7r-48,228v51,-38,101,-57,150,-57xm241,-85v94,-1,167,-113,167,-221v0,-60,-24,-90,-71,-90v-49,0,-105,29,-134,51r-50,220v18,27,47,40,88,40","w":561},"\u00df":{"d":"258,-347v-19,0,-23,-6,-24,-25v-2,-25,21,-69,36,-73v9,3,20,0,30,-3v53,-14,108,-58,106,-126v0,-39,-30,-66,-90,-59r-74,9r-140,621v-3,9,-15,14,-36,14v-39,0,-59,-12,-59,-36r140,-654v35,-25,120,-36,192,-37v102,-2,161,46,165,131v0,22,-9,52,-26,91v-17,39,-40,70,-69,91v44,25,89,75,86,147v-8,165,-118,264,-282,269v-12,0,-18,-9,-18,-27v-1,-23,14,-63,33,-64v99,-4,160,-61,163,-165v2,-72,-65,-104,-133,-104","w":516},"\u00e0":{"d":"42,-159v0,-186,118,-339,301,-339v62,0,129,9,165,26v13,7,21,13,21,20v0,55,-63,309,-77,369v1,35,42,51,77,54v-55,35,-98,52,-129,52v-27,0,-46,-11,-57,-34v-35,22,-69,33,-102,33v-133,0,-199,-60,-199,-181xm351,-101r69,-298v-63,-23,-146,-12,-195,27v-43,34,-76,111,-76,201v0,69,29,103,88,103v39,0,77,-11,114,-33xm401,-544r-153,-69v-26,-21,-10,-38,14,-63v17,-18,30,-26,38,-27r137,79v22,16,17,47,-5,64v-13,11,-23,16,-31,16","w":536},"\u00e1":{"d":"49,-159v0,-186,118,-339,301,-339v62,0,129,9,165,26v13,7,21,13,21,20v0,55,-63,309,-77,369v1,35,43,51,77,54v-55,35,-98,52,-129,52v-27,0,-46,-11,-57,-34v-35,22,-69,33,-102,33v-133,0,-199,-60,-199,-181xm358,-101r69,-298v-63,-23,-146,-12,-195,27v-43,34,-76,111,-76,201v0,69,29,103,88,103v39,0,77,-11,114,-33xm320,-544v-14,0,-35,-23,-35,-41v0,-19,11,-33,33,-44r162,-75v14,-2,42,38,42,58v0,14,-7,28,-23,34"},"\u00e2":{"d":"53,-159v0,-186,118,-339,301,-339v62,0,129,9,165,26v13,7,21,13,21,20v0,55,-63,309,-77,369v1,35,43,51,77,54v-55,35,-98,52,-129,52v-27,0,-46,-11,-57,-34v-35,22,-69,33,-102,33v-133,0,-199,-60,-199,-181xm362,-101r69,-298v-63,-23,-146,-12,-195,27v-43,34,-76,111,-76,201v0,69,29,103,88,103v39,0,77,-11,114,-33xm443,-704r117,72v6,22,-3,34,-26,52v-19,14,-30,21,-35,18r-87,-58r-125,62v-14,2,-34,-31,-34,-49v0,-14,7,-28,23,-35r133,-61r0,1v5,-4,29,-3,34,-2"},"\u00e3":{"d":"51,-159v0,-186,118,-339,301,-339v62,0,129,9,165,26v13,7,21,13,21,20v0,55,-63,309,-77,369v1,35,43,51,77,54v-55,35,-98,52,-129,52v-27,0,-46,-11,-57,-34v-35,22,-69,33,-102,33v-133,0,-199,-60,-199,-181xm360,-101r69,-298v-63,-23,-146,-12,-195,27v-43,34,-76,111,-76,201v0,69,29,103,88,103v39,0,77,-11,114,-33xm535,-680v22,2,59,51,36,77v-1,2,-4,5,-7,8r6,-8v-31,35,-66,52,-105,52v-13,0,-53,-20,-75,-29r0,1v-45,-23,-56,-20,-90,5v-29,22,-49,-28,-50,-53v0,-11,2,-18,6,-22v49,-44,119,-32,176,9v23,17,34,12,56,-2v17,-11,26,-21,34,-33v7,-3,11,-5,13,-5"},"\u00e4":{"d":"52,-159v0,-186,118,-339,301,-339v62,0,129,9,165,26v13,7,21,13,21,20v0,55,-63,309,-77,369v1,35,43,51,77,54v-55,35,-98,52,-129,52v-27,0,-46,-11,-57,-34v-35,22,-69,33,-102,33v-133,0,-199,-60,-199,-181xm361,-101r69,-298v-63,-23,-146,-12,-195,27v-43,34,-76,111,-76,201v0,69,29,103,88,103v39,0,77,-11,114,-33xm450,-598v1,-42,30,-68,70,-68v30,-1,49,25,42,58v-6,29,-31,53,-67,53v-26,0,-45,-18,-45,-43xm278,-598v1,-42,30,-68,70,-68v30,-1,49,25,42,58v-6,29,-32,53,-67,53v-26,0,-45,-18,-45,-43"},"\u00e5":{"d":"423,-713v-34,2,-64,28,-65,63v0,22,16,37,39,37v30,0,65,-31,65,-61v0,-22,-17,-39,-39,-39xm384,-536v-68,0,-116,-55,-102,-128v12,-62,82,-125,152,-125v59,0,105,44,105,102v0,77,-78,151,-155,151xm54,-159v0,-186,118,-339,301,-339v62,0,129,9,165,26v13,7,21,13,21,20v0,55,-63,309,-77,369v1,35,43,51,77,54v-55,35,-98,52,-129,52v-27,0,-46,-11,-57,-34v-35,22,-69,33,-102,33v-133,0,-199,-60,-199,-181xm363,-101r69,-298v-63,-23,-146,-12,-195,27v-43,34,-76,111,-76,201v0,69,29,103,88,103v39,0,77,-11,114,-33"},"\u00e6":{"d":"633,-499v108,1,165,25,168,120v1,27,-8,73,-24,132v-6,21,-66,34,-174,31r-126,-3v-4,15,-6,30,-6,44v-1,119,127,120,227,83v19,0,28,31,28,52v0,41,-60,62,-181,62v-57,0,-106,-25,-146,-74v-56,49,-114,74,-173,74v-128,0,-192,-56,-192,-169v0,-123,47,-210,112,-275v52,-52,119,-76,202,-76v78,0,135,9,171,27v33,-19,71,-28,114,-28xm338,-101r81,-297v-11,-3,-95,-13,-125,-3v-95,31,-149,115,-151,240v0,62,27,93,82,93v39,0,76,-11,113,-33xm703,-369v-3,-42,-30,-46,-81,-47v-51,0,-89,24,-114,73r1,0r-9,41v41,3,132,2,192,2v7,-35,11,-58,11,-69","w":859},"\u00e7":{"d":"66,-197v0,-162,149,-308,304,-305v68,1,108,7,143,42r1,13v-7,35,-25,56,-55,65r-6,-3v-15,-17,-48,-26,-101,-26v-94,0,-185,103,-185,201v0,67,46,122,112,121v60,-1,78,-12,119,-40v24,-7,41,29,41,50v-1,49,-105,85,-157,89v0,2,0,4,-1,6v48,21,35,73,-5,100v-36,25,-81,40,-126,43v-15,1,-25,-25,-25,-41v0,-11,12,-18,35,-22v41,-7,75,-24,72,-39v-3,-17,-28,-31,-43,-37r7,-21v-74,-25,-130,-100,-130,-196","w":491},"\u00e8":{"d":"319,-499v108,1,165,25,168,120v1,27,-8,73,-24,132v-6,21,-66,34,-174,31r-128,-4v-3,14,-4,29,-4,44v-1,71,46,106,114,106v31,1,71,-10,113,-22v19,0,28,31,28,52v0,41,-60,62,-181,62v-117,0,-176,-61,-176,-182v0,-181,95,-339,264,-339xm389,-369v-3,-42,-30,-46,-81,-47v-64,0,-107,38,-129,114r199,2v7,-35,11,-58,11,-69xm351,-544r-153,-69v-26,-21,-10,-38,14,-63v17,-18,30,-26,38,-27r137,79v22,16,17,47,-5,64v-13,11,-23,16,-31,16","w":499},"\u00e9":{"d":"310,-499v108,1,165,25,168,120v1,27,-8,73,-24,132v-6,21,-66,34,-174,31r-128,-4v-3,14,-4,29,-4,44v-1,116,126,124,224,84v23,-2,30,30,31,52v0,41,-60,62,-181,62v-117,0,-176,-61,-176,-182v0,-181,95,-339,264,-339xm380,-369v-3,-42,-30,-46,-81,-47v-64,0,-107,38,-129,114r199,2v7,-35,11,-58,11,-69xm259,-544v-14,0,-35,-23,-35,-41v0,-19,11,-33,33,-44r162,-75v14,-2,42,38,42,58v0,14,-7,28,-23,34","w":486},"\u00ea":{"d":"322,-499v108,1,165,25,168,120v1,27,-8,73,-24,132v-6,21,-66,34,-174,31r-128,-4v-3,14,-4,29,-4,44v-1,116,126,124,224,84v23,-2,30,30,31,52v0,41,-60,62,-181,62v-117,0,-176,-61,-176,-182v0,-181,95,-339,264,-339xm392,-369v-3,-42,-30,-46,-81,-47v-64,0,-107,38,-129,114r199,2v7,-35,11,-58,11,-69xm359,-704r117,72v6,22,-3,34,-26,52v-19,14,-30,21,-35,18r-87,-58r-125,62v-14,2,-34,-31,-34,-49v0,-14,7,-28,23,-35r133,-61r0,1v5,-4,29,-3,34,-2","w":503},"\u00eb":{"d":"322,-499v108,1,165,25,168,120v1,27,-8,73,-24,132v-6,21,-66,34,-174,31r-128,-4v-3,14,-4,29,-4,44v-1,116,126,124,224,84v23,-2,30,30,31,52v0,41,-60,62,-181,62v-117,0,-176,-61,-176,-182v0,-181,95,-339,264,-339xm392,-369v-3,-42,-30,-46,-81,-47v-64,0,-107,38,-129,114r199,2v7,-35,11,-58,11,-69xm352,-598v1,-42,30,-68,70,-68v30,-1,49,25,42,58v-6,29,-31,53,-67,53v-26,0,-45,-18,-45,-43xm180,-598v1,-42,30,-68,70,-68v30,-1,49,25,42,58v-6,29,-32,53,-67,53v-26,0,-45,-18,-45,-43","w":497},"\u00ec":{"d":"274,-478r-97,464v-4,34,-109,38,-101,0r99,-471v14,-16,108,-37,99,7xm228,-544r-153,-69v-26,-21,-11,-38,13,-63v17,-18,31,-26,39,-27r137,79v22,16,17,47,-5,64v-13,11,-23,16,-31,16","w":293},"\u00ed":{"d":"244,-478r-98,464v-4,34,-109,38,-101,0r100,-471v14,-17,108,-37,99,7xm156,-544v-14,0,-37,-23,-35,-41v-3,-30,36,-44,62,-56v77,-35,121,-58,134,-63r0,1v13,-5,45,40,41,58v0,11,-5,21,-15,30","w":279},"\u00ee":{"d":"292,-478r-98,464v-5,18,-24,27,-55,27v-31,0,-46,-9,-46,-27r100,-471v14,-17,108,-37,99,7xm304,-704r117,72v6,22,-3,34,-26,52v-19,14,-30,21,-35,18r-87,-58r-125,62v-14,2,-34,-31,-34,-49v0,-11,6,-22,17,-32r139,-64r0,1v5,-4,29,-3,34,-2","w":362},"\u00ef":{"d":"255,-478r-98,464v-4,34,-109,38,-101,0r100,-471v14,-17,108,-37,99,7xm257,-598v1,-42,30,-68,70,-68v32,-1,49,28,41,61v-7,27,-31,50,-66,50v-26,0,-45,-18,-45,-43xm112,-598v1,-42,30,-68,70,-68v30,-1,49,25,42,58v-6,29,-32,53,-67,53v-26,0,-45,-18,-45,-43","w":301},"\u00f0":{"d":"387,-712v65,15,104,46,112,114v21,-10,48,-15,83,-15v26,0,39,13,39,40v0,19,-5,46,-23,46v-47,0,-75,1,-85,16v7,97,-6,166,-30,292v-24,130,-136,233,-273,236v-117,2,-200,-88,-169,-215v32,-132,106,-219,259,-224v32,0,56,5,71,14v29,18,0,90,-27,88v-10,-11,-39,-13,-63,-13v-74,-4,-148,101,-146,175v2,52,32,91,89,91v75,0,156,-86,169,-151v23,-122,35,-210,35,-271v-40,12,-90,14,-140,17v-18,0,-27,-13,-27,-40v0,-31,12,-46,36,-46v47,0,82,-4,105,-11v-5,-42,-33,-57,-73,-67v-5,-2,-8,-7,-8,-14v-3,-16,43,-66,57,-64v1,0,4,1,10,3","w":583},"\u00f1":{"d":"405,-498v109,-1,163,56,161,168v-2,115,-40,221,-60,324v-4,21,-63,21,-86,12v-11,-4,-16,-9,-15,-16r51,-239v5,-21,7,-40,7,-59v0,-58,-29,-87,-87,-87v-56,0,-117,31,-145,68r-25,111r-45,218r-4,-1v-16,16,-102,16,-97,-11r100,-462v15,-19,99,-30,99,12r-7,29v46,-45,97,-67,153,-67xm490,-680v22,2,59,51,36,77v-1,2,-4,5,-7,8r6,-8v-31,35,-66,52,-105,52v-13,0,-53,-20,-75,-29r0,1v-45,-23,-56,-20,-90,5v-29,22,-49,-28,-50,-53v0,-11,2,-18,6,-22v49,-44,119,-32,176,9v23,17,34,12,56,-2v17,-11,26,-21,34,-33v7,-3,11,-5,13,-5","w":549},"\u00f2":{"d":"469,-250v23,-89,-31,-160,-114,-157v-104,4,-185,99,-185,214v0,72,38,123,109,122v106,-2,166,-84,190,-179xm266,22v-119,1,-200,-76,-197,-198v3,-114,41,-192,116,-252v57,-46,120,-70,188,-70v134,0,228,107,195,249v-19,83,-60,148,-116,197v-56,49,-118,74,-186,74xm395,-544r-153,-69v-26,-21,-10,-38,14,-63v17,-18,30,-26,38,-27r137,79v22,16,17,47,-5,64v-13,11,-23,16,-31,16","w":575},"\u00f3":{"d":"469,-250v23,-89,-31,-160,-114,-157v-104,4,-185,99,-185,214v0,72,38,123,109,122v106,-2,166,-84,190,-179xm266,22v-119,1,-200,-76,-197,-198v3,-114,41,-192,116,-252v57,-46,120,-70,188,-70v134,0,228,107,195,249v-19,83,-60,148,-116,197v-56,49,-118,74,-186,74xm292,-544v-14,0,-35,-23,-35,-41v0,-19,11,-33,33,-44r162,-75v14,-2,42,38,42,58v0,14,-7,28,-23,34","w":575},"\u00f4":{"d":"469,-250v23,-89,-31,-160,-114,-157v-104,4,-185,99,-185,214v0,72,38,123,109,122v106,-2,166,-84,190,-179xm266,22v-119,1,-200,-76,-197,-198v3,-114,41,-192,116,-252v57,-46,120,-70,188,-70v134,0,228,107,195,249v-19,83,-60,148,-116,197v-56,49,-118,74,-186,74xm398,-704r117,72v6,22,-3,34,-26,52v-19,14,-30,21,-35,18r-87,-58r-125,62v-14,2,-34,-31,-34,-49v0,-14,7,-28,23,-35r133,-61r0,1v5,-4,29,-3,34,-2","w":575},"\u00f5":{"d":"469,-250v23,-89,-31,-160,-114,-157v-104,4,-185,99,-185,214v0,72,38,123,109,122v106,-2,166,-84,190,-179xm266,22v-119,1,-200,-76,-197,-198v3,-114,41,-192,116,-252v57,-46,120,-70,188,-70v134,0,228,107,195,249v-19,83,-60,148,-116,197v-56,49,-118,74,-186,74xm518,-680v22,2,59,51,36,77v-1,2,-4,5,-7,8r6,-8v-31,35,-66,52,-105,52v-13,0,-53,-20,-75,-29r0,1v-45,-23,-56,-20,-90,5v-29,22,-49,-28,-50,-53v0,-11,2,-18,6,-22v49,-44,119,-32,176,9v23,17,34,12,56,-2v17,-11,26,-21,34,-33v7,-3,11,-5,13,-5","w":575},"\u00f6":{"d":"469,-250v23,-89,-31,-160,-114,-157v-104,4,-185,99,-185,214v0,72,38,123,109,122v106,-2,166,-84,190,-179xm266,22v-119,1,-200,-76,-197,-198v3,-114,41,-192,116,-252v57,-46,120,-70,188,-70v134,0,228,107,195,249v-19,83,-60,148,-116,197v-56,49,-118,74,-186,74xm392,-598v1,-42,30,-68,70,-68v30,-1,49,25,42,58v-6,29,-31,53,-67,53v-26,0,-45,-18,-45,-43xm220,-598v1,-42,30,-68,70,-68v30,-1,49,25,42,58v-6,29,-32,53,-67,53v-26,0,-45,-18,-45,-43","w":575},"\u00f7":{"d":"186,-176v2,-48,36,-81,84,-81v36,0,58,35,48,72v-8,32,-39,60,-80,60v-30,0,-53,-21,-52,-51xm384,-504v0,49,-34,82,-83,81v-30,0,-53,-21,-52,-51v2,-49,35,-81,84,-81v30,-1,51,22,51,51xm478,-389v10,2,17,23,16,38v0,38,-10,62,-31,62r-369,1v-15,0,-23,-11,-23,-33v-1,-22,16,-67,36,-67","w":504},"\u00f8":{"d":"520,-560v26,-19,88,14,64,46r-67,89v78,114,38,254,-58,343v-66,61,-134,92,-205,92v-28,0,-59,-9,-94,-28r-55,64v-25,27,-67,-6,-70,-30v0,-7,2,-12,5,-15r57,-68v-24,-35,-36,-76,-36,-123v0,-87,32,-161,96,-220v87,-79,179,-109,296,-73xm449,-356r-238,273v19,8,39,15,52,14v47,0,91,-21,135,-64v44,-43,66,-93,66,-151v0,-29,-5,-53,-15,-72xm349,-407v-112,1,-226,131,-182,260r217,-255v-12,-3,-24,-5,-35,-5","w":579},"\u00f9":{"d":"181,-161v1,59,29,80,90,80v52,0,118,-40,145,-76r71,-322v7,-7,23,-10,49,-10v33,0,50,7,50,21r-98,458v-8,25,-100,41,-100,-5r8,-38v-63,64,-124,90,-216,70v-39,-9,-74,-33,-87,-74v-21,-64,-15,-138,2,-215r44,-199v4,-21,62,-22,85,-11v11,5,17,10,16,15r-49,233v-7,31,-10,56,-10,73xm347,-544r-153,-69v-26,-21,-10,-38,14,-63v17,-18,30,-26,38,-27r137,79v22,16,17,47,-5,64v-13,11,-23,16,-31,16","w":569},"\u00fa":{"d":"181,-161v1,59,29,80,90,80v52,0,118,-40,145,-76r71,-322v7,-7,23,-10,49,-10v33,0,50,7,50,21r-98,458v-8,25,-100,41,-100,-5r8,-38v-63,64,-124,90,-216,70v-39,-9,-74,-33,-87,-74v-21,-64,-15,-138,2,-215r44,-199v4,-21,62,-22,85,-11v11,5,17,10,16,15r-49,233v-7,31,-10,56,-10,73xm318,-544v-14,0,-35,-23,-35,-41v0,-19,11,-33,33,-44r162,-75v14,-2,42,38,42,58v0,14,-7,28,-23,34","w":569},"\u00fb":{"d":"181,-161v1,59,29,80,90,80v52,0,118,-40,145,-76r71,-322v7,-7,23,-10,49,-10v33,0,50,7,50,21r-98,458v-8,25,-100,41,-100,-5r8,-38v-63,64,-124,90,-216,70v-39,-9,-74,-33,-87,-74v-21,-64,-15,-138,2,-215r44,-199v4,-21,62,-22,85,-11v11,5,17,10,16,15r-49,233v-7,31,-10,56,-10,73xm389,-704r117,72v6,22,-3,34,-26,52v-19,14,-30,21,-35,18r-87,-58r-125,62v-14,2,-34,-31,-34,-49v0,-14,7,-28,23,-35r133,-61r0,1v5,-4,29,-3,34,-2","w":568},"\u00fc":{"d":"385,-598v1,-42,30,-68,70,-68v32,-1,49,28,41,61v-7,27,-31,50,-66,50v-26,0,-45,-18,-45,-43xm193,-598v1,-42,30,-68,70,-68v32,-1,49,28,41,61v-6,27,-32,50,-66,50v-26,0,-45,-18,-45,-43xm156,-161v1,59,29,80,90,80v52,0,118,-40,145,-76r71,-322v7,-7,23,-10,49,-10v33,0,50,7,50,21r-98,458v-8,25,-100,41,-100,-5r8,-38v-63,64,-125,90,-217,70v-39,-9,-73,-33,-86,-74v-21,-64,-15,-138,2,-215r44,-199v4,-21,62,-22,85,-11v11,5,17,10,16,15r-49,233v-7,31,-10,56,-10,73","w":561},"\u00fd":{"d":"496,-478v18,-33,83,-2,87,22v0,5,-2,9,-6,13r2,-1r-209,359v-61,107,-109,188,-147,242v-52,74,-121,108,-224,101v-9,-4,-10,-15,-10,-28v0,-17,7,-36,20,-57v123,-4,175,-103,208,-197r-105,-427v-2,-2,-3,-8,-3,-17v19,-22,97,-36,108,5r79,325xm308,-544v-14,0,-35,-23,-35,-41v0,-19,11,-33,33,-44r162,-75v14,-2,42,38,42,58v0,14,-7,28,-23,34","w":568},"\u00fe":{"d":"376,-495v109,-2,166,107,139,223v-21,89,-61,158,-119,207v-58,49,-123,74,-196,74v-23,0,-45,-6,-64,-19r-41,190v-4,18,-21,27,-52,27v-29,0,-43,-9,-43,-27r181,-853v13,-17,102,-36,93,7r-48,228v51,-38,101,-57,150,-57xm248,-85v94,-1,167,-113,167,-221v0,-60,-24,-90,-71,-90v-50,0,-103,29,-134,51r-50,220v18,27,47,40,88,40","w":534},"\u00ff":{"d":"479,-478v18,-33,83,-2,87,22v0,5,-2,9,-6,13r2,-1r-209,359v-61,107,-109,188,-147,242v-52,74,-121,108,-224,101v-9,-4,-10,-15,-10,-28v0,-17,7,-36,20,-57v123,-4,175,-103,208,-197r-105,-427v-2,-2,-3,-8,-3,-17v19,-22,97,-36,108,5r79,325xm378,-598v1,-42,30,-68,70,-68v30,-1,49,25,42,58v-6,29,-31,53,-67,53v-26,0,-45,-18,-45,-43xm206,-598v1,-42,30,-68,70,-68v30,-1,49,25,42,58v-6,29,-32,53,-67,53v-26,0,-45,-18,-45,-43","w":547},"\u0152":{"d":"1058,-625v-84,-5,-151,5,-224,23v-62,15,-122,51,-124,119r-13,58r204,0v17,0,26,10,26,31v0,22,-20,67,-39,67r-210,1r-37,173v0,45,66,68,197,68r99,-5v16,0,24,10,24,29v0,20,-20,68,-37,68r-108,3v-163,0,-253,-36,-272,-109v-71,71,-147,107,-228,107v-139,1,-229,-124,-225,-271v6,-196,109,-341,241,-415v126,-71,270,-40,326,87v77,-94,217,-128,389,-124v23,0,35,11,35,34v1,11,-13,57,-24,56xm592,-442v0,-93,-46,-177,-132,-177v-51,0,-101,25,-151,73v-67,64,-118,165,-122,279v-4,92,48,174,134,174v41,0,83,-15,125,-47v76,-56,146,-175,146,-302","w":1031},"\u0153":{"d":"917,-381v0,108,-68,153,-171,154r-176,0v-22,95,38,160,125,160v43,0,79,-10,111,-25v19,0,29,34,29,55v0,39,-61,59,-182,59v-81,0,-140,-44,-169,-100v-50,54,-125,100,-216,101v-119,1,-196,-77,-196,-200v0,-169,141,-323,304,-321v81,1,142,38,173,91v48,-52,123,-98,213,-98v103,0,155,41,155,124xm472,-248v23,-92,-29,-160,-114,-159v-86,0,-163,83,-179,161v-19,90,11,179,102,177v104,-2,169,-88,191,-179xm761,-310v40,3,63,-30,63,-62v0,-29,-30,-44,-89,-44v-59,-1,-133,58,-146,106r172,0","w":911},"\u0178":{"d":"208,1r69,-321r-130,-329v-4,-12,60,-69,76,-63v7,0,17,8,24,26r103,264r295,-279r-1,0v30,-30,67,38,68,62r-333,315r-71,329v-44,8,-67,12,-100,-4xm446,-810v1,-42,30,-68,70,-68v30,-1,49,25,42,58v-6,29,-31,53,-67,53v-26,0,-45,-18,-45,-43xm274,-810v1,-42,30,-68,70,-68v30,-1,49,25,42,58v-6,29,-32,53,-67,53v-26,0,-45,-18,-45,-43","w":638},"\u02c6":{"d":"325,-704r117,72v6,22,-3,34,-26,52v-19,14,-30,21,-35,18r-87,-58r-125,62v-14,2,-34,-31,-34,-49v0,-14,7,-28,23,-35r133,-61r0,1v5,-4,29,-3,34,-2","w":434},"\u02dc":{"d":"390,-680v22,2,59,51,36,77v-1,2,-4,5,-7,8r6,-8v-31,35,-66,52,-105,52v-13,0,-53,-20,-75,-29r0,1v-45,-23,-56,-20,-90,5v-29,22,-49,-28,-50,-53v0,-11,2,-18,6,-22v49,-44,119,-32,176,9v23,17,34,12,56,-2v17,-11,26,-21,34,-33v7,-3,11,-5,13,-5","w":405},"\u2013":{"d":"469,-389v29,16,18,100,-15,100r-369,1v-15,0,-23,-10,-23,-31v-1,-22,16,-69,36,-69","w":499},"\u2014":{"d":"589,-389v29,16,18,100,-15,100r-489,1v-15,0,-23,-10,-23,-31v-1,-22,16,-69,36,-69","w":614},"\u2018":{"d":"278,-655v0,48,-29,75,-66,84v4,33,22,53,54,61v17,11,10,14,2,55v-91,3,-137,-47,-137,-125v0,-74,22,-129,92,-129v32,0,55,23,55,54","w":324},"\u2019":{"d":"171,-622v2,-52,37,-87,89,-87v36,-1,60,30,52,68v-27,124,-98,186,-209,186v5,-37,13,-55,22,-55v37,-3,66,-33,83,-62v-25,-6,-37,-23,-37,-50","w":318},"\u201a":{"d":"54,-31v0,-42,29,-69,70,-69v53,-1,48,68,28,107v-27,52,-73,108,-154,107v-2,-11,0,-25,5,-42v30,-5,62,-33,69,-66v-12,-7,-18,-19,-18,-37","w":178},"\u201c":{"d":"449,-750v-4,18,-6,54,-22,55v-37,2,-66,33,-83,62v31,8,42,38,34,73v-8,33,-42,64,-86,64v-36,0,-61,-30,-52,-68v29,-124,98,-186,209,-186xm291,-750v-4,18,-6,54,-22,55v-37,2,-66,33,-83,62v31,8,42,38,34,73v-8,33,-42,64,-86,64v-36,0,-61,-30,-52,-68v29,-124,98,-186,209,-186","w":359},"\u201d":{"d":"126,-663v0,-49,38,-87,90,-87v37,0,60,31,52,69v-27,124,-97,184,-207,183v0,-20,7,-46,19,-53v37,-3,66,-33,83,-62v-25,-7,-37,-23,-37,-50xm284,-663v0,-49,38,-87,90,-87v37,0,60,31,52,69v-27,124,-97,184,-207,183v0,-20,7,-46,19,-53v37,-3,66,-33,83,-62v-25,-7,-37,-23,-37,-50","w":376},"\u201e":{"d":"71,-31v0,-42,29,-69,70,-69v53,-1,49,68,29,107v-27,52,-74,108,-155,107v-2,-11,0,-25,5,-42v30,-5,62,-33,69,-66v-12,-7,-18,-19,-18,-37xm204,-31v0,-42,29,-69,70,-69v53,-1,48,68,28,107v-27,52,-73,108,-154,107v-2,-11,0,-25,5,-42v30,-5,62,-33,69,-66v-12,-7,-18,-19,-18,-37","w":357},"\u2022":{"d":"176,-246v-69,4,-104,-45,-86,-109v13,-49,61,-92,125,-92v55,0,88,51,71,108v-13,42,-61,90,-110,93","w":302},"\u2026":{"d":"265,-74v0,53,-34,86,-86,86v-32,1,-56,-21,-56,-52v2,-51,37,-87,89,-87v31,0,53,23,53,53xm542,-74v0,53,-34,86,-86,86v-32,1,-56,-21,-56,-52v2,-51,37,-87,89,-87v31,0,53,23,53,53xm816,-74v0,53,-34,86,-86,86v-32,1,-56,-21,-56,-52v2,-51,37,-87,89,-87v31,0,53,23,53,53","w":946},"\u2039":{"d":"201,-53r-100,-177r-1,1v-7,-14,0,-30,9,-46r178,-182v26,-29,74,11,74,37r-174,172r98,163v-2,16,-62,71,-84,32","w":362},"\u203a":{"d":"286,-225r-164,167v-29,24,-42,26,-67,1v-11,-12,-16,-22,-16,-31r169,-165r-99,-171v4,-17,63,-67,84,-30r105,189v0,11,-4,24,-12,40","w":305},"\u20ac":{"d":"67,-261v-1,-21,15,-56,34,-56r69,-1r16,-70v-36,-3,-86,17,-86,-29v0,-21,15,-56,34,-56r78,-1v30,-83,69,-145,118,-186v76,-65,168,-78,274,-44v55,17,79,31,117,54r-21,82v-47,-25,-150,-55,-228,-55v-29,0,-57,13,-84,39v-27,26,-50,63,-70,110r220,0v7,1,13,14,12,25v0,31,-8,51,-23,61r-240,0r-17,70r243,0v7,41,2,71,-18,86r-235,0v-3,95,26,155,92,155v99,0,201,-18,253,-53r-18,95v-44,36,-153,57,-246,57v-136,0,-194,-96,-182,-254r-68,1v-16,0,-24,-10,-24,-30","w":703},"\u2122":{"d":"361,-485v-8,9,-48,12,-59,3r44,-211v0,-18,39,-24,52,-12v15,34,25,73,38,109r80,-104v13,-15,37,-16,51,4r-45,213v-7,5,-54,9,-55,1r20,-99r-46,60v-17,10,-37,11,-43,-6r-19,-45xm188,-655v-25,-2,-58,10,-58,-19v0,-15,5,-31,19,-34v13,-3,156,-1,168,0v1,24,-1,28,-13,53r-59,0r-35,160v-3,11,-12,17,-28,17v-18,0,-27,-7,-27,-21","w":550}}});
