/*!
 * The following copyright notice may not be removed under any circumstances.
 * 
 * Copyright:
 * Copyright (c) 2009 by La Tipomatika. All rights reserved.
 * 
 * Trademark:
 * Candela is a trademark of La Tipomatika.
 * 
 * Description:
 * Copyright (c) 2009 by La Tipomatika. All rights reserved.
 * 
 * Manufacturer:
 * La Tipomatika
 * 
 * Designer:
 * La Tipomatika
 * 
 * Vendor URL:
 * www.tipomatika.co.nr
 * 
 * License information:
 * www.tipomatika.co.nr
 */
Cufon.registerFont({"w":531,"face":{"font-family":"Candela Book","font-weight":400,"font-style":"italic","font-stretch":"normal","units-per-em":"1000","panose-1":"2 0 0 0 0 0 0 0 0 0","ascent":"750","descent":"-250","x-height":"12","cap-height":"4","bbox":"-175.595 -992 1080.21 254.881","underline-thickness":"50","underline-position":"-50","unicode-range":"U+0020-U+2122"},"glyphs":{" ":{"w":310},"!":{"d":"156,-75v10,11,4,29,1,44v-4,23,-29,31,-61,31v-17,0,-26,-13,-24,-31v4,-35,20,-53,64,-53v9,0,15,3,20,9xm105,-165r109,-519v-2,-19,49,-23,70,-14v7,3,11,6,10,10r-109,523v-8,13,-78,27,-80,0","w":321},"\"":{"d":"96,-503r42,-225v9,-22,62,-15,76,-2v1,1,1,2,1,3r-53,205v-5,28,-32,39,-58,28v-6,-3,-8,-6,-8,-9xm211,-503r42,-225v9,-22,62,-15,76,-2v1,1,1,2,1,3r-53,205v-5,28,-31,39,-57,28v-6,-3,-9,-6,-9,-9","w":295},"#":{"d":"168,-6v-13,22,-75,8,-73,-16r95,-200r-105,-1v-12,0,-15,-13,-10,-38v5,-27,13,-40,23,-40r128,1r55,-115r-100,-1v-12,0,-15,-13,-10,-38v3,-15,11,-40,24,-40r122,1r95,-202v15,-12,82,-5,70,20r-86,183r159,0r96,-203v15,-12,82,-5,70,20r-87,185r131,1v9,2,8,32,5,45v-4,19,-11,31,-23,31r-149,0r-54,116r125,1v9,2,8,32,5,45v-4,19,-11,31,-23,31r-144,0r-100,214v-12,22,-76,8,-73,-16r93,-199r-159,0xm360,-414r-55,115r159,0r55,-115r-159,0","w":787},"$":{"d":"495,-572v-21,-13,-46,-24,-81,-29r-60,216v94,9,152,70,130,176v-23,113,-116,196,-235,206r-21,76v-5,23,-65,15,-59,-7r18,-69v-72,-5,-121,-24,-147,-58v-2,-1,-2,-3,-1,-6v1,-14,43,-62,62,-54v31,27,67,42,107,45r67,-239v-112,-6,-169,-38,-144,-158v24,-115,103,-205,243,-203r17,-58v3,-12,65,-15,58,10r-16,52v23,3,47,9,72,17v50,15,36,28,15,61v-10,15,-19,22,-25,22xm411,-208v13,-61,-12,-95,-77,-104r-65,235v78,-10,125,-54,142,-131xm218,-471v-7,27,-3,49,6,64v11,18,40,21,70,21r60,-219v-72,3,-115,48,-136,134","w":537},"%":{"d":"330,-610v-41,-63,-133,3,-143,60v-8,44,18,86,58,85v63,-2,125,-83,85,-145xm611,-638v-39,33,-153,45,-210,22v5,12,14,44,10,63v-16,78,-91,155,-180,157v-80,1,-131,-71,-113,-157v19,-91,123,-181,230,-138v25,10,73,21,148,21v75,0,130,-8,162,-29v13,-9,29,-1,45,7v15,7,23,18,15,28r-496,656v-20,22,-77,-16,-63,-34xm492,-50v-41,-55,-19,-149,19,-191v40,-44,87,-69,144,-69v54,0,93,28,109,69v10,24,12,49,6,78v-15,78,-94,160,-181,160v-42,0,-74,-16,-97,-47xm639,-244v-34,1,-49,13,-69,33v-26,27,-41,77,-18,113v25,38,78,31,110,0v29,-28,53,-78,26,-120v-12,-17,-28,-26,-49,-26","w":748},"&":{"d":"307,-68v203,16,305,-91,325,-273v-48,-33,-126,-14,-138,33v-6,24,5,27,25,22v20,-5,37,3,31,26v-15,27,-38,39,-71,37v-58,-2,-84,-54,-43,-105v44,-55,146,-96,222,-64v34,14,70,34,113,24v15,-3,22,-14,27,-28v12,-35,-40,-12,-57,-25v-6,-5,-6,-14,3,-27v19,-27,45,-38,77,-35v57,5,72,59,35,107v-30,39,-79,68,-144,54v-26,220,-170,329,-404,335v-137,3,-237,-87,-222,-224v12,-103,84,-160,166,-191v-48,-13,-66,-91,-63,-152v6,-108,150,-191,273,-145v17,6,5,60,-7,65v-54,-13,-125,-6,-157,26v-16,16,-30,35,-33,60v-12,90,46,120,129,119v8,11,9,73,-8,73v-133,3,-194,28,-205,144v-7,78,58,139,126,144","w":834},"'":{"d":"101,-503r42,-225v9,-22,62,-15,76,-2v1,1,1,2,1,3r-53,205v-5,28,-31,39,-57,28v-6,-3,-9,-6,-9,-9","w":191},"(":{"d":"323,-821v16,-17,54,21,47,37v-87,99,-193,263,-222,406v-35,173,2,380,55,496v7,15,-43,41,-56,41v-4,0,-6,-1,-7,-4v-69,-130,-105,-345,-63,-535v31,-139,110,-288,246,-441","w":308},")":{"d":"169,-781v-2,-16,41,-41,55,-41v5,0,7,1,8,4v54,117,94,275,60,438v-43,208,-172,408,-290,535v-14,16,-58,-23,-46,-37v93,-107,234,-334,264,-496v28,-153,-4,-295,-51,-403","w":321},"*":{"d":"278,-680v3,-13,15,-19,44,-19v27,0,40,5,37,15r-41,121r119,-72v20,-7,52,53,24,67r-129,65r96,81v5,19,-6,29,-23,45v-15,14,-24,21,-32,18r-77,-98r-12,129v-7,13,-79,27,-80,0r51,-139r-133,109v-15,-2,-46,-46,-27,-64r138,-82r-109,-64v-4,-2,-5,-6,-4,-13v2,-15,39,-61,58,-54r95,78","w":458},"+":{"d":"460,-379v14,18,5,79,-17,80r-153,1r-30,150v-9,11,-55,21,-74,12v-5,-2,-7,-7,-6,-12r30,-150r-135,0v-12,0,-15,-14,-10,-41v5,-26,13,-39,23,-39r139,0r30,-137v-2,-19,50,-24,71,-15v7,3,10,7,9,11r-30,141","w":476},",":{"d":"204,-32r-132,152v-19,12,-59,2,-52,-24v1,-5,4,-12,10,-21r107,-147v25,-8,80,12,67,40","w":224},"-":{"d":"347,-299r-259,1v-13,0,-16,-14,-10,-41v6,-26,13,-39,23,-39r263,-1v14,19,5,81,-17,80","w":400},".":{"d":"146,2v-65,0,-64,-73,-26,-102v24,-19,69,-26,86,0v28,44,-11,102,-60,102","w":284},"\/":{"d":"399,-699v22,-8,72,2,65,29r-408,663v-16,24,-75,-3,-67,-26","w":393},"0":{"d":"167,-349v-38,179,-9,269,88,269v110,0,154,-80,185,-162v40,-108,98,-381,-69,-384v-43,0,-84,25,-121,75v-37,50,-65,117,-83,202xm88,-349v25,-121,65,-211,118,-269v53,-58,116,-87,188,-87v71,0,121,34,150,102v29,68,32,153,11,254v-22,105,-58,189,-109,253v-51,64,-119,95,-202,95v-88,0,-144,-36,-162,-104v-22,-81,-12,-156,6,-244","w":564},"1":{"d":"137,-487v-13,5,-47,-38,-27,-52v144,-102,217,-156,222,-156v22,-4,35,-6,51,-1v4,2,6,4,5,7r-143,676v-26,6,-56,10,-78,0r121,-572","w":363},"2":{"d":"55,-1v-37,-3,-26,-48,-19,-81v35,-173,194,-226,316,-311v42,-30,78,-75,90,-134v13,-65,-33,-102,-98,-102v-60,0,-120,28,-167,72v-8,1,-43,-35,-35,-48v1,-5,4,-8,7,-11v87,-73,156,-100,275,-82v66,10,113,45,110,122v-12,286,-362,255,-420,497v39,11,244,3,317,3v5,3,6,14,2,35v-5,25,-11,40,-18,40r-360,0","w":517},"3":{"d":"351,-383v64,0,100,-70,114,-137v14,-70,-17,-104,-96,-104v-73,0,-118,33,-163,60v-10,2,-37,-39,-31,-51v5,-27,166,-83,210,-81v93,5,163,34,163,126v0,84,-36,152,-82,198v-14,14,-29,23,-45,28v65,12,85,87,69,163v-20,96,-135,186,-253,186v-69,0,-134,-25,-193,-76v-5,-19,8,-30,26,-49v18,-18,26,-26,41,-22v28,42,70,72,141,72v89,0,147,-50,163,-125v22,-105,-90,-121,-197,-110v-24,-12,5,-67,21,-71v1,-5,38,-7,112,-7"},"4":{"d":"48,-180v-7,-29,5,-59,18,-73r369,-411v27,-6,67,-8,63,13r-84,392r86,0v2,23,-5,62,-11,74v-4,3,-29,5,-75,5r-16,0r-38,179v-26,6,-56,10,-78,0r38,-179r-272,0xm393,-527r-229,274r172,-6","w":526},"5":{"d":"430,-362v-67,-67,-189,-41,-283,-3v-19,0,-22,-27,-11,-82v11,-57,62,-196,83,-237v7,-13,66,-22,178,-19r219,6v7,28,-2,58,-16,79r-312,7v-32,34,-51,87,-59,151v106,-24,236,-4,282,63v27,38,43,91,27,160v-37,160,-155,237,-353,237v-51,0,-109,-19,-172,-58v10,-31,32,-53,57,-69v17,-1,18,0,32,12v42,34,134,45,207,23v73,-22,125,-68,143,-145v13,-55,5,-98,-22,-125","w":583},"6":{"d":"407,-628v-139,4,-205,122,-235,243v76,-82,215,-101,286,-7v32,42,38,102,23,182v-22,116,-126,209,-249,209v-112,0,-189,-82,-169,-207v9,-56,13,-92,16,-108v26,-120,68,-214,125,-282v92,-111,218,-132,348,-57v5,19,-6,28,-22,43v-13,12,-23,18,-29,18v-11,-19,-57,-35,-94,-34xm303,-385v-57,0,-127,37,-141,76v-17,49,-24,95,-21,147v3,58,45,95,110,95v88,0,141,-69,158,-144v20,-89,-21,-174,-106,-174","w":515},"7":{"d":"83,-8v191,-255,329,-465,400,-621r-304,0v-12,-11,-23,-67,2,-73r371,0v20,3,31,33,22,53v-84,196,-272,472,-397,638v-8,10,-29,15,-62,15v-23,0,-34,-4,-32,-12","w":519},"8":{"d":"209,-411v-61,-36,-37,-147,1,-197v39,-52,97,-90,188,-92v105,-2,171,66,149,171v-11,54,-39,93,-83,118v45,30,65,119,48,206v-24,120,-143,207,-276,208v-119,1,-216,-75,-185,-204v26,-111,61,-171,158,-210xm477,-541v17,-76,-86,-110,-153,-78v-37,17,-64,48,-74,85v-25,95,110,115,176,66v26,-19,44,-42,51,-73xm140,-188v-14,66,39,117,110,117v97,0,166,-68,183,-146v17,-85,-22,-171,-110,-160v-74,9,-127,35,-153,92v-19,40,-20,48,-30,97","w":552},"9":{"d":"85,-108v56,35,106,50,165,22v87,-41,129,-136,161,-232v-59,60,-142,92,-227,56v-73,-30,-103,-117,-80,-230v23,-115,123,-204,246,-205v111,-1,192,79,172,202v-24,150,-63,279,-126,368v-48,69,-105,106,-167,117v-34,6,-96,11,-133,-4v-29,-11,-42,-21,-62,-35v-9,-15,4,-26,20,-41v14,-14,22,-18,31,-18xm438,-508v14,-62,-35,-128,-100,-128v-85,0,-140,74,-155,146v-18,85,12,186,98,172v65,-11,107,-39,129,-93v17,-40,18,-50,28,-97","w":503},":":{"d":"143,2v-38,0,-58,-26,-47,-59v4,-40,71,-74,104,-37v10,12,10,29,5,44v-4,27,-33,52,-62,52xm224,-376v-61,0,-61,-70,-25,-97v22,-17,65,-24,81,0v27,40,-11,97,-56,97","w":342},";":{"d":"197,-376v-60,0,-61,-69,-25,-97v22,-17,66,-24,82,0v27,41,-12,97,-57,97xm182,-32r-132,152v-19,12,-59,2,-51,-24v1,-6,4,-14,9,-21r108,-147v23,-8,80,12,66,40","w":258},"<":{"d":"231,-83v-4,13,-52,51,-65,27r-102,-181v-1,-4,2,-25,6,-28r181,-185v18,-20,57,6,56,24r-177,175","w":292},"=":{"d":"583,-489v14,18,5,79,-17,80r-367,1v-13,0,-16,-14,-10,-41v6,-26,13,-39,23,-39xm517,-179r-367,1v-13,0,-16,-14,-10,-41v6,-26,13,-39,23,-39r371,-1v14,19,5,81,-17,80","w":675},">":{"d":"106,-426v4,-13,53,-47,66,-24r103,185v0,4,-3,25,-6,28r-178,181v-20,21,-55,-10,-55,-27r173,-168","w":299},"?":{"d":"200,-236v-3,15,0,40,-9,49v-7,15,-51,16,-67,9v-18,-8,2,-34,2,-48v0,-45,14,-76,40,-104v53,-55,137,-71,186,-130v17,-20,29,-43,35,-70v15,-71,-12,-106,-80,-106v-63,0,-112,24,-142,57v-13,7,-41,-35,-35,-50v10,-33,134,-75,187,-73v107,4,169,58,142,179v-15,66,-50,118,-99,142v-68,33,-145,59,-160,145xm120,2v-50,0,-49,-56,-20,-80v30,-25,85,-8,71,37v-7,21,-26,43,-51,43","w":444},"@":{"d":"775,-391v-187,-32,-290,100,-329,250v-17,64,12,97,76,97v40,-1,88,-4,116,-14xm516,168v88,-2,218,-40,277,-79r3,79v-64,38,-206,81,-298,81v-212,0,-345,-116,-388,-290v-14,-57,-12,-118,2,-184v41,-189,180,-345,340,-421v181,-86,425,-82,548,54v69,76,94,164,73,268v-26,131,-141,262,-241,320v-53,31,-99,47,-140,47v-33,0,-56,-11,-69,-34v-37,5,-72,20,-117,20v-108,0,-173,-58,-147,-167v25,-104,89,-200,161,-256v59,-47,125,-71,197,-71v38,0,130,4,157,14r-122,291v-28,67,-43,105,-45,114v-1,10,9,15,19,14v51,-5,103,-46,142,-81v52,-46,109,-130,126,-211v18,-84,-2,-155,-60,-213v-58,-58,-136,-87,-236,-87v-246,0,-462,192,-505,399v-46,223,109,399,323,393","w":1110},"A":{"d":"477,-296r1,-5r-48,-269r-168,274r215,0xm592,-22v1,32,-75,28,-82,4r-21,-203r-274,0r-125,202v-14,22,-49,26,-72,12v-9,-5,-12,-11,-11,-17r421,-672v3,-7,18,-10,45,-10v20,0,30,3,31,9","w":669},"B":{"d":"192,-420v118,7,212,-32,234,-130v24,-106,-94,-124,-186,-97xm368,-333v-43,-30,-120,-27,-189,-24r-61,283v26,15,63,23,112,23v113,0,187,-87,182,-213v-1,-33,-24,-55,-44,-69xm385,-399v54,23,96,63,105,135v2,18,0,36,-4,56v-27,129,-127,220,-276,220v-69,1,-140,-14,-181,-34r141,-663v34,-20,111,-28,178,-28v86,0,141,36,152,109v3,19,1,35,-3,51v-13,53,-61,140,-112,154","w":514},"C":{"d":"585,-579v-25,-37,-67,-56,-128,-56v-137,1,-261,156,-287,284v-29,141,39,285,166,285v55,0,106,-18,153,-55v19,-7,30,34,26,54v-11,45,-130,79,-195,79v-168,0,-271,-179,-228,-363v23,-97,69,-181,144,-253v75,-72,155,-108,238,-108v41,0,78,9,110,28v52,31,54,42,26,84v-12,16,-17,27,-25,21","w":579},"D":{"d":"249,-637r-122,577v228,17,363,-80,410,-290v49,-221,-72,-309,-288,-287xm472,-77v-78,69,-207,93,-361,90v-43,0,-68,-2,-76,-7r149,-705v4,-8,126,-13,141,-13v244,0,341,121,290,362v-26,123,-75,213,-143,273","w":630},"E":{"d":"168,-672v2,-40,306,-30,407,-28v6,3,7,18,2,45v-3,15,-7,22,-11,22v-66,-1,-129,-1,-190,-1v-91,0,-137,5,-139,16r-44,205r273,0v29,0,13,48,2,64v-6,9,-10,14,-15,14r-277,1r-52,245v26,22,88,17,139,16r184,-5v11,0,15,11,10,34v-6,29,-15,43,-26,43r-205,4v-59,0,-106,-2,-143,-6v-37,-4,-54,-11,-52,-20","w":524},"F":{"d":"583,-696v0,31,-6,47,-18,69v-81,-6,-309,-13,-321,18v-18,44,-30,138,-42,196r239,-1v11,0,14,12,9,35v-5,27,-13,41,-24,44r-240,0r-71,333v-23,6,-54,4,-77,0r139,-671v5,-18,92,-27,260,-27v63,0,111,1,146,4","w":499},"G":{"d":"495,-313v-42,0,-85,11,-121,11v-8,0,-11,-14,-4,-40v14,-54,8,-33,73,-41v32,-4,58,-4,79,-4v80,0,117,17,110,50v-23,109,-65,194,-126,256v-61,62,-131,93,-210,93v-168,0,-246,-169,-207,-363v20,-98,66,-181,137,-253v71,-72,146,-108,224,-108v71,0,125,27,163,75r0,7v-2,12,-40,61,-56,54v-31,-39,-72,-59,-124,-59v-57,0,-111,28,-163,85v-52,57,-86,123,-103,199v-31,136,25,287,145,285v121,-3,211,-118,237,-228v3,-13,-15,-19,-54,-19","w":647},"H":{"d":"657,-688r-142,678v-10,10,-56,21,-75,12v-4,-2,-6,-7,-5,-12r67,-316r-326,0r-66,316v-9,11,-55,21,-74,12v-4,-2,-6,-7,-5,-12r143,-678v9,-9,56,-19,74,-10v4,2,6,5,5,10r-60,283r326,0r60,-283v9,-9,55,-19,73,-10v4,2,6,5,5,10","w":616},"I":{"d":"260,-693r-143,678v-2,13,-16,19,-43,19v-25,0,-37,-5,-35,-15r144,-682v9,-10,52,-21,71,-11v5,2,7,6,6,11","w":217},"J":{"d":"-13,-2v-7,-25,-1,-44,13,-63v99,0,174,-74,205,-225r83,-400v10,-9,57,-22,76,-12v4,2,6,7,5,12r-85,400v-32,142,-94,253,-226,286v-24,6,-47,5,-71,2","w":329},"K":{"d":"536,-54v3,15,-57,58,-69,54r-282,-327r-69,324v-19,5,-61,8,-78,0r145,-686v9,-9,55,-20,73,-11v4,2,7,6,6,11r-51,239r2,2r359,-252v27,21,42,39,44,56r-359,256","w":606},"L":{"d":"251,-688r-135,613v9,7,68,10,176,7v108,-3,164,-7,169,-13v13,0,15,16,8,49v-3,17,-7,25,-12,25v-60,10,-314,15,-413,1v-10,-2,-16,-4,-15,-7r143,-678v14,-9,50,-17,73,-9v5,2,7,7,6,12","w":532},"M":{"d":"211,-507r-106,500v-2,8,-18,12,-48,12v-14,0,-31,-1,-31,-11r144,-685v2,-8,20,-12,53,-12v17,0,25,3,27,8r142,465r359,-462v11,-9,55,-16,73,-8v5,2,7,5,6,10r-145,686v0,6,-16,9,-47,9v-23,0,-34,-4,-32,-11r115,-541r-327,412v-13,13,-46,20,-56,4","w":785},"N":{"d":"710,-684r-139,660v-5,18,-22,27,-53,27v-17,0,-27,-3,-30,-10r-268,-546r-115,543v-3,9,-18,13,-47,13v-17,0,-35,-3,-32,-18r140,-661v5,-28,72,-35,85,-9r265,540r115,-540v8,-12,54,-25,73,-13v5,3,7,8,6,14","w":665},"O":{"d":"80,-352v19,-98,66,-182,136,-253v70,-71,143,-107,220,-107v85,0,144,34,180,104v36,70,43,155,22,256v-21,98,-66,184,-136,256v-70,72,-143,108,-220,108v-109,0,-182,-87,-202,-183v-12,-54,-13,-115,0,-181xm272,-556v-57,59,-95,127,-116,214v-32,129,34,277,147,277v54,0,106,-30,157,-90v51,-60,84,-130,103,-210v30,-130,-23,-270,-137,-269v-52,0,-103,26,-154,78","w":634},"P":{"d":"231,-627r-63,308v63,21,144,8,189,-23v44,-30,73,-85,88,-150v22,-100,-16,-153,-102,-154v-41,0,-86,7,-112,19xm21,-3r144,-676v51,-22,117,-33,196,-33v135,-1,200,76,170,220v-33,160,-182,301,-379,250r-51,239v-22,8,-55,4,-80,0","w":505},"Q":{"d":"330,10v13,55,50,82,111,82v7,17,-6,57,-11,60v-100,17,-179,-40,-185,-140v-133,-20,-203,-190,-164,-360v23,-98,67,-184,137,-256v70,-72,145,-108,222,-108v109,0,184,86,204,182v12,54,12,115,0,182v-30,163,-166,324,-314,358xm276,-554v-60,60,-100,130,-121,220v-31,128,18,265,124,270v82,4,156,-46,193,-91v43,-54,81,-136,97,-211v29,-130,-20,-268,-135,-266v-53,0,-105,26,-158,78","w":638},"R":{"d":"367,-290r-105,1v-35,0,-64,-1,-88,-3r-62,290v-26,7,-46,13,-66,4v-5,-3,-6,-8,-5,-14r140,-663v71,-25,146,-37,226,-37v131,0,213,85,184,219v-21,95,-63,137,-144,174v99,31,70,212,50,310v-11,10,-67,21,-74,0v12,-93,45,-262,-56,-281xm190,-367v23,8,72,13,107,13v123,0,193,-43,212,-127v23,-102,-25,-163,-119,-162v-49,0,-111,10,-148,20","w":574},"S":{"d":"486,-608v-31,-21,-73,-33,-133,-33v-87,0,-131,71,-148,147v-9,43,-1,76,25,90v24,13,43,17,78,17v112,-2,181,63,159,178v-23,119,-131,220,-262,221v-93,0,-155,-20,-186,-59v-1,-15,6,-24,23,-40v16,-16,25,-23,39,-20v53,55,186,64,250,6v31,-28,55,-62,63,-107v14,-77,-30,-107,-114,-107v-133,0,-186,-60,-161,-181v24,-115,106,-218,243,-216v81,0,115,10,167,38v2,16,-7,26,-19,44v-10,15,-19,22,-24,22","w":493},"T":{"d":"182,-14r138,-608v-58,-4,-154,0,-219,0v-20,-4,-12,-70,4,-71v30,-9,494,-9,522,0v8,0,10,11,6,33v-5,25,-15,38,-30,38v-50,-2,-95,-3,-136,-3v-34,0,-57,1,-69,3r-138,608v-1,10,-16,15,-43,15v-16,0,-38,-3,-35,-15","w":589},"U":{"d":"625,-256v-27,141,-156,267,-316,268v-154,1,-258,-104,-223,-267r92,-434v9,-9,56,-20,74,-11v4,2,6,6,5,11r-93,439v-25,112,60,186,164,187v106,1,197,-100,216,-189r94,-434v6,-23,67,-15,79,0","w":692},"V":{"d":"697,-696v18,-25,65,20,65,33r-451,659v-20,9,-38,6,-66,1r-104,-666v2,-8,53,-38,68,-35v7,0,11,3,12,8r89,567","w":684},"W":{"d":"139,-671v5,-19,51,-23,77,-23v1,-1,2,30,4,90v2,60,5,129,6,206v1,77,1,153,-2,226r266,-517v3,-15,57,-18,71,-9v1,-1,2,29,5,90v3,61,4,131,6,209v2,78,2,154,0,227r264,-522v18,-23,65,3,72,20r-331,672v-22,4,-71,8,-85,-2r-3,-12r-12,-500r-267,514v-24,4,-52,8,-66,-2r-3,-12","w":830},"X":{"d":"541,-36v7,24,-42,37,-62,38v-6,0,-10,-1,-12,-4r-128,-290r-267,293v-22,16,-69,-9,-65,-32v7,-16,107,-127,302,-333r-142,-277v-7,-21,6,-28,22,-41v13,-10,25,-15,36,-15v7,0,11,2,13,7r139,273r280,-280v27,-23,78,23,50,51r-300,300","w":635},"Y":{"d":"630,-694v23,-20,52,36,50,51r-333,315r-69,325v-26,5,-61,8,-80,0r68,-319r-133,-336v1,-9,54,-47,68,-44v4,0,7,2,9,6r112,292","w":601},"Z":{"d":"452,-74v9,0,10,11,5,33v-6,27,-12,40,-20,40v-53,1,-110,1,-170,1v-145,0,-224,-3,-238,-5v-17,-2,-21,-26,-16,-48v3,-13,9,-26,16,-40v199,-231,360,-407,481,-530v-61,-15,-228,0,-310,-3v-23,-17,3,-74,29,-74v52,0,111,-2,178,-2v63,0,128,0,193,3v28,1,26,60,6,72r-500,550v2,6,40,11,114,9","w":547},"[":{"d":"397,-759v-73,1,-104,9,-117,66r-1,0r-153,724v-12,63,23,64,89,66v6,0,7,7,3,22v-9,30,-9,37,-43,37v-48,0,-96,-4,-117,-32v-8,-11,-22,-29,-18,-50v1,-11,1,-24,4,-38r158,-746v17,-54,48,-91,107,-102v38,-8,51,-6,94,-6v16,6,6,60,-6,59","w":345},"\\":{"d":"326,-33v1,19,-44,34,-63,35v-9,0,-14,-3,-15,-9r-126,-666v5,-20,54,-35,77,-26","w":393},"]":{"d":"271,-693v10,-63,-23,-64,-89,-66v-5,0,-7,-7,-4,-21v6,-25,13,-38,22,-38v55,0,92,4,112,13v36,16,53,48,43,95r-158,746v-11,51,-36,88,-78,104v-38,13,-58,16,-106,16v-29,0,-32,-4,-25,-37v4,-15,8,-22,12,-22v74,-1,105,-9,117,-66r155,-724r-1,0","w":314},"^":{"d":"359,-718r149,128v11,17,-2,30,-16,44v-11,12,-17,16,-24,16r-136,-125r-213,127v-10,0,-26,-32,-21,-45v2,-6,4,-12,10,-16r223,-129v1,-1,26,-1,28,0","w":515},"_":{"d":"542,77v14,18,5,79,-17,80r-494,1v-12,0,-15,-14,-10,-41v5,-26,13,-39,23,-39","w":606},"`":{"d":"277,-554r-156,-71v-3,-3,-4,-7,-3,-14v1,-14,37,-56,50,-56r131,76v35,20,-2,62,-22,65","w":320},"a":{"d":"326,-27v-20,16,-69,39,-107,39v-145,0,-209,-77,-184,-229v25,-153,115,-271,286,-271v58,0,121,6,157,20v12,5,18,11,19,16v-5,48,-62,312,-77,363v-3,39,18,62,56,68v-35,23,-133,63,-150,-6xm339,-96r70,-304v0,-3,-8,-7,-25,-11v-46,-9,-101,-2,-142,15v-61,26,-111,98,-122,181v-13,97,9,157,95,157v48,0,98,-17,124,-38","w":499},"b":{"d":"192,-352r-54,241v19,33,51,49,98,49v90,0,156,-82,173,-173v22,-116,0,-174,-73,-174v-49,0,-97,19,-144,57xm55,-82r128,-604v7,-13,25,-19,54,-19v16,0,25,5,26,16r-57,271v56,-47,110,-70,161,-70v100,-2,155,100,130,211v-21,95,-59,166,-115,215v-56,49,-121,74,-194,74v-72,0,-116,-31,-133,-94","w":501},"c":{"d":"246,-67v62,0,83,-15,126,-41v13,0,27,32,24,50v-7,39,-116,70,-163,70v-128,0,-194,-124,-164,-262v27,-126,130,-237,271,-238v65,0,110,12,135,37v-5,31,-20,55,-46,62v-15,-19,-51,-28,-107,-28v-92,1,-156,86,-173,170v-19,93,13,180,97,180","w":448},"d":{"d":"434,-401v-107,-22,-198,16,-243,87v-28,45,-65,164,-25,214v20,25,49,37,89,37v49,0,87,-8,114,-25xm493,-684v11,-15,69,-24,80,-4r-139,658v-39,23,-129,42,-198,42v-134,2,-199,-85,-169,-228v34,-160,184,-313,383,-263","w":529},"e":{"d":"155,-293v49,2,95,3,136,3v56,0,84,-2,85,-7v6,-40,27,-103,-14,-119v-18,-6,-39,-10,-66,-10v-83,-1,-125,65,-141,133xm157,-101v45,54,138,46,212,19v18,-6,23,38,20,55v-3,15,-23,25,-59,31v-69,10,-157,14,-208,-14v-71,-40,-79,-148,-58,-246v27,-128,102,-233,243,-233v133,0,176,41,150,175v-1,6,-8,27,-16,63v-7,31,-223,25,-300,21v-13,59,-7,102,16,129","w":471},"f":{"d":"-146,228v-7,-24,1,-46,14,-63v99,0,174,-74,205,-225r70,-342v-9,3,-61,3,-62,-3v-6,-4,8,-70,17,-64v19,2,44,1,61,-2r28,-122v17,-83,162,-151,264,-107v26,11,9,34,-3,54v-8,14,-15,21,-23,18v-56,-30,-152,-9,-164,47r-23,108v62,-3,66,-3,149,2v8,0,9,11,4,33v-5,22,-11,35,-21,35v-49,0,-109,-6,-146,0r-72,343v-32,142,-94,253,-226,286v-24,6,-47,5,-72,2","w":379},"g":{"d":"346,212v-114,66,-345,69,-354,-86v-1,-17,39,-35,56,-36v11,-1,17,0,19,4v-3,104,168,98,237,61v30,-16,50,-38,56,-67v16,-76,-17,-86,-94,-88r-64,2v-71,0,-117,-25,-137,-76r103,-78v-44,-35,-61,-85,-48,-149v20,-99,105,-195,225,-188r232,14v5,9,5,36,5,52r-109,7v23,38,26,77,19,118v-16,92,-121,180,-226,178v-19,0,-36,-3,-50,-10r-41,40v24,21,48,15,106,16v112,2,191,37,165,158v-12,59,-46,97,-100,128xm333,-418v-65,-1,-126,63,-138,119v-13,61,30,108,89,108v92,0,181,-104,122,-191v-17,-25,-42,-36,-73,-36","w":554},"h":{"d":"177,-687v7,-14,26,-17,46,-17v26,0,36,4,34,16r-50,243v82,-57,200,-59,259,17v31,39,44,86,32,142r-60,282v-31,7,-58,12,-81,0r60,-282v9,-72,-55,-120,-129,-120v-33,0,-64,8,-95,24r-80,378v-26,9,-59,9,-81,0","w":506},"i":{"d":"172,-570v-10,-12,-4,-30,-1,-44v5,-23,28,-31,60,-31v16,0,28,13,25,31v-5,26,-13,53,-42,53v-18,0,-33,2,-42,-9xm222,-480r-97,464v-3,13,-18,19,-45,19v-26,0,-38,-5,-36,-15r98,-468v10,-10,55,-22,74,-12v5,2,7,7,6,12","w":224},"j":{"d":"-173,248v-7,-25,1,-48,14,-66v121,-3,174,-97,205,-188v6,-17,7,-31,11,-48r89,-421v10,-10,59,-21,78,-11v4,2,6,6,5,11r-89,421v-32,149,-97,265,-235,299v-26,6,-51,6,-78,3xm174,-560v-10,-11,-3,-30,0,-44v4,-22,26,-32,58,-32v16,0,27,14,25,32v-5,34,-20,52,-63,52v-9,0,-15,-2,-20,-8","w":223},"k":{"d":"445,-49v-1,12,-53,55,-68,53v-3,0,-6,-2,-7,-5r-154,-300r-30,6r-62,293v-25,5,-59,8,-78,0r145,-688v9,-9,55,-22,73,-12v4,2,7,7,6,12r-71,327v35,-9,117,-57,236,-127v12,-2,43,35,37,48v-1,7,-23,24,-64,48v-41,24,-78,44,-110,59","w":504},"l":{"d":"262,-732r-152,717v-3,13,-18,19,-46,19v-27,0,-39,-5,-37,-15r153,-721v4,-7,40,-15,55,-15v18,0,27,5,27,15","w":218},"m":{"d":"653,-406v-59,0,-126,35,-155,75v-5,103,-43,227,-61,326v-1,6,-13,9,-38,9v-16,0,-36,0,-43,-8r51,-243v23,-106,-4,-159,-83,-159v-60,0,-120,34,-149,75r-69,326v-3,10,-73,10,-81,0r98,-460v-1,-6,22,-15,49,-15v17,0,34,2,31,16r-14,67v49,-61,104,-91,164,-91v82,0,126,33,139,110v50,-58,129,-128,237,-106v30,6,61,20,76,44v35,54,30,145,13,226r-44,209v-2,9,-74,11,-82,0r51,-242v23,-106,-7,-159,-90,-159","w":849},"n":{"d":"128,-464v3,-11,75,-25,82,-2v-3,25,-10,46,-14,69v64,-72,120,-104,216,-87v31,5,60,20,76,44v37,54,34,145,15,227r-46,205v-1,7,-13,10,-36,10v-31,0,-46,-3,-45,-10r51,-239v23,-105,-7,-158,-90,-158v-59,0,-126,34,-155,74r-69,326r0,-3v-1,7,-15,10,-42,10v-28,0,-41,-3,-40,-10","w":530},"o":{"d":"340,-417v-90,0,-173,87,-189,169v-21,105,18,188,113,187v117,-2,175,-81,200,-187v23,-100,-35,-170,-124,-169xm73,-251v26,-124,147,-237,285,-237v128,0,213,100,185,237v-30,146,-136,261,-292,263v-138,2,-211,-105,-178,-263","w":551},"p":{"d":"148,-84v27,10,57,15,90,15v110,0,178,-63,205,-190v22,-105,-15,-158,-111,-158v-44,0,-94,7,-120,20xm-2,232r144,-683v91,-43,307,-63,369,21v30,40,39,96,24,171v-34,173,-195,313,-405,259r-50,236v0,20,-66,25,-80,6v-2,-3,-3,-6,-2,-10","w":525},"q":{"d":"452,-405v-21,-15,-73,-18,-111,-15v-97,9,-167,102,-188,200v-21,100,24,160,124,157v36,0,71,-5,105,-15xm399,236v-4,20,-77,26,-83,3r49,-245v-106,27,-225,29,-279,-36v-30,-36,-36,-90,-22,-162v32,-165,151,-284,327,-284v80,0,130,11,153,40","w":520},"r":{"d":"415,-381v-77,-58,-195,-7,-226,52r-67,315v-14,24,-53,24,-76,10v-4,-2,-5,-4,-4,-6r96,-451v3,-20,71,-30,80,-4r-15,69v41,-61,94,-92,158,-92v28,0,99,25,94,53v-3,14,-26,54,-40,54","w":409},"s":{"d":"86,-101v19,23,66,42,108,42v53,0,85,-23,95,-70v10,-47,-10,-71,-61,-71v-78,1,-133,-18,-134,-87v-1,-121,94,-203,208,-203v47,0,85,17,115,52v4,13,-13,43,-21,54v-7,11,-13,15,-17,14v-28,-56,-108,-64,-161,-30v-29,18,-57,82,-34,118v8,12,32,17,67,17v98,0,135,37,117,135v-16,90,-88,145,-185,145v-63,0,-112,-18,-147,-54v-3,-1,-3,-4,-2,-7v2,-11,38,-57,52,-55","w":398},"t":{"d":"378,-460v-1,21,-14,68,-21,64v-30,-1,-57,-1,-82,-1v-23,0,-37,0,-42,1r-46,222v-22,90,-11,114,80,115v5,0,8,8,4,22v-9,36,-11,38,-44,37v-91,-3,-110,-11,-125,-68v-8,-30,-4,-71,4,-104r48,-224v-18,2,-65,1,-65,-3v-3,-3,-2,-15,3,-36v5,-27,11,-40,18,-40v15,1,29,1,41,1v11,0,18,0,20,-1r23,-109v-1,-7,24,-14,52,-14v14,0,27,2,27,14r-23,109r83,-1v19,1,46,-6,45,16","w":343},"u":{"d":"479,-473r0,3v1,-6,15,-9,42,-9v14,0,35,-2,40,9r-97,459v-1,11,-87,27,-81,-2r15,-74v-73,81,-127,117,-230,95v-63,-14,-94,-64,-92,-152v3,-109,40,-225,58,-325v2,-12,51,-12,68,-7v9,2,14,4,13,7r-49,233v-23,112,-9,165,90,165v57,0,127,-42,155,-82","w":543},"v":{"d":"105,-458v3,-17,28,-23,51,-23v26,0,37,8,39,24r38,347r210,-354v18,-23,65,-22,79,-2v1,4,2,8,1,11r-277,444v-22,14,-58,12,-78,0","w":487},"w":{"d":"170,-479v16,0,31,5,32,17r20,353r163,-342v12,-18,31,-27,57,-27v21,0,32,9,33,26r19,343r153,-324v10,-24,30,-43,62,-43v28,0,41,8,38,24r-230,441v-28,15,-64,11,-88,-1r-27,-305r-157,306v-27,15,-64,11,-87,-1r-40,-440v5,-18,22,-27,52,-27","w":735},"x":{"d":"439,-39v8,24,-42,37,-62,38v-6,0,-10,-1,-12,-4r-99,-178r-178,179v-21,14,-68,-10,-68,-28v39,-45,178,-178,222,-220r-96,-186v-7,-27,35,-41,58,-42v11,0,18,4,21,10r85,162r169,-166v27,-23,77,21,48,49r-193,187","w":525},"y":{"d":"-30,248v-8,-22,4,-52,13,-65v125,-5,181,-108,212,-207r-108,-438v11,-17,81,-28,88,1r85,349r213,-362v1,-5,7,-8,16,-8v18,-1,61,14,50,32r-167,286r-106,186v-22,38,-50,81,-83,129v-50,70,-116,104,-213,97","w":495},"z":{"d":"369,-72v15,13,-6,68,-21,72r-293,1v-33,-4,-44,-13,-39,-42v3,-16,13,-32,27,-50v89,-115,217,-225,321,-313v1,-2,-3,-3,-12,-4v-65,-3,-139,3,-205,4v-12,0,-18,-7,-15,-20v6,-29,20,-47,43,-50v78,-7,176,-6,268,3v13,1,18,26,14,45v-5,21,-18,38,-37,55v-19,17,-46,42,-85,73v-87,71,-151,132,-227,226v1,3,24,5,69,4","w":418},"{":{"d":"440,-758v-74,0,-106,10,-118,66r-48,226v-11,42,-37,79,-75,87v-8,0,-15,10,-18,29v-4,25,-3,32,11,32v8,3,22,10,26,20v7,19,11,43,5,73r-54,257v-12,63,23,64,89,66v12,5,-5,54,-11,53v-45,14,-125,5,-147,-25v-8,-11,-21,-29,-17,-50v1,-11,1,-25,4,-39r56,-264v11,-53,-11,-90,-56,-92v-10,-1,-12,-11,-9,-30v6,-38,24,-27,50,-39v33,-15,57,-41,66,-80r51,-242v18,-54,48,-89,107,-100v38,-8,51,-7,94,-7v16,6,6,60,-6,59","w":392},"|":{"d":"306,-690r-142,672v-3,13,-17,19,-42,19v-24,0,-35,-5,-33,-15r143,-676v8,-11,72,-27,74,0","w":344},"}":{"d":"326,-388v16,14,42,0,33,39v-6,22,-11,31,-30,31v-45,9,-76,43,-86,91r-56,264v-11,51,-36,87,-78,103v-38,13,-58,17,-106,17v-29,0,-32,-4,-25,-37v3,-15,7,-22,13,-22v73,-1,104,-9,116,-66r54,-257v12,-46,34,-94,77,-94v9,0,15,-10,19,-31v7,-35,-7,-26,-23,-38v-19,-14,-30,-43,-22,-78r50,-226r-1,0v10,-63,-23,-64,-89,-66v-5,0,-7,-7,-4,-21v6,-25,13,-38,22,-38v54,0,91,4,111,13v36,15,54,47,44,94r-51,242v-8,41,7,68,32,80","w":379},"~":{"d":"350,-279v-14,28,-62,52,-103,57v-18,2,-102,-47,-118,-44v-23,0,-40,8,-53,24v-22,13,-36,-34,-33,-53v1,-4,2,-6,3,-7v46,-42,111,-31,162,9v40,31,86,-12,104,-37v20,-8,42,36,38,51","w":354},"\u00a0":{"w":310},"\u00a1":{"d":"220,-625v-11,-12,-2,-30,0,-44v4,-24,29,-33,60,-31v38,2,25,60,6,75v-13,10,-26,9,-46,9v-9,0,-15,-3,-20,-9xm271,-535r-109,519v-3,13,-18,19,-45,19v-26,0,-38,-5,-36,-15r110,-523v10,-10,54,-21,73,-11v5,2,8,6,7,11","w":317},"\u00a2":{"d":"305,-1r-16,77v-3,13,-17,19,-42,19v-24,0,-35,-5,-33,-15r17,-85v-99,-20,-161,-123,-135,-249v23,-115,122,-213,237,-233r25,-115v8,-11,72,-27,74,0r-24,110v32,2,65,6,90,19v15,7,21,16,19,27v-6,28,-21,46,-45,53v-14,-17,-40,-26,-79,-27r-72,340v30,-2,63,-19,97,-40v14,-1,28,32,24,50v-9,35,-97,65,-137,69xm318,-413v-67,20,-128,88,-143,162v-16,79,17,145,73,164","w":537},"\u00a3":{"d":"238,7v-40,0,-106,-25,-141,-24v-22,0,-51,6,-87,17v-8,0,-9,-13,-3,-38v4,-19,10,-29,17,-32v30,-11,57,-17,81,-17v33,-54,68,-138,82,-207v-16,2,-66,0,-64,-4v-8,-5,8,-72,17,-65r61,-1r48,-220v18,-82,151,-141,255,-112v36,10,21,36,6,59v-9,13,-15,21,-23,18v-55,-30,-152,-10,-164,47r-43,205v62,-3,66,-3,149,2v8,0,9,11,4,33v-5,23,-12,35,-21,35v-49,0,-108,-6,-146,0v-33,91,-54,155,-61,192v-7,36,16,48,56,48v42,0,110,-15,204,-46v23,1,11,61,-1,62v-98,32,-173,48,-226,48","w":544},"\u00a4":{"d":"164,-632v-8,-26,49,-51,70,-48r56,99v69,-36,158,-40,226,-4r102,-103v19,-5,70,28,50,48r-101,101v33,45,43,100,29,166v-14,64,-45,119,-94,166r52,95v5,20,-45,50,-63,50v-5,0,-8,-2,-9,-5r-49,-89v-78,44,-172,48,-241,-3r-82,84v-17,11,-27,3,-42,-12v-13,-13,-21,-24,-12,-33r91,-92v-62,-114,-7,-258,72,-322xm393,-539v-90,0,-173,87,-189,169v-19,95,26,178,116,176v112,-2,174,-77,197,-176v23,-100,-35,-170,-124,-169","w":677},"\u00a5":{"d":"486,-165v14,18,5,79,-17,80r-161,1r-17,81v-27,5,-60,9,-80,0r17,-81r-147,0v-13,0,-16,-14,-11,-41v5,-26,13,-39,24,-39r151,0r17,-82r-142,0v-13,0,-16,-14,-10,-41v6,-26,13,-39,23,-39r146,0r8,-37r-117,-298v1,-9,54,-47,68,-44v4,0,7,2,9,6r96,254r275,-262v21,-21,52,35,51,50r-301,288r-9,43r166,-1v13,20,7,80,-17,80r-166,1r-17,82","w":640},"\u00a6":{"d":"261,-693r-71,337v2,19,-47,23,-68,15v-7,-3,-10,-6,-9,-11r71,-341v8,-12,75,-27,77,0xm166,-246r-71,337v2,19,-49,23,-69,15v-7,-3,-9,-6,-8,-11r71,-341v8,-12,75,-27,77,0","w":224},"\u00a7":{"d":"78,-44v22,20,72,38,114,37v56,0,90,-22,99,-65v12,-57,-5,-117,-60,-117v-117,0,-149,-42,-126,-162v7,-34,30,-62,69,-84v-29,-22,-34,-75,-17,-160v19,-95,180,-147,283,-97v30,15,15,37,0,60v-10,13,-17,19,-22,19v-40,-43,-180,-32,-190,29v-14,84,0,111,83,111v83,0,122,56,104,141v-11,51,-34,87,-67,110v24,18,19,117,12,149v-19,88,-87,139,-183,139v-63,0,-113,-16,-150,-48v-3,-15,6,-23,21,-40v14,-16,21,-23,30,-22xm246,-266v71,1,112,-37,100,-105v-4,-23,-35,-23,-64,-23v-47,0,-97,17,-105,54v-6,29,-8,49,-3,61v23,9,47,13,72,13","w":458},"\u00a8":{"d":"222,-565v-49,0,-49,-56,-20,-79v18,-14,53,-20,66,0v22,33,-10,79,-46,79xm394,-565v-49,0,-49,-56,-20,-79v18,-14,54,-20,66,0v20,33,-9,79,-46,79","w":519},"\u00a9":{"d":"523,-446v-45,-29,-108,-26,-151,8v-39,30,-70,110,-34,160v34,48,100,38,145,-1v14,-6,21,31,19,48v-4,31,-81,53,-115,53v-89,0,-150,-85,-132,-183v23,-121,188,-225,307,-141v2,19,-25,53,-39,56xm90,-354v22,-96,69,-179,144,-247v75,-68,156,-102,242,-102v171,0,281,163,238,349v-22,96,-69,179,-144,247v-75,68,-156,102,-242,102v-171,0,-281,-163,-238,-349xm342,-76v144,-2,271,-147,299,-279v31,-146,-49,-285,-180,-283v-143,2,-270,154,-298,286v-31,147,47,278,179,276","w":729},"\u00aa":{"d":"319,-386v-14,13,-53,31,-83,31v-114,0,-164,-60,-145,-180v19,-119,91,-212,224,-212v46,0,95,6,123,16v10,4,14,8,15,12v-4,37,-48,244,-60,284v-2,32,22,51,50,54v-28,18,-110,50,-124,-5xm379,-678v-55,-17,-109,-9,-152,29v-30,26,-55,64,-64,117v-12,68,9,118,69,117v36,-1,73,-12,92,-27","w":422},"\u00ab":{"d":"411,-83v-4,13,-52,51,-65,27r-102,-181v-1,-4,2,-25,6,-28r181,-185v18,-20,57,6,56,24r-177,175xm231,-83v-4,13,-52,51,-65,27r-102,-181v-1,-4,2,-25,6,-28r181,-185v18,-20,57,6,56,24r-177,175","w":474},"\u00ac":{"d":"471,-240r-379,0v-13,1,-14,-20,-11,-34v5,-23,11,-35,22,-35r417,-1v17,0,25,3,26,10v-5,54,-27,140,-37,197v-6,13,-65,27,-66,0","w":576},"\u00ad":{"d":"457,-299r-367,1v-13,0,-16,-14,-10,-41v6,-26,13,-39,23,-39r371,-1v14,19,5,81,-17,80","w":495},"\u00ae":{"d":"501,-213v0,14,-41,30,-56,30v-8,0,-13,-2,-14,-6r-78,-130r-27,131v-25,8,-70,13,-63,-18r66,-310v90,-34,241,-24,213,95v-13,55,-51,90,-106,98xm385,-466r-18,89v5,1,14,1,27,1v47,0,73,-13,78,-40v8,-37,-8,-55,-48,-55v-11,0,-24,2,-39,5xm90,-354v22,-96,69,-179,144,-247v75,-68,156,-102,242,-102v171,0,281,163,238,349v-22,96,-69,179,-144,247v-75,68,-156,102,-242,102v-171,0,-281,-163,-238,-349xm342,-76v144,-2,271,-147,299,-279v31,-146,-49,-285,-180,-283v-143,2,-270,154,-298,286v-31,147,47,278,179,276","w":741},"\u00af":{"d":"402,-608r-302,1v-13,0,-17,-9,-14,-26v5,-21,12,-31,22,-31r306,-1v21,7,6,57,-12,57","w":376},"\u00b0":{"d":"194,-618v-6,24,-3,44,4,58v10,22,61,22,82,7v23,-17,33,-56,37,-95v2,-15,-6,-24,-13,-32v-6,-8,-25,-9,-39,-8v-38,0,-59,24,-71,70xm132,-619v20,-95,81,-137,183,-123v21,3,49,14,57,32v12,23,16,54,7,91v-22,91,-69,137,-149,137v-85,0,-117,-46,-98,-137","w":382},"\u00b1":{"d":"549,-527v14,18,5,79,-17,80r-152,1r-31,150v-9,11,-54,21,-73,12v-5,-2,-8,-7,-7,-12r31,-150r-135,0v-13,0,-16,-14,-11,-41v5,-26,13,-39,24,-39r139,0r29,-137v0,-19,49,-24,71,-15v7,3,11,7,10,11r-30,141xm472,-164v14,18,5,79,-17,80r-367,1v-13,0,-16,-14,-11,-41v5,-26,13,-39,24,-39","w":592},"\u00b2":{"d":"164,-648v50,-42,189,-85,264,-33v52,36,26,151,-12,189v-75,76,-220,77,-244,203r209,0v4,32,-6,52,-15,70r-271,0v-16,0,-19,-24,-10,-72v13,-67,62,-120,113,-147v47,-26,102,-43,142,-74v19,-14,30,-31,34,-50v11,-51,-5,-76,-47,-76v-49,0,-99,20,-124,43v-3,2,-6,3,-7,3v-14,3,-36,-44,-32,-56","w":463},"\u00b3":{"d":"294,-636v-49,1,-75,19,-107,39v-8,2,-46,-44,-34,-51v92,-56,154,-75,243,-34v68,31,38,172,-4,212v-12,11,-23,20,-37,25v37,20,48,59,36,117v-15,74,-100,140,-190,140v-53,0,-99,-17,-138,-51v-4,-18,6,-28,21,-45v14,-16,22,-25,34,-21v11,23,48,47,82,47v57,0,113,-31,122,-80v13,-71,-67,-79,-138,-70v-11,-14,1,-71,16,-70v53,-6,102,8,131,-28v19,-23,49,-81,21,-113v-10,-12,-30,-17,-58,-17","w":437},"\u00b4":{"d":"314,-625r-186,71v-11,0,-24,-22,-20,-37v3,-11,11,-21,26,-28r164,-76v14,3,42,60,16,70","w":320},"\u00b5":{"d":"223,-132v25,61,132,83,209,57v21,-7,36,-17,43,-29v23,-41,72,-306,89,-384r83,0v-19,114,-83,414,-113,434v-46,49,-100,69,-195,69v-59,0,-105,-18,-136,-55r-55,266v-3,17,-20,26,-49,26v-24,0,-35,-4,-33,-12r155,-728r78,0","w":622},"\u00b6":{"d":"378,159v-78,-7,-117,-60,-110,-149v9,-114,43,-217,63,-325v-48,8,-108,0,-139,-21v-20,-14,-45,-35,-52,-63v-10,-36,-12,-77,-1,-122v29,-122,109,-184,248,-184r221,-1v6,3,5,9,4,24v-1,11,-4,26,-8,45r-124,585v-13,49,17,78,68,83v7,0,8,7,4,22v-7,27,-8,32,-32,28v-19,-3,-60,-15,-74,-27v-22,-19,-39,-59,-29,-106v22,-104,42,-215,67,-330v13,-65,32,-150,57,-255v-23,-7,-53,-6,-76,0r-124,583v-15,75,-12,148,50,162v15,3,-2,56,-13,51","w":643},"\u00b7":{"d":"123,-219v-44,2,-67,-28,-54,-69v4,-46,86,-87,119,-42v33,45,-14,108,-65,111","w":216},"\u00b8":{"d":"113,-28r59,0r-4,52v15,3,34,19,30,39v-5,27,-26,48,-62,63v-36,15,-66,23,-89,23v-9,0,-17,-27,-14,-37v34,-10,137,-22,99,-74v-9,-12,-20,-17,-33,-24","w":254},"\u00b9":{"d":"140,-466v-10,-3,-47,-42,-25,-56r0,1r235,-171v18,-5,53,-9,54,10r-102,481v-8,6,-68,5,-75,-1r80,-377","w":415},"\u00ba":{"d":"333,-680v-68,0,-127,65,-140,125v-14,67,24,125,87,125v68,0,129,-65,142,-125v14,-67,-27,-125,-89,-125xm123,-559v21,-97,115,-187,225,-187v98,0,167,81,145,187v-20,96,-120,197,-227,199v-100,2,-166,-92,-143,-199","w":474},"\u00bb":{"d":"157,-426v4,-13,53,-47,66,-24r103,185v0,4,-4,25,-6,28r-178,181v-20,21,-55,-10,-55,-27r173,-168xm337,-426v4,-13,53,-47,66,-24r103,185v0,4,-4,25,-6,28r-178,181v-20,21,-55,-10,-55,-27r173,-168","w":544},"\u00bc":{"d":"765,-708v21,0,61,13,51,37r-479,672v-17,24,-76,-12,-63,-30r481,-676v1,-2,4,-3,10,-3xm971,-213v0,24,-7,62,-17,73r-66,0r-29,139v-23,5,-54,8,-72,0r29,-139r-214,0r-4,-5r19,-60v22,-24,117,-120,286,-287v22,-6,62,-9,57,14r-56,265r67,0xm710,-208r122,-5r32,-152xm312,-201v-9,6,-66,5,-75,-1r80,-377r-167,113v-8,-1,-37,-34,-31,-47v1,-2,4,-9,6,-8r235,-171v18,-5,53,-9,54,10","w":1034},"\u00bd":{"d":"329,1v-19,23,-66,-9,-66,-27r482,-672v20,-10,71,8,61,34xm705,-430v50,-42,189,-85,264,-33v52,36,25,151,-13,189v-75,76,-219,77,-243,203r209,0v3,31,-4,53,-15,70r-271,0v-16,0,-19,-24,-10,-72v13,-67,62,-120,113,-147v47,-26,101,-43,141,-74v19,-14,31,-31,35,-50v11,-51,-5,-76,-47,-76v-49,0,-99,20,-124,43v-3,2,-5,3,-7,3v-14,3,-36,-44,-32,-56xm151,-466v-11,-3,-47,-40,-26,-55r236,-171v16,-5,54,-9,54,10r-103,481v-8,6,-67,5,-74,-1r80,-377","w":1016},"\u00be":{"d":"825,-708v21,0,61,13,51,37r-479,672v-17,24,-76,-12,-63,-30r481,-676v1,-2,4,-3,10,-3xm97,-248v2,-16,38,-64,56,-57v11,23,48,47,82,47v57,0,112,-31,122,-80v14,-71,-66,-79,-138,-70v-10,-14,0,-70,16,-70v54,0,103,8,132,-28v19,-23,49,-81,21,-113v-11,-11,-31,-17,-58,-17v-32,0,-74,16,-108,39v-8,2,-43,-41,-34,-51v94,-55,154,-76,243,-34v33,17,52,60,39,116v-16,69,-43,109,-80,121v37,19,48,58,36,117v-15,72,-101,140,-190,140v-53,0,-99,-17,-138,-51v-1,-3,-2,-6,-1,-9xm1031,-213v0,24,-7,62,-17,73r-66,0r-29,139v-23,5,-54,8,-72,0r29,-139r-214,0r-4,-5r19,-60v22,-24,117,-120,286,-287v22,-6,62,-9,57,14r-56,265r67,0xm771,-213r121,0r32,-152","w":1094},"\u00bf":{"d":"307,-467v5,-34,6,-64,46,-61v21,2,37,1,36,18v-7,20,-8,48,-13,73v-22,111,-158,119,-220,194v-18,20,-29,43,-35,70v-15,71,11,106,79,106v59,0,117,-26,142,-57v14,-7,40,34,35,50v-9,32,-134,75,-186,73v-106,-4,-170,-58,-143,-179v15,-66,51,-118,100,-142v67,-33,147,-59,159,-145xm388,-705v31,-2,48,21,38,49v-4,33,-61,62,-85,30v-24,-32,10,-77,47,-79","w":444},"\u00c0":{"d":"496,-301r-1,5r-215,0r168,-274xm527,-22v3,30,76,29,83,5r-88,-680v-1,-6,-11,-9,-31,-9v-27,0,-41,4,-45,10r-421,672v-2,15,24,25,42,25v17,0,32,-6,41,-20r125,-202r274,0xm495,-766r-156,-71v-3,-3,-4,-7,-3,-14v1,-14,37,-56,50,-56r131,76v35,20,-2,62,-22,65","w":678},"\u00c1":{"d":"495,-296r1,-5r-48,-269r-168,274r215,0xm610,-22v1,32,-75,28,-82,4r-21,-203r-274,0r-125,202v-14,22,-49,26,-72,12v-9,-5,-12,-11,-11,-17r421,-672v3,-7,18,-10,45,-10v20,0,30,3,31,9xm586,-837r-186,71v-11,0,-24,-22,-20,-37v3,-11,11,-21,26,-28r164,-76v14,3,42,60,16,70","w":678},"\u00c2":{"d":"495,-296r1,-5r-48,-269r-168,274r215,0xm610,-22v1,32,-75,28,-82,4r-21,-203r-274,0r-125,202v-14,22,-49,26,-72,12v-9,-5,-12,-11,-11,-17r421,-672v3,-7,18,-10,45,-10v20,0,30,3,31,9xm516,-906r107,66v11,17,-1,30,-15,44v-11,12,-18,16,-25,16r-94,-63r-130,63v-15,-3,-32,-50,-10,-61r139,-65v1,-1,26,-1,28,0","w":675},"\u00c3":{"d":"495,-296r1,-5r-48,-269r-168,274r215,0xm610,-22v1,32,-75,28,-82,4r-21,-203r-274,0r-125,202v-14,22,-49,26,-72,12v-9,-5,-12,-11,-11,-17r421,-672v3,-7,18,-10,45,-10v20,0,30,3,31,9xm638,-830v-14,28,-62,52,-103,57v-18,2,-102,-47,-118,-44v-23,0,-40,8,-53,24v-22,13,-36,-34,-33,-53v1,-4,2,-6,3,-7v46,-42,111,-31,162,9v40,31,86,-12,104,-37v20,-8,42,36,38,51","w":678},"\u00c4":{"d":"495,-296r1,-5r-48,-269r-168,274r215,0xm610,-22v1,32,-75,28,-82,4r-21,-203r-274,0r-125,202v-14,22,-49,26,-72,12v-9,-5,-12,-11,-11,-17r421,-672v3,-7,18,-10,45,-10v20,0,30,3,31,9xm389,-777v-49,0,-49,-56,-20,-79v18,-14,52,-20,65,0v22,33,-9,79,-45,79xm561,-777v-49,0,-49,-56,-20,-79v18,-14,54,-20,66,0v20,33,-9,79,-46,79","w":678},"\u00c5":{"d":"551,-918v-46,-53,-147,22,-104,84v49,51,148,-23,104,-84xm398,-793v-62,-86,32,-199,125,-199v63,0,106,52,92,117v-12,58,-74,117,-142,116v-32,0,-58,-10,-75,-34xm469,-301r-1,5r-215,0r168,-274xm500,-22v2,31,77,28,83,5r-88,-680v-1,-6,-11,-9,-31,-9v-27,0,-41,4,-45,10r-420,672v-2,15,23,25,41,25v17,0,32,-6,41,-20r125,-202r274,0","w":657},"\u00c6":{"d":"638,-672v2,-40,306,-30,407,-28v7,3,7,18,1,45v-3,15,-6,22,-10,22v-66,-1,-129,-1,-190,-1v-91,0,-137,5,-140,16r-43,205r273,0v27,1,13,49,2,64v-7,9,-11,14,-16,14r-276,1r-52,245v-1,5,12,9,38,12v83,8,196,0,285,-1v11,0,14,11,9,34v-3,16,-13,43,-26,43r-235,3v-105,0,-157,-5,-158,-16r-23,-207r-274,0r-125,202v-16,27,-66,22,-81,3v-1,-3,-2,-6,-2,-8r421,-672v19,-14,57,-12,76,-1r54,423xm472,-296r1,-5r-48,-269r-168,274r215,0","w":1010},"\u00c7":{"d":"188,160v-9,0,-17,-27,-14,-37v28,-10,101,-17,107,-51v2,-17,-12,-32,-42,-47r12,-38v-115,-37,-186,-176,-151,-338v21,-97,68,-179,142,-247v74,-68,154,-103,238,-103v41,0,78,9,110,28v52,31,54,43,26,85v-10,15,-17,22,-22,22v-1,0,-2,-1,-2,-2v-29,-40,-62,-56,-129,-56v-139,1,-259,145,-285,273v-29,142,41,273,169,273v55,0,106,-18,153,-55v19,-7,32,35,26,54v-15,50,-137,85,-214,79r-4,35v15,3,35,19,31,39v-5,27,-27,48,-63,63v-36,15,-65,23,-88,23","w":601},"\u00c8":{"d":"68,-3v96,11,240,3,348,2v11,0,20,-14,26,-43v5,-23,1,-34,-10,-34v-65,3,-126,7,-184,5r-98,-3v-16,-3,-36,-2,-41,-13r52,-245r277,-1v13,-2,25,-29,28,-44v5,-23,0,-34,-15,-34r-273,0v25,-117,39,-185,44,-205v2,-11,48,-16,139,-16r190,1v3,0,8,-7,11,-22v6,-27,4,-42,-2,-45v-104,-2,-399,-11,-407,28r-137,649v-2,9,15,16,52,20xm458,-766r-156,-71v-3,-3,-4,-7,-3,-14v1,-14,37,-56,50,-56r131,76v35,20,-2,62,-22,65","w":524},"\u00c9":{"d":"160,-672v2,-40,306,-30,407,-28v6,3,7,18,2,45v-3,15,-7,22,-11,22v-66,-1,-129,-1,-190,-1v-91,0,-137,5,-139,16r-44,205r273,0v29,0,13,48,2,64v-6,9,-10,14,-15,14r-277,1r-52,245v26,22,88,17,139,16r184,-5v11,0,15,11,10,34v-6,29,-15,43,-26,43r-205,4v-59,0,-106,-2,-143,-6v-37,-4,-54,-11,-52,-20xm540,-837r-186,71v-11,0,-24,-22,-20,-37v3,-11,11,-21,26,-28r164,-76v14,3,42,60,16,70"},"\u00ca":{"d":"158,-672v2,-40,306,-30,407,-28v6,3,7,18,2,45v-3,15,-7,22,-11,22v-66,-1,-129,-1,-190,-1v-91,0,-137,5,-139,16r-44,205r273,0v29,0,13,48,2,64v-6,9,-10,14,-15,14r-277,1r-52,245v26,22,88,17,139,16r184,-5v11,0,15,11,10,34v-6,29,-15,43,-26,43r-205,4v-59,0,-106,-2,-143,-6v-37,-4,-54,-11,-52,-20xm412,-906r107,66v11,17,-1,30,-15,44v-11,12,-18,16,-25,16r-94,-63r-130,63v-15,-3,-32,-50,-10,-61r139,-65v1,-1,26,-1,28,0","w":521},"\u00cb":{"d":"151,-672v2,-40,306,-30,407,-28v6,3,8,18,2,45v-3,15,-8,22,-11,22v-66,-1,-129,-1,-190,-1v-91,0,-137,5,-139,16r-44,205r273,0v29,0,14,48,3,64v-6,9,-11,14,-16,14r-277,1r-52,245v26,22,88,17,139,16r184,-5v11,0,15,11,10,34v-6,29,-15,43,-26,43r-205,4v-59,0,-106,-2,-143,-6v-37,-4,-54,-11,-52,-20xm293,-777v-49,0,-49,-56,-20,-79v18,-14,52,-20,65,0v22,33,-9,79,-45,79xm465,-777v-49,0,-49,-56,-20,-79v18,-14,54,-20,66,0v20,33,-9,79,-46,79","w":518},"\u00cc":{"d":"106,-15r143,-678v-2,-27,-68,-12,-77,0r-144,682v-2,10,10,15,35,15v26,0,40,-6,43,-19xm270,-766r-156,-71v-3,-3,-4,-7,-3,-14v1,-14,37,-56,50,-56r131,76v35,19,-2,62,-22,65","w":222},"\u00cd":{"d":"419,-837r-186,71v-11,0,-24,-22,-20,-37v3,-11,11,-21,26,-28r164,-76v14,3,42,60,16,70xm270,-693r-143,678v-3,13,-17,19,-43,19v-25,0,-37,-5,-35,-15r144,-682v8,-12,75,-27,77,0","w":273},"\u00ce":{"d":"321,-693r-143,678v-2,13,-16,19,-43,19v-25,0,-37,-5,-35,-15r144,-682v9,-10,52,-21,71,-11v5,2,7,6,6,11xm321,-906r107,66v11,17,-2,30,-16,44v-11,12,-17,16,-24,16r-94,-63r-130,63v-15,-3,-32,-50,-10,-61r139,-65v1,-1,26,-1,28,0","w":340},"\u00cf":{"d":"300,-693r-143,678v-2,13,-16,19,-43,19v-25,0,-37,-5,-35,-15r144,-682v9,-10,52,-21,71,-11v5,2,7,6,6,11xm174,-777v-49,0,-49,-56,-20,-79v18,-14,53,-20,66,0v22,33,-10,79,-46,79xm346,-777v-49,0,-49,-56,-20,-79v18,-14,54,-20,66,0v20,33,-9,79,-46,79","w":297},"\u00d0":{"d":"232,0r-124,-2v-4,0,-7,-2,-8,-4r66,-317r-79,0v-13,0,-16,-14,-10,-41v6,-26,13,-39,23,-39r83,0r60,-284v4,-8,126,-13,141,-13v241,-1,345,106,293,350v-50,237,-164,348,-445,350xm308,-625r-47,222r200,-1v14,19,5,81,-17,80r-200,1r-52,251v114,9,221,-12,288,-64v58,-45,98,-116,119,-214v39,-186,-34,-279,-221,-279v-13,0,-37,1,-70,4","w":689},"\u00d1":{"d":"700,-684r-139,660v-5,18,-22,27,-53,27v-17,0,-27,-3,-30,-10r-268,-546r-115,543v-3,9,-18,13,-47,13v-17,0,-35,-3,-32,-18r140,-661v5,-28,72,-35,85,-9r265,540r115,-540v8,-12,54,-25,73,-13v5,3,7,8,6,14xm620,-830v-14,28,-62,52,-103,57v-18,2,-102,-47,-118,-44v-23,0,-40,8,-53,24v-22,13,-36,-34,-33,-53v1,-4,2,-6,3,-7v46,-42,111,-31,162,9v40,31,86,-12,104,-37v20,-8,42,36,38,51","w":672},"\u00d2":{"d":"84,-352v19,-98,66,-182,136,-253v70,-71,143,-107,220,-107v85,0,144,34,180,104v36,70,43,155,22,256v-21,98,-66,184,-136,256v-70,72,-143,108,-220,108v-109,0,-182,-87,-202,-183v-12,-54,-13,-115,0,-181xm276,-556v-57,59,-95,127,-116,214v-32,129,34,277,147,277v54,0,106,-30,157,-90v51,-60,84,-130,103,-210v30,-130,-23,-270,-137,-269v-52,0,-103,26,-154,78xm478,-766r-156,-71v-3,-3,-4,-7,-3,-14v1,-14,37,-56,50,-56r131,76v35,20,-2,62,-22,65","w":652},"\u00d3":{"d":"97,-352v19,-98,66,-182,136,-253v70,-71,143,-107,220,-107v85,0,145,34,181,104v36,70,42,155,21,256v-21,98,-66,184,-136,256v-70,72,-143,108,-220,108v-109,0,-182,-87,-202,-183v-12,-54,-13,-115,0,-181xm288,-556v-57,59,-94,127,-115,214v-32,129,34,277,147,277v54,0,107,-30,158,-90v51,-60,83,-130,102,-210v30,-130,-23,-270,-137,-269v-52,0,-104,26,-155,78xm596,-837r-186,71v-11,0,-24,-22,-20,-37v3,-11,11,-21,26,-28r164,-76v14,3,42,60,16,70","w":662},"\u00d4":{"d":"90,-352v19,-98,66,-182,136,-253v70,-71,143,-107,220,-107v85,0,144,34,180,104v36,70,43,155,22,256v-21,98,-66,184,-136,256v-70,72,-143,108,-220,108v-109,0,-182,-87,-202,-183v-12,-54,-13,-115,0,-181xm282,-556v-57,59,-95,127,-116,214v-32,129,34,277,147,277v54,0,106,-30,157,-90v51,-60,84,-130,103,-210v30,-130,-23,-270,-137,-269v-52,0,-103,26,-154,78xm481,-906r107,66v11,17,-2,30,-16,44v-11,12,-17,16,-24,16r-94,-63r-130,63v-15,-3,-32,-50,-10,-61r139,-65v1,-1,26,-1,28,0","w":669},"\u00d5":{"d":"86,-352v19,-98,66,-182,136,-253v70,-71,143,-107,220,-107v85,0,144,34,180,104v36,70,43,155,22,256v-21,98,-66,184,-136,256v-70,72,-143,108,-220,108v-109,0,-182,-87,-202,-183v-12,-54,-13,-115,0,-181xm278,-556v-57,59,-95,127,-116,214v-32,129,34,277,147,277v54,0,106,-30,157,-90v51,-60,84,-130,103,-210v30,-130,-23,-270,-137,-269v-52,0,-103,26,-154,78xm598,-830v-14,28,-62,52,-103,57v-18,2,-102,-47,-118,-44v-23,0,-40,8,-53,24v-22,13,-36,-34,-33,-53v1,-4,2,-6,3,-7v46,-42,111,-31,162,9v40,31,86,-12,104,-37v20,-8,42,36,38,51","w":659},"\u00d6":{"d":"93,-352v19,-98,66,-182,136,-253v70,-71,143,-107,220,-107v85,0,145,34,181,104v36,70,42,155,21,256v-21,98,-66,184,-136,256v-70,72,-143,108,-220,108v-109,0,-182,-87,-202,-183v-12,-54,-13,-115,0,-181xm284,-556v-57,59,-94,127,-115,214v-32,129,34,277,147,277v54,0,107,-30,158,-90v51,-60,83,-130,102,-210v30,-130,-23,-270,-137,-269v-52,0,-104,26,-155,78xm365,-777v-49,0,-49,-56,-20,-79v18,-14,52,-20,65,0v22,33,-9,79,-45,79xm537,-777v-49,0,-49,-56,-20,-79v18,-14,54,-20,66,0v20,33,-9,79,-46,79","w":659},"\u00d7":{"d":"127,-184v-18,5,-66,-37,-44,-56r129,-109r-85,-105v1,-14,45,-69,69,-56r85,105r115,-96v23,-16,54,29,52,49v-1,3,-2,4,-3,5r-120,98r76,97v7,19,-6,29,-25,44v-18,14,-28,22,-41,16r-78,-100","w":454},"\u00d8":{"d":"551,-566r-295,479v14,7,30,10,48,10v58,0,114,-28,168,-83v54,-55,89,-123,106,-202v17,-84,8,-152,-27,-204xm199,-130r298,-483v-19,-7,-37,-10,-54,-10v-57,0,-112,29,-167,86v-55,57,-91,125,-107,204v-18,85,-7,153,30,203xm580,-739v22,-8,71,3,65,29r-51,73v58,63,85,165,59,289v-20,98,-66,180,-135,249v-69,69,-142,103,-219,103v-31,0,-60,-6,-87,-19r-49,73v-16,24,-80,-6,-67,-26r58,-89v-60,-63,-85,-166,-59,-291v21,-97,65,-179,134,-248v69,-69,142,-103,219,-103v33,0,62,7,89,20","w":699},"\u00d9":{"d":"707,-686v-12,-14,-73,-23,-79,0r-94,434v-17,90,-110,190,-216,189v-104,-1,-188,-75,-164,-187r93,-439v-3,-28,-68,-10,-79,0r-92,434v-36,164,70,270,226,267v157,-3,283,-129,313,-268xm508,-766r-156,-71v-3,-3,-4,-7,-3,-14v1,-14,37,-56,50,-56r131,76v35,20,-2,62,-22,65","w":675},"\u00da":{"d":"615,-256v-27,141,-156,267,-316,268v-154,1,-258,-104,-223,-267r92,-434v9,-9,56,-20,74,-11v4,2,6,6,5,11r-93,439v-25,112,60,186,164,187v106,1,197,-100,216,-189r94,-434v6,-23,67,-15,79,0xm593,-837r-186,71v-11,0,-24,-22,-20,-37v3,-11,11,-21,26,-28r164,-76v14,3,42,60,16,70","w":682},"\u00db":{"d":"615,-256v-27,141,-156,267,-316,268v-154,1,-258,-104,-223,-267r92,-434v9,-9,56,-20,74,-11v4,2,6,6,5,11r-93,439v-25,112,60,186,164,187v106,1,197,-100,216,-189r94,-434v6,-23,67,-15,79,0xm476,-906r107,66v11,17,-1,30,-15,44v-11,12,-18,16,-25,16r-94,-63r-130,63v-15,-3,-32,-50,-10,-61r139,-65v1,-1,26,-1,28,0","w":652},"\u00dc":{"d":"365,-777v-30,2,-49,-21,-39,-48v4,-33,57,-61,84,-31v19,34,-9,77,-45,79xm577,-777v-30,2,-49,-21,-39,-48v3,-33,59,-61,85,-31v18,35,-9,77,-46,79xm620,-256v-27,141,-152,254,-313,255v-154,1,-261,-90,-226,-254r92,-434v9,-9,55,-20,73,-11v4,2,7,6,6,11r-93,439v-45,171,198,222,305,121v38,-36,65,-76,75,-123r93,-434v6,-23,67,-15,79,0","w":675},"\u00dd":{"d":"620,-694v23,-20,52,36,50,51r-333,315r-69,325v-26,5,-61,8,-80,0r68,-319r-133,-336v1,-9,54,-47,68,-44v4,0,7,2,9,6r112,292xm547,-837r-186,71v-11,0,-24,-22,-20,-37v3,-11,11,-21,26,-28r164,-76v14,3,42,60,16,70","w":615},"\u00de":{"d":"201,-423r1,8v56,-47,110,-70,162,-70v100,-2,153,99,129,211v-32,154,-140,269,-305,273v-31,0,-54,-10,-70,-29r-45,208v-3,13,-17,19,-42,19v-23,0,-34,-5,-32,-15r179,-850v8,-11,72,-27,74,0xm138,-124v12,26,56,49,98,49v85,-2,154,-86,170,-168v18,-91,3,-161,-74,-163v-51,0,-102,20,-144,57","w":551},"\u00df":{"d":"297,-438v62,-19,98,-56,111,-112v24,-101,-97,-103,-179,-82r-142,627v-13,12,-81,8,-75,-18r140,-650v66,-40,276,-56,317,19v14,25,27,63,17,100v-14,55,-55,131,-104,153v63,28,113,90,93,189v-25,128,-123,212,-267,215v-9,0,-11,-12,-6,-35v5,-23,12,-35,21,-36v92,-2,152,-54,169,-141v20,-102,-45,-148,-139,-148v-25,0,-9,-48,-1,-63v8,-14,7,-17,20,-14v9,0,18,-1,25,-4","w":506},"\u00e0":{"d":"329,-27v-20,16,-69,39,-107,39v-145,0,-209,-77,-184,-229v25,-153,115,-271,286,-271v58,0,120,6,156,20v12,5,19,11,20,16v-5,48,-62,312,-77,363v-3,39,18,62,56,68v-35,23,-133,63,-150,-6xm342,-96r70,-304v0,-3,-8,-7,-25,-11v-46,-9,-101,-2,-142,15v-61,26,-111,98,-122,181v-13,97,9,157,95,157v47,0,99,-16,124,-38xm395,-554r-156,-71v-3,-3,-4,-7,-3,-14v1,-14,37,-56,50,-56r131,76v35,20,-2,62,-22,65","w":526},"\u00e1":{"d":"336,-27v-20,16,-69,39,-107,39v-145,0,-209,-77,-184,-229v25,-153,115,-271,286,-271v58,0,121,6,157,20v12,5,18,11,19,16v-5,48,-62,312,-77,363v-3,39,18,62,56,68v-35,23,-133,63,-150,-6xm349,-96r70,-304v0,-3,-8,-7,-25,-11v-46,-9,-101,-2,-142,15v-61,26,-111,98,-122,181v-13,97,9,157,95,157v48,0,98,-17,124,-38xm492,-625r-186,71v-11,0,-24,-22,-20,-37v3,-11,11,-21,26,-28r164,-76v14,3,42,60,16,70"},"\u00e2":{"d":"340,-27v-20,16,-69,39,-107,39v-145,0,-209,-77,-184,-229v25,-153,115,-271,286,-271v58,0,121,6,157,20v12,5,18,11,19,16v-5,48,-62,312,-77,363v-3,39,18,62,56,68v-35,23,-133,63,-150,-6xm353,-96r70,-304v0,-3,-8,-7,-25,-11v-46,-9,-101,-2,-142,15v-61,26,-111,98,-122,181v-13,97,9,157,95,157v48,0,98,-17,124,-38xm431,-694r107,66v11,17,-2,30,-16,44v-11,12,-17,16,-24,16r-94,-63r-130,63v-15,-3,-32,-50,-10,-61r139,-65v1,-1,26,-1,28,0"},"\u00e3":{"d":"338,-27v-20,16,-69,39,-107,39v-145,0,-209,-77,-184,-229v25,-153,115,-271,286,-271v58,0,121,6,157,20v12,5,18,11,19,16v-5,48,-62,312,-77,363v-3,39,18,62,56,68v-35,23,-133,63,-150,-6xm351,-96r70,-304v0,-3,-8,-7,-25,-11v-46,-9,-101,-2,-142,15v-61,26,-111,98,-122,181v-13,97,9,157,95,157v48,0,98,-17,124,-38xm558,-618v-14,28,-62,52,-103,57v-18,2,-102,-47,-118,-44v-23,0,-40,8,-53,24v-22,13,-36,-34,-33,-53v1,-4,2,-6,3,-7v46,-42,111,-31,162,9v40,31,86,-12,104,-37v20,-8,42,36,38,51"},"\u00e4":{"d":"339,-27v-20,16,-69,39,-107,39v-145,0,-209,-77,-184,-229v25,-153,115,-271,286,-271v58,0,120,6,156,20v12,5,19,11,20,16v-5,48,-62,312,-77,363v-3,39,18,62,56,68v-35,23,-133,63,-150,-6xm352,-96r70,-304v0,-3,-8,-7,-25,-11v-46,-9,-101,-2,-142,15v-61,26,-111,98,-122,181v-13,97,9,157,95,157v47,0,99,-16,124,-38xm319,-565v-49,0,-49,-56,-20,-79v18,-14,52,-20,65,0v22,33,-9,79,-45,79xm491,-565v-49,0,-49,-56,-20,-79v18,-14,54,-20,66,0v20,33,-9,79,-46,79"},"\u00e5":{"d":"457,-705v-46,-53,-147,23,-104,85v49,51,148,-24,104,-85xm304,-580v-62,-86,32,-199,125,-199v63,0,106,52,92,117v-12,58,-74,117,-142,116v-32,0,-58,-10,-75,-34xm341,-27v-20,16,-69,39,-107,39v-145,0,-209,-77,-184,-229v25,-153,115,-271,286,-271v58,0,120,6,156,20v12,5,19,11,20,16v-5,48,-62,312,-77,363v-3,39,18,62,56,68v-35,23,-133,63,-150,-6xm354,-96r70,-304v0,-3,-8,-7,-25,-11v-46,-9,-101,-2,-142,15v-61,26,-111,98,-122,181v-13,97,9,157,95,157v47,0,99,-16,124,-38"},"\u00e6":{"d":"540,12v-76,-2,-109,-30,-145,-80v-39,38,-97,80,-174,80v-146,0,-206,-77,-175,-229v31,-151,124,-270,297,-271v91,0,147,10,169,29v63,-45,218,-39,254,11v33,47,14,122,-4,197v-7,30,-220,25,-297,22v-16,46,-10,110,19,136v50,44,135,36,206,11v18,-6,23,38,20,55v-3,15,-23,25,-59,31v-36,6,-73,8,-111,8xm343,-96r82,-304v1,-3,-7,-7,-23,-11v-45,-9,-100,-3,-141,14v-62,26,-114,98,-128,180v-17,98,1,159,87,159v47,0,98,-16,123,-38xm481,-292r131,2v56,0,84,-2,85,-7v6,-40,27,-103,-14,-119v-18,-6,-39,-10,-66,-10v-55,0,-96,27,-123,81v-5,23,-10,40,-13,53","w":849},"\u00e7":{"d":"145,149v-9,0,-17,-27,-14,-37v28,-10,101,-17,106,-51v4,-24,-23,-39,-41,-47r7,-22v-92,-24,-150,-123,-126,-246v25,-126,147,-238,288,-238v65,0,110,12,135,37v-5,31,-20,55,-46,62v-15,-19,-51,-28,-107,-28v-91,0,-172,88,-190,170v-20,92,33,172,117,172v62,0,83,-15,126,-41v14,0,29,33,23,50v-5,38,-111,70,-156,70r-2,24v15,3,35,19,31,39v-5,27,-26,48,-62,63v-36,15,-66,23,-89,23","w":481},"\u00e8":{"d":"157,-293v49,2,95,3,136,3v56,0,84,-2,85,-7v6,-40,27,-103,-14,-119v-18,-6,-39,-10,-66,-10v-83,-1,-125,65,-141,133xm159,-101v45,54,138,46,212,19v18,-6,23,38,20,55v-3,15,-23,25,-59,31v-69,10,-157,14,-208,-14v-71,-40,-79,-148,-58,-246v27,-128,102,-233,243,-233v133,0,176,41,150,175v-1,6,-8,27,-16,63v-7,31,-223,25,-300,21v-13,59,-7,102,16,129xm345,-554r-156,-71v-3,-3,-4,-7,-3,-14v1,-14,37,-56,50,-56r131,76v35,20,-2,62,-22,65","w":489},"\u00e9":{"d":"148,-293v49,2,95,3,136,3v56,0,84,-2,85,-7v6,-40,27,-103,-14,-119v-18,-6,-39,-10,-66,-10v-83,-1,-125,65,-141,133xm150,-101v45,54,138,46,212,19v18,-6,23,38,20,55v-3,15,-23,25,-59,31v-69,10,-157,14,-208,-14v-71,-40,-79,-148,-58,-246v27,-128,102,-233,243,-233v133,0,176,41,150,175v-1,6,-8,27,-16,63v-7,31,-223,25,-300,21v-13,59,-7,102,16,129xm431,-625r-186,71v-11,0,-24,-22,-20,-37v3,-11,11,-21,26,-28r164,-76v14,3,42,60,16,70","w":476},"\u00ea":{"d":"160,-293v49,2,95,3,136,3v56,0,84,-2,85,-7v6,-40,27,-103,-14,-119v-18,-6,-39,-10,-66,-10v-83,-1,-125,65,-141,133xm162,-101v45,54,138,46,212,19v18,-6,23,38,20,55v-3,15,-23,25,-59,31v-69,10,-157,14,-208,-14v-71,-40,-79,-148,-58,-246v27,-128,102,-233,243,-233v133,0,176,41,150,175v-1,6,-8,27,-16,63v-7,31,-223,25,-300,21v-13,59,-7,102,16,129xm347,-694r107,66v11,17,-2,30,-16,44v-11,12,-17,16,-24,16r-94,-63r-130,63v-15,-3,-32,-50,-10,-61r139,-65v1,-1,26,-1,28,0","w":493},"\u00eb":{"d":"160,-293v49,2,95,3,136,3v56,0,84,-2,85,-7v6,-40,27,-103,-14,-119v-18,-6,-39,-10,-66,-10v-83,-1,-125,65,-141,133xm162,-101v45,54,138,46,212,19v18,-6,23,38,20,55v-3,15,-23,25,-59,31v-69,10,-157,14,-208,-14v-71,-40,-79,-148,-58,-246v27,-128,102,-233,243,-233v133,0,176,41,150,175v-1,6,-8,27,-16,63v-7,31,-223,25,-300,21v-13,59,-7,102,16,129xm221,-565v-49,0,-49,-56,-20,-79v18,-14,52,-20,65,0v22,33,-9,79,-45,79xm393,-565v-49,0,-49,-56,-20,-79v18,-14,54,-20,66,0v20,33,-9,79,-46,79","w":487},"\u00ec":{"d":"162,-16r97,-464v1,-12,-13,-15,-26,-15v-14,-1,-50,8,-54,15r-98,468v-2,10,10,15,36,15v27,0,42,-6,45,-19xm222,-554r-156,-71v-3,-3,-4,-7,-3,-14v1,-14,37,-56,50,-56r131,76v35,20,-2,62,-22,65","w":283},"\u00ed":{"d":"229,-480r-98,464v-3,13,-18,19,-45,19v-26,0,-38,-5,-36,-15r99,-468v9,-11,78,-27,80,0xm334,-625r-187,71v-11,0,-24,-22,-20,-37v3,-11,11,-21,26,-28r164,-76v14,3,43,60,17,70","w":269},"\u00ee":{"d":"277,-480r-98,464v-3,13,-18,19,-45,19v-26,0,-38,-5,-36,-15r99,-468v9,-11,78,-27,80,0xm297,-694r107,66v11,17,-2,30,-16,44v-11,12,-17,16,-24,16r-94,-63r-130,63v-10,0,-25,-32,-20,-45v1,-6,5,-11,10,-16r139,-65v1,-1,26,-1,28,0","w":352},"\u00ef":{"d":"240,-480r-98,464v-3,13,-18,19,-45,19v-26,0,-38,-5,-36,-15r99,-468v9,-11,78,-27,80,0xm158,-565v-49,0,-49,-56,-20,-79v18,-14,53,-20,66,0v22,33,-10,79,-46,79xm303,-565v-49,0,-49,-56,-20,-79v18,-14,54,-20,66,0v20,33,-9,79,-46,79","w":291},"\u00f0":{"d":"349,-330v-13,-11,-44,-13,-73,-13v-75,0,-139,85,-152,152v-15,74,19,134,95,134v80,0,167,-88,179,-159v5,-32,13,-64,18,-95v5,-31,8,-59,10,-81v2,-22,5,-42,6,-59v1,-22,2,-38,0,-52v-41,15,-94,18,-149,21v-22,0,-19,-51,-7,-62v3,-3,9,-4,16,-4v65,0,104,-5,118,-16v-1,-2,-4,-9,-6,-22v-9,-35,-32,-48,-74,-59v-3,-1,-4,-4,-3,-9v1,-13,33,-54,50,-49v56,17,97,36,104,95v2,14,5,23,7,28v16,-15,46,-23,89,-23v25,0,34,18,26,53v-1,9,-5,13,-10,13v-54,1,-86,8,-96,23v10,63,-3,160,-29,293v-25,126,-131,226,-263,228v-109,2,-187,-80,-159,-203v33,-144,114,-216,249,-216v40,0,62,4,65,12v9,0,11,13,6,40v-4,20,-10,30,-17,30","w":573},"\u00f1":{"d":"157,-464v2,-11,75,-26,81,-2r1,4r-14,65v64,-72,119,-104,215,-87v31,5,62,20,78,44v37,54,33,145,14,227r-46,205v-1,7,-13,10,-36,10v-31,0,-46,-3,-45,-10r51,-239v23,-105,-7,-158,-90,-158v-59,0,-126,34,-155,74r-69,326r0,-3v-1,7,-15,10,-42,10v-28,0,-41,-3,-40,-10xm513,-618v-14,28,-62,52,-103,57v-18,2,-102,-47,-118,-44v-23,0,-40,8,-53,24v-22,13,-36,-34,-33,-53v1,-4,2,-6,3,-7v46,-42,111,-31,162,9v40,31,86,-12,104,-37v20,-8,42,36,38,51","w":539},"\u00f2":{"d":"345,-417v-90,0,-173,87,-189,169v-21,105,18,188,113,187v117,-2,175,-81,200,-187v23,-100,-35,-170,-124,-169xm78,-251v26,-124,147,-237,285,-237v128,0,213,100,185,237v-30,146,-136,261,-292,263v-138,2,-211,-105,-178,-263xm389,-554r-156,-71v-3,-3,-4,-7,-3,-14v1,-14,37,-56,50,-56r131,76v35,20,-2,62,-22,65","w":565},"\u00f3":{"d":"345,-417v-90,0,-173,87,-189,169v-21,105,18,188,113,187v117,-2,175,-81,200,-187v23,-100,-35,-170,-124,-169xm78,-251v26,-124,147,-237,285,-237v128,0,213,100,185,237v-30,146,-136,261,-292,263v-138,2,-211,-105,-178,-263xm464,-625r-186,71v-11,0,-24,-22,-20,-37v3,-11,11,-21,26,-28r164,-76v14,3,42,60,16,70","w":565},"\u00f4":{"d":"345,-417v-90,0,-173,87,-189,169v-21,105,18,188,113,187v117,-2,175,-81,200,-187v23,-100,-35,-170,-124,-169xm78,-251v26,-124,147,-237,285,-237v128,0,213,100,185,237v-30,146,-136,261,-292,263v-138,2,-211,-105,-178,-263xm386,-694r107,66v11,17,-1,30,-15,44v-11,12,-18,16,-25,16r-94,-63r-130,63v-15,-3,-32,-50,-10,-61r139,-65v1,-1,26,-1,28,0","w":565},"\u00f5":{"d":"345,-417v-90,0,-173,87,-189,169v-21,105,18,188,113,187v117,-2,175,-81,200,-187v23,-100,-35,-170,-124,-169xm78,-251v26,-124,147,-237,285,-237v128,0,213,100,185,237v-30,146,-136,261,-292,263v-138,2,-211,-105,-178,-263xm541,-618v-14,28,-62,52,-103,57v-18,2,-102,-47,-118,-44v-23,0,-40,8,-53,24v-22,13,-36,-34,-33,-53v1,-4,2,-6,3,-7v46,-42,111,-31,162,9v40,31,86,-12,104,-37v20,-8,42,36,38,51","w":565},"\u00f6":{"d":"345,-417v-90,0,-173,87,-189,169v-21,105,18,188,113,187v117,-2,175,-81,200,-187v23,-100,-35,-170,-124,-169xm78,-251v26,-124,147,-237,285,-237v128,0,213,100,185,237v-30,146,-136,261,-292,263v-138,2,-211,-105,-178,-263xm261,-565v-49,0,-49,-56,-20,-79v18,-14,52,-20,65,0v22,33,-9,79,-45,79xm433,-565v-49,0,-49,-56,-20,-79v18,-14,54,-20,66,0v20,33,-9,79,-46,79","w":565},"\u00f7":{"d":"241,-135v-38,0,-58,-26,-47,-59v4,-40,71,-75,104,-38v10,12,10,30,5,45v-4,27,-33,52,-62,52xm304,-433v-60,0,-60,-69,-24,-97v22,-17,64,-24,80,0v27,41,-11,97,-56,97xm473,-379v14,18,5,79,-17,80r-367,1v-13,0,-16,-14,-11,-41v5,-26,13,-39,24,-39","w":494},"\u00f8":{"d":"189,-79v21,7,41,20,69,20v101,-1,191,-97,208,-191v8,-44,2,-85,-21,-123xm160,-130r237,-277v-69,-23,-122,-5,-175,39v-39,32,-63,74,-74,125v-10,45,-6,83,12,113xm523,-554v21,-8,65,12,48,34r-73,95v41,52,52,109,40,173v-23,124,-153,251,-289,252v-27,0,-60,-10,-97,-30r-59,69v-18,22,-66,-12,-50,-31r63,-75v-37,-47,-48,-105,-34,-177v29,-153,199,-295,378,-225","w":569},"\u00f9":{"d":"388,-13v5,31,67,14,81,2r97,-459v1,-6,-12,-9,-40,-9v-27,0,-41,3,-42,9r0,-3r-68,320v-28,40,-98,82,-155,82v-99,0,-113,-53,-90,-165r49,-233v-7,-13,-79,-14,-81,0v-19,100,-57,215,-59,325v-1,109,43,157,147,157v61,0,120,-33,176,-100xm341,-554r-156,-71v-3,-3,-4,-7,-3,-14v1,-14,37,-56,50,-56r131,76v35,20,-2,62,-22,65","w":559},"\u00fa":{"d":"484,-473r0,3v1,-6,15,-9,42,-9v28,0,41,3,40,9r-97,459v-1,11,-87,27,-81,-2r15,-74v-73,81,-127,117,-230,95v-63,-14,-95,-64,-93,-152v3,-109,41,-225,59,-325v2,-12,51,-12,68,-7v9,2,14,4,13,7r-49,233v-23,112,-9,165,90,165v57,0,127,-42,155,-82xm490,-625r-186,71v-11,0,-24,-22,-20,-37v3,-11,11,-21,26,-28r164,-76v14,3,42,60,16,70","w":559},"\u00fb":{"d":"484,-473r0,3v1,-6,15,-9,42,-9v28,0,41,3,40,9r-97,459v-1,11,-87,27,-81,-2r15,-74v-73,81,-127,117,-230,95v-63,-14,-95,-64,-93,-152v3,-109,41,-225,59,-325v2,-12,51,-12,68,-7v9,2,14,4,13,7r-49,233v-23,112,-9,165,90,165v57,0,127,-42,155,-82xm377,-694r107,66v11,17,-2,30,-16,44v-11,12,-17,16,-24,16r-94,-63r-130,63v-15,-3,-32,-50,-10,-61r139,-65v1,-1,26,-1,28,0","w":558},"\u00fc":{"d":"231,-565v-49,0,-49,-56,-20,-79v18,-14,52,-20,65,0v22,33,-9,79,-45,79xm423,-565v-49,0,-49,-56,-20,-79v18,-14,54,-20,66,0v20,33,-9,79,-46,79xm453,-473r0,3v1,-6,15,-9,42,-9v14,0,35,-2,40,9r-97,459v-1,11,-87,27,-81,-2r15,-74v-73,81,-127,117,-230,95v-63,-14,-94,-64,-92,-152v3,-109,40,-225,58,-325v2,-12,51,-12,68,-7v9,2,14,4,13,7r-49,233v-23,112,-9,165,90,165v57,0,127,-42,155,-82","w":551},"\u00fd":{"d":"-8,248v-8,-22,4,-52,13,-65v125,-5,181,-108,212,-207r-108,-438v11,-17,81,-28,88,1r85,349r213,-362v1,-5,7,-8,16,-8v18,-1,61,14,50,32r-167,286r-106,186v-22,38,-50,81,-83,129v-50,70,-116,104,-213,97xm480,-625r-186,71v-11,0,-24,-22,-20,-37v3,-11,11,-21,26,-28r164,-76v14,3,42,60,16,70","w":558},"\u00fe":{"d":"208,-423r1,8v56,-47,110,-70,162,-70v100,-2,153,99,129,211v-32,154,-140,269,-305,273v-31,0,-54,-10,-70,-29r-45,208v-3,13,-17,19,-42,19v-24,0,-35,-5,-33,-15r180,-850v8,-11,72,-27,74,0xm145,-124v12,26,56,49,98,49v85,-2,154,-86,170,-168v18,-91,3,-161,-74,-163v-51,0,-102,20,-144,57","w":524},"\u00ff":{"d":"-25,248v-8,-22,4,-52,13,-65v125,-5,181,-108,212,-207r-108,-438v11,-17,81,-28,88,1r85,349r213,-362v1,-5,7,-8,16,-8v18,-1,61,14,50,32r-166,286r-106,186v-22,38,-51,81,-84,129v-50,70,-116,104,-213,97xm247,-565v-49,0,-49,-56,-20,-79v18,-14,52,-20,65,0v22,33,-9,79,-45,79xm419,-565v-49,0,-49,-56,-20,-79v18,-14,54,-20,66,0v20,33,-9,79,-46,79","w":537},"\u0152":{"d":"298,-554v-59,58,-96,127,-118,215v-32,128,24,257,136,256v57,0,113,-28,167,-83v54,-55,88,-123,106,-202v30,-130,-21,-262,-134,-261v-53,0,-105,25,-157,75xm1053,-635v-83,-3,-150,3,-221,21v-68,17,-130,55,-137,129r-15,70r216,0v28,0,15,48,3,64v-6,9,-11,14,-16,14r-219,1r-36,169v-11,70,69,81,130,89v55,7,119,1,176,-2v12,0,15,11,10,34v-3,15,-12,43,-25,43r-108,3v-171,0,-259,-40,-266,-120v-72,79,-150,118,-234,118v-160,0,-247,-173,-205,-352v23,-97,67,-180,136,-248v69,-68,141,-103,218,-103v97,1,162,60,191,135v59,-89,177,-133,353,-133v28,0,64,-11,64,24v0,11,-9,46,-15,44","w":1021},"\u0153":{"d":"580,-102v48,58,155,54,221,20v14,-1,22,39,18,55v-3,15,-23,25,-59,31v-36,6,-73,8,-112,8v-83,0,-141,-47,-165,-110v-50,58,-125,110,-220,111v-138,2,-211,-108,-178,-264v26,-124,147,-237,286,-237v82,0,144,40,172,98v58,-70,129,-105,214,-105v116,0,162,54,139,163v-14,68,-77,95,-155,95r-184,0v-13,59,-3,103,23,135xm353,-417v-90,0,-172,87,-189,169v-22,105,17,190,112,189v111,-1,178,-91,201,-189v23,-100,-35,-170,-124,-169xm571,-300r185,0v40,0,64,-20,72,-59v11,-54,-42,-66,-98,-67v-64,-1,-151,71,-159,126","w":901},"\u0178":{"d":"642,-694v23,-20,52,36,50,51r-333,315r-69,325v-26,5,-61,8,-80,0r68,-319r-133,-336v1,-9,54,-47,68,-44v4,0,7,2,9,6r112,292xm315,-777v-49,0,-49,-56,-20,-79v18,-14,52,-20,65,0v22,33,-9,79,-45,79xm487,-777v-49,0,-49,-56,-20,-79v18,-14,54,-20,66,0v20,33,-9,79,-46,79","w":628},"\u02c6":{"d":"318,-694r107,66v11,17,-1,30,-15,44v-11,12,-18,16,-25,16r-94,-63r-130,63v-15,-3,-32,-50,-10,-61r139,-65v1,-1,26,-1,28,0","w":424},"\u02dc":{"d":"418,-618v-14,28,-62,52,-103,57v-18,2,-102,-47,-118,-44v-23,0,-40,8,-53,24v-22,13,-36,-34,-33,-53v1,-4,2,-6,3,-7v46,-42,111,-31,162,9v40,31,86,-12,104,-37v20,-8,42,36,38,51","w":395},"\u2013":{"d":"447,-299r-367,1v-13,0,-16,-14,-10,-41v6,-26,13,-39,23,-39r371,-1v14,19,5,81,-17,80","w":489},"\u2014":{"d":"567,-299r-487,1v-13,0,-16,-14,-10,-41v6,-26,13,-39,23,-39r491,-1v14,19,5,81,-17,80","w":604},"\u2018":{"d":"255,-465v-102,6,-132,-79,-111,-178v9,-42,78,-81,110,-39v31,42,-11,100,-57,102v-1,48,21,78,64,80v3,10,-4,19,-6,35","w":314},"\u2019":{"d":"218,-580v-31,-2,-45,-28,-39,-63v7,-42,76,-78,111,-39v15,17,5,51,0,68v-6,21,-32,78,-49,94v-26,25,-76,57,-131,55v0,-12,10,-38,10,-35v29,-1,36,-6,60,-26v16,-13,29,-31,38,-54","w":308},"\u201a":{"d":"81,2v-32,-11,-26,-62,-1,-80v12,-10,22,-13,39,-12v29,0,39,20,31,61v-8,46,-21,64,-59,97v-28,24,-58,36,-90,36v0,-9,3,-15,5,-22v34,-6,68,-42,75,-80","w":168},"\u201c":{"d":"324,-625v31,2,45,28,39,63v-7,42,-76,79,-111,40v-15,-17,-5,-52,0,-69v6,-21,32,-79,49,-95v26,-25,76,-56,131,-54v-2,10,-9,38,-10,35v-29,1,-36,6,-60,26v-16,13,-29,31,-38,54xm166,-625v31,2,45,28,39,63v-7,42,-76,79,-111,40v-15,-17,-5,-52,0,-69v6,-21,32,-79,49,-95v26,-25,76,-56,131,-54v-2,10,-9,38,-10,35v-29,1,-36,6,-60,26v-16,13,-29,31,-38,54","w":349},"\u201d":{"d":"173,-621v-30,-1,-50,-30,-38,-63v4,-42,76,-79,111,-40v15,17,5,52,0,69v-6,21,-32,79,-49,95v-26,25,-76,56,-131,54v0,-10,8,-39,9,-35v29,-1,37,-6,61,-26v16,-13,28,-31,37,-54xm331,-621v-30,-1,-50,-30,-38,-63v4,-42,76,-79,111,-40v15,17,5,52,0,69v-6,21,-32,79,-49,95v-26,25,-76,56,-131,54v0,-10,8,-39,9,-35v29,-1,37,-6,61,-26v16,-13,28,-31,37,-54","w":366},"\u201e":{"d":"98,2v-32,-11,-26,-62,-1,-80v12,-10,22,-13,39,-12v29,0,39,20,31,61v-8,46,-21,64,-59,97v-28,24,-58,36,-90,36v0,-9,3,-15,5,-22v34,-6,68,-42,75,-80xm231,2v-32,-11,-26,-62,-1,-80v12,-10,22,-13,39,-12v29,0,39,20,31,61v-8,46,-21,64,-59,97v-28,24,-58,36,-90,36v0,-9,3,-15,5,-22v34,-6,68,-42,75,-80","w":347},"\u2022":{"d":"171,-256v-62,4,-91,-41,-76,-97v12,-46,55,-84,115,-84v49,0,78,47,61,96v-6,45,-52,82,-100,85","w":292},"\u2026":{"d":"182,2v-65,0,-64,-73,-26,-102v24,-19,69,-26,86,0v28,44,-11,102,-60,102xm459,2v-65,0,-64,-73,-26,-102v24,-19,69,-26,86,0v28,44,-11,102,-60,102xm733,2v-65,0,-64,-73,-26,-102v24,-19,69,-26,86,0v28,44,-11,102,-60,102","w":936},"\u2039":{"d":"270,-83v-4,13,-52,51,-65,27r-102,-181v-1,-4,2,-25,6,-28r181,-185v18,-20,57,6,56,24r-177,175","w":352},"\u203a":{"d":"114,-426v4,-13,53,-47,66,-24r103,185v0,4,-3,25,-6,28r-178,181v-20,21,-55,-10,-55,-27r173,-168","w":295},"\u20ac":{"d":"274,-398v-10,35,-15,56,-20,90r246,0v3,25,1,56,-14,66r-240,0v-7,117,27,175,101,175v94,-1,190,-8,239,-39r-14,65v-53,38,-140,53,-236,53v-129,0,-186,-85,-170,-254r-80,1v-13,0,-16,-19,-12,-33v6,-22,11,-33,22,-33r79,-1v2,-23,14,-68,19,-90r-75,1v-13,0,-16,-19,-12,-33v6,-22,11,-33,22,-33r86,-1v29,-82,67,-144,115,-186v73,-65,161,-78,264,-46v53,16,75,29,110,50r-17,64v-44,-25,-144,-51,-220,-51v-31,0,-63,15,-93,45v-30,30,-56,72,-77,124r236,0v6,20,-2,60,-14,66r-245,0","w":693},"\u2122":{"d":"141,-665v-12,-3,-5,-35,6,-33v5,-2,149,-1,155,0v1,13,-3,24,-7,33r-64,0r-36,168v0,9,-23,12,-32,6v-3,-1,-4,-3,-3,-6r36,-168r-55,0xm322,-491v-11,3,-28,7,-37,-1r42,-199v0,-11,31,-18,36,-2r40,119r92,-120v6,-8,28,-10,33,0r-43,203v-4,5,-30,6,-35,-1r28,-131r-73,94v-6,5,-23,8,-26,-1r-31,-84","w":497}}});
