/*!
 * The following copyright notice may not be removed under any circumstances.
 * 
 * Copyright:
 * Copyright (c) 2009 by La Tipomatika. All rights reserved.
 * 
 * Trademark:
 * Candela is a trademark of La Tipomatika.
 * 
 * Description:
 * Copyright (c) 2009 by La Tipomatika. All rights reserved.
 * 
 * Manufacturer:
 * La Tipomatika
 * 
 * Designer:
 * La Tipomatika
 * 
 * Vendor URL:
 * www.tipomatika.co.nr
 * 
 * License information:
 * www.tipomatika.co.nr
 */
Cufon.registerFont({"w":555,"face":{"font-family":"Candela Bold","font-weight":400,"font-stretch":"normal","units-per-em":"1000","panose-1":"2 0 0 0 0 0 0 0 0 0","ascent":"750","descent":"-250","x-height":"22","cap-height":"14","bbox":"-118.128 -1002 1039 269.041","underline-thickness":"50","underline-position":"-50","unicode-range":"U+0020-U+2122"},"glyphs":{" ":{"w":232},"!":{"d":"134,-94v45,0,68,16,64,63v-3,30,-28,44,-64,41v-30,-3,-41,-26,-41,-63v0,-22,19,-41,41,-41xm198,-165v-8,24,-100,41,-100,2r-2,-521v0,-21,27,-29,51,-29v19,0,49,8,49,25","w":321},"\"":{"d":"39,-730v8,-38,87,-20,97,3r-9,205v0,39,-38,51,-69,35v-8,-5,-12,-9,-13,-14xm154,-730v8,-38,87,-20,97,3r-9,205v0,39,-37,51,-68,35v-8,-5,-13,-9,-14,-14","w":295},"#":{"d":"531,-307r112,1v27,6,39,96,1,96r-138,0r-54,209v-17,35,-96,6,-95,-23r48,-187r-138,0r-54,210v-17,35,-96,6,-95,-23r49,-188r-92,-1v-20,0,-28,-26,-28,-48v0,-20,8,-49,25,-50r120,1r25,-95r-87,-1v-20,0,-28,-26,-28,-48v0,-20,8,-49,25,-50r115,1r50,-194v6,-20,56,-16,75,-5v12,7,19,16,19,29r-45,171r139,0r51,-195v6,-20,56,-16,75,-5v12,7,19,16,19,29r-45,173r117,1v28,4,40,96,2,96r-144,0xm317,-404r-25,95r138,0r25,-95r-138,0","w":787},"$":{"d":"318,-393v96,12,167,79,167,184v0,124,-80,203,-191,214r-5,68v-1,16,-11,24,-32,24v-20,1,-50,-12,-49,-31r4,-59v-69,-5,-120,-24,-154,-59v-5,-3,-8,-8,-8,-15v-2,-18,38,-68,56,-65v2,0,7,2,15,6v28,22,60,35,96,40r15,-219v-116,-7,-176,-49,-176,-168v0,-128,66,-215,200,-213v5,-23,-5,-51,16,-61v24,-11,70,-5,68,21r-4,44v26,5,51,12,76,21v48,18,44,31,22,72v-10,18,-19,27,-26,27v-34,-15,-59,-24,-76,-27xm299,-89v55,-13,93,-52,93,-119v-1,-49,-36,-82,-81,-92xm251,-595v-59,7,-88,57,-88,124v-1,54,26,71,74,75","w":537},"%":{"d":"510,-711v30,-6,87,18,81,48r-359,661v-22,35,-86,-13,-89,-35v0,-7,2,-10,5,-11xm558,-233v-36,0,-66,38,-66,75v0,37,30,75,66,75v36,0,67,-38,67,-75v0,-37,-31,-75,-67,-75xm559,6v-88,0,-157,-78,-157,-167v0,-89,70,-158,157,-158v87,0,156,69,156,158v0,89,-69,167,-156,167xm194,-624v-36,0,-66,38,-66,75v0,37,30,75,66,75v36,0,67,-38,67,-75v0,-37,-31,-75,-67,-75xm195,-385v-88,0,-157,-78,-157,-167v0,-89,70,-158,157,-158v87,0,156,69,156,158v0,89,-69,167,-156,167","w":748},"&":{"d":"509,-270v16,-4,68,39,66,53v-3,28,-22,43,-46,76r-11,11v57,53,86,83,86,88v4,11,-59,66,-68,63r0,-10v-17,0,-22,-10,-31,-18r-59,-50v-60,51,-128,76,-205,76v-119,-1,-195,-78,-195,-206v0,-78,40,-144,119,-199v-34,-50,-46,-62,-67,-113v-8,-19,-11,-38,-11,-55v2,-107,67,-161,181,-160v111,0,174,53,175,164v0,44,-11,79,-33,106v-22,27,-59,55,-110,83v53,66,109,127,152,171xm381,-123v-33,-31,-112,-128,-163,-189v-49,34,-73,77,-73,128v0,68,42,110,104,111v47,0,91,-17,132,-50xm267,-633v-55,0,-84,21,-83,81v0,26,22,68,65,127v38,-22,63,-41,77,-59v14,-18,21,-40,21,-65v2,-56,-31,-84,-80,-84","w":630},"'":{"d":"44,-730v8,-38,87,-20,97,3r-9,205v0,39,-37,51,-68,35v-8,-5,-13,-9,-14,-14","w":191},"(":{"d":"275,122v2,15,-42,47,-58,47v-9,0,-15,-3,-17,-9v-87,-126,-181,-326,-178,-540v2,-191,71,-319,154,-447v20,-31,71,24,74,40v0,4,-1,7,-3,9v-60,95,-131,260,-133,400v-2,163,88,390,158,489r0,-1v2,2,3,6,3,12","w":308},")":{"d":"28,-784v3,-16,54,-71,74,-40v85,130,153,251,155,444v3,214,-92,418,-180,544v-24,20,-70,-25,-72,-42v0,-5,2,-9,5,-11r-2,1v71,-102,158,-325,157,-490v-1,-142,-73,-300,-134,-396r0,1v-2,-2,-3,-6,-3,-11","w":321},"*":{"d":"178,-678v2,-31,59,-39,86,-24v10,5,15,12,14,20r-12,98r83,-59r-1,0v2,-2,6,-3,12,-3v23,2,77,65,40,86r-103,58r103,72v14,26,3,38,-18,60v-15,16,-28,22,-37,21r-78,-78v8,62,12,94,12,97v0,13,-42,27,-60,27v-23,0,-37,-8,-40,-25r15,-107r-39,38r1,0r-50,49v-20,-3,-78,-50,-54,-82r110,-74r-108,-55r0,1v-38,-22,15,-86,39,-88v5,0,9,2,11,5r-1,-2r92,64v-8,-34,-10,-67,-17,-99","w":458},"+":{"d":"19,-339v0,-20,8,-48,25,-49r129,0r0,-127v0,-21,27,-29,51,-29v19,0,49,8,49,25r0,131r142,-1v23,8,41,100,2,100r-144,1r1,140v-8,24,-100,41,-100,2r-1,-142r-125,0v-21,0,-29,-27,-29,-51","w":476},",":{"d":"115,-83v37,-6,96,17,90,53r-106,162v-27,9,-76,-2,-71,-36v5,-33,32,-61,41,-90v8,-14,18,-32,29,-55r-1,0","w":224},"-":{"d":"320,-389v23,8,41,100,2,100r-261,1v-21,0,-29,-27,-29,-51v0,-20,8,-48,25,-49","w":400},".":{"d":"153,12v-46,0,-76,-27,-74,-73v1,-39,31,-68,74,-66v38,2,64,31,64,74v0,36,-28,65,-64,65","w":284},"\/":{"d":"369,-666r-265,657v-17,31,-44,25,-72,7v-19,-12,-29,-19,-23,-35r262,-649v16,-37,47,-29,77,-14v15,7,21,19,21,34","w":393},"0":{"d":"276,-90v132,0,146,-124,147,-259v0,-78,-12,-142,-37,-192v-25,-50,-61,-75,-110,-75v-41,0,-73,24,-98,72v-25,48,-37,113,-37,195v0,173,45,259,135,259xm282,9v-195,-4,-239,-160,-240,-358v0,-125,22,-217,64,-277v42,-60,101,-89,176,-89v74,0,132,36,179,105v106,157,89,513,-62,591v-33,17,-72,28,-117,28","w":564},"1":{"d":"74,-476v-17,-2,-77,-46,-47,-71v125,-104,188,-158,193,-158v26,-6,71,-8,70,16r0,684v-35,9,-69,12,-98,0r0,-559r-55,40","w":363},"2":{"d":"93,9v-44,-4,-47,-41,-47,-91v1,-75,22,-123,59,-166v62,-71,145,-104,211,-170v28,-27,42,-58,42,-109v0,-57,-50,-93,-110,-92v-63,1,-122,36,-148,72v-15,-4,-82,-47,-51,-76v60,-57,122,-89,192,-89v136,0,222,48,222,182v0,79,-27,127,-73,169v-65,59,-152,106,-202,166v-26,31,-41,68,-43,111v12,1,49,2,112,1r196,-3v26,11,24,81,2,95r-362,0","w":517},"3":{"d":"275,-393v52,0,75,-63,75,-127v0,-63,-36,-94,-108,-94v-53,0,-108,28,-148,60v-12,2,-59,-46,-55,-61v0,-13,25,-31,75,-55v50,-24,92,-36,128,-36v128,0,201,63,206,193v2,71,-10,149,-64,168v55,26,83,81,83,164v1,109,-107,196,-224,196v-71,0,-146,-28,-223,-84v-5,-33,37,-81,61,-84v4,0,16,6,17,9v40,43,88,64,144,64v77,1,127,-40,127,-115v0,-69,-52,-103,-157,-103v-17,0,-35,3,-54,3v-34,0,-25,-75,-7,-86v5,-5,15,-9,30,-10v15,-1,46,-2,94,-2","w":514},"4":{"d":"497,-194v0,31,-14,21,-54,24r-38,0r0,177v-35,9,-69,12,-98,0r0,-177r-263,0r-8,-4v-12,-24,-10,-65,4,-85r284,-415v31,-7,81,-7,81,23r0,382r76,0v9,13,16,53,16,75xm164,-263r143,-6r0,-223","w":526},"5":{"d":"535,-237v0,183,-127,259,-314,247v-54,-3,-118,-23,-193,-64v-4,-16,42,-83,54,-83v18,0,20,1,41,14v35,21,73,34,116,34v104,-2,188,-41,190,-148v2,-101,-66,-156,-163,-156v-44,0,-92,12,-145,34v-39,16,-51,-20,-52,-88v-2,-60,19,-201,32,-241v6,-17,67,-28,184,-25r225,6v19,34,17,64,4,99r-314,7v-19,32,-27,76,-21,129v192,-31,356,40,356,235","w":583},"6":{"d":"484,-210v0,129,-95,220,-215,219v-128,-1,-216,-95,-224,-229v-9,-152,6,-299,63,-385v82,-124,214,-131,354,-54v6,21,-1,37,-21,54v-15,14,-27,21,-34,21v-42,-33,-92,-43,-147,-30v-68,16,-128,118,-121,201v36,-35,81,-52,135,-52v53,0,102,22,145,65v43,43,65,107,65,190xm392,-211v0,-81,-52,-164,-133,-164v-49,0,-109,30,-115,68v-16,120,18,228,130,230v76,1,118,-60,118,-134","w":515},"7":{"d":"442,-712v25,7,47,34,42,65v-32,165,-116,335,-182,476v-23,49,-42,89,-58,119r-24,45v-8,14,-43,21,-67,21v-29,0,-44,-7,-44,-22v0,-5,1,-9,4,-10v131,-242,217,-442,260,-601r-290,0v-15,-8,-59,-80,-16,-93r375,0","w":519},"8":{"d":"274,13v-128,0,-241,-82,-238,-214v2,-111,26,-176,104,-210v-41,-31,-62,-101,-42,-167v13,-44,39,-88,86,-110v29,-13,63,-22,103,-22v114,-3,195,73,195,181v0,51,-17,91,-50,118v48,36,84,119,84,206v0,133,-115,218,-242,218xm272,-81v87,0,141,-57,142,-136v1,-79,-56,-150,-132,-150v-54,0,-95,28,-114,68v-17,36,-20,60,-20,111v0,58,58,107,124,107xm284,-451v60,0,117,-40,104,-107v-7,-37,-57,-63,-103,-63v-59,0,-99,45,-101,87v-3,53,47,83,100,83","w":552},"9":{"d":"27,-492v0,-129,93,-215,212,-215v122,0,218,89,225,212v8,155,-11,317,-64,398v-61,94,-168,128,-286,86v-32,-12,-52,-22,-60,-30r1,0v-19,-18,-6,-36,13,-56v15,-14,26,-21,32,-21v61,31,116,55,169,14v53,-40,79,-115,99,-185v-56,49,-129,67,-204,36v-84,-34,-137,-118,-137,-239xm126,-490v0,77,43,175,123,162v55,-9,91,-33,101,-88v8,-37,8,-47,8,-92v1,-56,-58,-118,-118,-118v-75,0,-114,63,-114,136","w":503},":":{"d":"170,12v-43,0,-71,-25,-70,-69v1,-36,29,-65,70,-63v35,2,61,31,61,70v0,35,-27,62,-61,62xm170,-366v-44,0,-72,-26,-70,-70v1,-36,30,-64,70,-62v36,2,61,30,61,70v0,35,-27,62,-61,62","w":342},";":{"d":"137,-366v-44,0,-72,-26,-70,-70v1,-36,30,-64,70,-62v36,2,61,30,61,70v0,35,-27,62,-61,62xm115,-83v37,-6,96,17,90,53r-106,162v-27,9,-76,-2,-71,-36v5,-33,32,-61,41,-90v8,-14,18,-32,29,-55r-1,0","w":258},"<":{"d":"32,-232r1,0v-5,-5,-5,-27,-2,-35r144,-189v22,-32,80,13,79,34r-137,171r134,164v-1,18,-52,71,-78,37","w":292},"=":{"d":"515,-499v23,8,41,100,2,100r-369,1v-21,0,-29,-27,-29,-51v0,-20,8,-48,25,-49xm515,-269v23,8,41,100,2,100r-369,1v-21,0,-29,-27,-29,-51v0,-20,8,-48,25,-49","w":675},">":{"d":"252,-227r-138,177v-18,20,-41,11,-60,-9v-13,-13,-19,-23,-18,-28r135,-164r-68,-83v-31,-37,-54,-67,-70,-88v0,-20,54,-66,79,-34r144,189v2,9,1,33,-4,40","w":299},"?":{"d":"104,-193v0,-48,-6,-97,16,-134v48,-81,182,-80,182,-203v0,-64,-31,-96,-92,-96v-55,0,-98,19,-130,58v-14,1,-60,-43,-56,-61v0,-16,21,-33,62,-53v41,-20,80,-30,119,-30v116,1,194,63,191,189v-2,60,-17,101,-50,130v-44,39,-105,46,-134,99v-14,25,-16,60,-10,93v-1,27,-18,37,-47,37v-34,0,-51,-10,-51,-29xm158,12v-37,0,-59,-22,-59,-59v0,-32,25,-54,59,-53v30,1,52,25,52,59v0,30,-23,53,-52,53","w":444},"@":{"d":"576,158v87,-2,213,-43,267,-85r25,99v-59,42,-201,85,-292,87v-268,7,-501,-220,-497,-484v3,-203,115,-356,256,-429v142,-74,334,-82,479,-8v119,61,225,177,225,338v0,168,-101,287,-213,348v-65,36,-132,44,-181,-5v-29,9,-72,20,-108,20v-141,0,-218,-101,-185,-245v33,-145,127,-266,291,-269v17,0,168,13,170,24v0,3,-6,34,-19,94v-41,193,-62,296,-62,311v0,3,4,4,12,4v46,-5,88,-44,119,-78v39,-43,77,-124,77,-204v0,-167,-173,-290,-350,-290v-226,0,-410,172,-410,389v0,210,184,388,396,383xm537,-54v30,0,65,-4,105,-12r63,-317v-86,-14,-143,18,-189,72v-34,39,-65,102,-65,170v0,58,29,87,86,87","w":1110},"A":{"d":"30,-28r278,-672v4,-19,89,-23,96,-1r230,675r-1,0v10,23,-8,36,-40,36v-33,0,-54,-7,-59,-23r-62,-198r-258,0r-75,182v-23,42,-54,51,-91,27v-12,-9,-18,-17,-18,-26xm438,-306r-91,-234r-96,234r187,0","w":669},"B":{"d":"52,-689v32,-25,113,-34,182,-34v117,0,193,61,193,170v0,57,-28,129,-65,153v67,29,125,95,127,192v2,145,-95,231,-239,230v-72,-1,-154,-14,-198,-38r0,-673xm205,-349r-54,2r-1,268v27,12,62,18,107,18v81,-1,136,-55,136,-144v0,-96,-63,-144,-188,-144xm150,-429v101,2,184,-23,187,-121v2,-64,-51,-105,-112,-98r-75,9r0,210","w":514},"C":{"d":"541,-634v-1,15,-25,88,-49,61v-32,-37,-65,-52,-132,-52v-122,-2,-217,144,-217,274v0,131,95,277,217,275v52,0,97,-18,134,-53r-1,0v29,-16,55,37,55,62v0,23,-21,44,-62,62v-237,108,-441,-117,-441,-346v0,-228,210,-457,438,-339v39,21,58,39,58,56","w":579},"D":{"d":"208,22v-47,0,-121,3,-144,-12r-1,-709v1,-14,130,-24,148,-23v251,0,377,124,377,372v0,260,-111,371,-380,372xm161,-629r1,560v211,14,328,-78,328,-281v0,-205,-115,-295,-329,-279","w":630},"E":{"d":"274,-713r194,3v11,5,17,24,17,55v0,21,-5,32,-16,32v-66,-1,-129,-1,-190,-1v-84,0,-126,2,-126,6r0,195r263,0v21,0,32,15,32,44v1,22,-11,53,-29,54r-266,1r0,235v31,11,246,3,315,1v18,0,27,15,27,44v0,24,-8,52,-27,53v-105,2,-413,16,-414,-32r-1,-649v0,-27,74,-43,221,-41","w":524},"F":{"d":"162,6v-27,9,-65,6,-97,2r-3,-681v2,-25,90,-37,264,-37v67,0,119,1,155,4v7,39,7,54,-4,89v-60,-3,-117,-5,-170,-5v-97,0,-145,5,-145,15v0,41,-1,132,-1,184r230,-1v38,4,31,89,3,99r-232,0r0,331","w":499},"G":{"d":"346,-389r47,-4v32,-3,60,-4,84,-4v87,0,131,20,131,60v0,112,-25,199,-74,263v-49,64,-115,96,-198,96v-169,0,-294,-192,-294,-373v0,-182,125,-374,294,-371v75,1,136,26,183,73r8,19v3,17,-36,67,-52,65v-5,0,-9,-1,-11,-3v-38,-38,-81,-57,-128,-57v-115,-1,-196,148,-196,274v0,127,81,275,196,275v103,-1,170,-115,178,-218v-5,-6,-21,-9,-48,-9v-27,0,-73,5,-118,11v-32,-5,-32,-94,-2,-97","w":647},"H":{"d":"460,-688v8,-21,98,-41,98,0r2,678v-7,23,-101,43,-100,0r0,-306r-306,0r1,306v-7,23,-100,42,-99,0r-1,-678v8,-22,99,-41,99,0r0,273r306,0r0,-273","w":616},"I":{"d":"64,-693v8,-23,97,-41,97,-2r1,680v0,19,-28,29,-49,29v-22,0,-48,-7,-48,-25","w":217},"J":{"d":"169,-690v8,-21,101,-43,101,0r0,400v-1,157,-52,266,-174,296v-26,5,-52,5,-78,1v-17,-34,-18,-46,1,-82v65,-3,104,-33,126,-82v17,-39,26,-81,26,-133","w":329},"K":{"d":"64,-689v8,-22,99,-41,99,0r2,220r296,-243v38,25,61,48,68,70r-303,254r342,326v14,19,-1,27,-24,48v-19,17,-34,25,-43,24r-338,-314r0,310v-3,5,-19,7,-50,6v-31,-1,-48,-6,-48,-14","w":606},"L":{"d":"470,-82v41,-6,50,67,26,85v-36,6,-114,9,-235,9v-138,0,-207,-8,-207,-25r0,-682v17,-12,37,-18,60,-18v25,0,38,8,38,25r0,616v70,-10,249,-2,318,-10","w":535},"M":{"d":"732,-3v-9,22,-100,27,-100,-3r0,-506r-223,385v-9,16,-49,19,-64,10r-194,-354r0,464v-4,27,-99,32,-99,1r-1,-685v5,-24,86,-30,98,-7r232,449r251,-445v10,-21,99,-33,99,4","w":785},"N":{"d":"513,-685v7,-26,99,-45,99,1r1,660v3,40,-73,46,-95,26r-368,-523r0,511v-1,15,-34,24,-54,23v-31,0,-46,-9,-46,-28r0,-661v1,-42,81,-44,101,-15r362,513r0,-507","w":665},"O":{"d":"322,22v-167,0,-289,-193,-289,-374v0,-181,122,-372,289,-370v129,1,215,87,255,186v23,56,34,117,34,184v0,182,-120,374,-289,374xm513,-365v0,-121,-74,-259,-184,-259v-47,0,-91,24,-128,76v-42,58,-67,120,-70,206v-5,121,87,267,196,267v51,0,95,-29,131,-87v36,-58,55,-126,55,-203","w":634},"P":{"d":"369,-492v0,-90,-44,-142,-125,-144v-33,0,-66,5,-98,15r4,295v21,5,43,8,64,8v105,-1,155,-63,155,-174xm149,5v-28,11,-72,7,-100,0r0,-692v49,-23,116,-35,199,-35v145,-1,227,85,227,230v0,179,-135,305,-326,264r0,233","w":505},"Q":{"d":"319,-722v168,0,291,193,291,374v0,171,-105,328,-234,364v23,44,63,66,118,66v9,17,13,30,13,40v-2,38,4,44,-31,44v-103,0,-172,-49,-207,-146v-137,-26,-242,-199,-242,-368v0,-182,122,-374,292,-374xm490,-248v56,-159,-12,-374,-160,-374v-124,0,-206,148,-206,288v0,118,76,245,172,260v109,-9,163,-85,194,-174","w":638},"R":{"d":"341,-280r-102,1v-45,0,-72,0,-79,-1r0,286v-33,13,-94,19,-94,-18r0,-671v69,-26,145,-39,228,-39v140,0,241,93,240,229v-1,90,-32,136,-91,172v67,33,100,137,100,310v0,15,-32,25,-54,24v-21,-1,-41,-9,-41,-34v0,-3,-2,-12,-3,-29v-11,-132,-45,-209,-104,-230xm435,-481v0,-115,-81,-169,-201,-147v-22,4,-41,5,-55,8r-21,5r2,248v31,2,64,3,100,3v117,0,175,-39,175,-117","w":574},"S":{"d":"41,-496v1,-130,70,-226,207,-226v67,0,127,13,179,40v17,16,5,32,-8,57v-10,18,-20,27,-27,27v-35,-22,-81,-33,-138,-33v-78,0,-111,60,-111,137v0,65,40,97,120,97v122,0,207,70,207,188v0,132,-98,231,-225,231v-95,0,-162,-20,-202,-60v-5,-3,-8,-8,-8,-15v-2,-18,38,-68,56,-65v31,13,49,33,89,40v19,3,40,7,65,7v78,1,132,-57,132,-137v0,-65,-42,-97,-126,-97v-140,0,-210,-64,-210,-191","w":493},"T":{"d":"295,11v-22,0,-48,-6,-48,-25r8,-599v-9,-1,-30,-1,-62,-1r-147,2v-18,0,-30,-38,-29,-60v0,-19,5,-29,16,-31v50,-9,480,-9,526,0v14,2,21,26,21,43v0,32,-11,48,-32,48v-50,0,-95,-3,-136,-3v-35,0,-54,0,-59,1r-8,600v0,17,-17,25,-50,25","w":589},"U":{"d":"618,-256v2,156,-113,278,-269,278v-163,0,-290,-113,-290,-277r0,-434v8,-22,99,-41,99,0r0,439v-3,104,93,175,194,177v95,2,166,-88,166,-179r1,-434v0,-42,90,-21,99,0r0,430","w":692},"V":{"d":"358,2v-22,15,-60,10,-84,5r-247,-672v0,-12,52,-54,70,-49v11,0,22,6,27,21r198,536r255,-543v4,-9,11,-13,22,-13v17,-5,71,44,69,56","w":684},"W":{"d":"514,-14r-111,-465r-148,487v-27,4,-65,9,-82,-6r-8,-16r-141,-654v3,-30,47,-36,82,-36v7,1,22,42,42,124v20,82,38,163,54,244r25,122r146,-485v13,-20,73,-18,97,2r105,483r141,-482v13,-28,46,-17,71,0v17,11,25,19,25,24r-190,679v-34,-1,-80,13,-101,-5","w":830},"X":{"d":"579,-44v18,35,-43,64,-79,54r-186,-284v-77,100,-146,196,-208,287v-31,14,-84,-19,-86,-46v50,-84,171,-240,237,-331r-197,-271v-24,-33,26,-71,54,-72v9,0,17,4,23,11r189,261r216,-273v30,-19,80,19,80,47v0,7,-2,14,-7,21r-232,294r196,303r0,-1","w":635},"Y":{"d":"225,2r0,-321r-206,-338v-5,-11,54,-61,70,-55v7,0,15,3,19,10r168,282r236,-280v23,-18,36,-4,58,22v16,19,22,33,21,39r-266,315r0,329v-42,8,-69,12,-100,-3","w":601},"Z":{"d":"90,-689v14,-28,33,-20,64,-22v23,-1,70,-1,142,-1v65,0,130,0,195,3v34,1,48,60,28,88r-379,541v77,5,243,-2,334,-4v15,0,22,14,22,43v1,19,-7,47,-20,50r-171,1v-140,0,-220,-2,-241,-5v-34,-6,-42,-63,-27,-100v149,-229,269,-403,360,-521v-87,-9,-192,-3,-284,1v-36,1,-35,-49,-23,-74","w":547},"[":{"d":"271,-749v-64,0,-94,9,-94,62r1,718v2,52,33,54,93,56v12,0,18,11,18,32v-1,42,-6,46,-45,47v-76,1,-134,-12,-156,-68v-8,-17,-11,-38,-11,-62r0,-746v5,-59,32,-96,83,-108v32,-8,49,-10,86,-10v38,0,42,7,43,48v0,21,-6,31,-18,31","w":345},"\\":{"d":"367,-37v1,21,-42,49,-66,49v-11,0,-23,-6,-29,-21r-265,-657v-1,-30,38,-46,68,-46v11,0,21,6,26,19","w":393},"]":{"d":"82,166v-39,0,-43,-5,-44,-47v0,-21,6,-32,18,-32v60,-2,93,-3,93,-56r0,-724v-2,-52,-33,-54,-93,-56v-12,0,-18,-10,-18,-31v0,-19,7,-48,23,-48v57,0,98,5,121,14v43,17,68,52,68,104r0,746v-2,65,-27,106,-80,120v-33,9,-48,10,-88,10","w":314},"^":{"d":"275,-728r180,130v20,18,11,41,-9,60v-13,13,-23,19,-28,18r-159,-122r-181,124v-20,0,-68,-56,-34,-79r189,-125v12,-7,29,-8,42,-6","w":515},"_":{"d":"546,67v23,8,41,100,2,100r-495,1v-21,0,-29,-27,-29,-51v0,-20,8,-48,25,-49","w":606},"`":{"d":"222,-544r-168,-69v-26,-20,-15,-44,8,-69v15,-16,24,-23,29,-21r147,76v31,15,34,47,10,69v-10,10,-19,14,-26,14","w":320},"a":{"d":"309,-484v100,39,59,230,59,343v0,57,22,100,67,128v-56,41,-106,52,-147,0v-50,24,-92,36,-126,36v-84,0,-148,-64,-145,-164v3,-116,145,-181,271,-151r1,-19v0,-63,-17,-97,-52,-97v-44,0,-87,11,-130,28v-19,2,-37,-47,-36,-65v2,-36,100,-54,144,-53v44,0,62,1,94,14xm112,-141v0,50,19,73,60,74v24,0,70,-11,110,-31v-6,-24,2,-85,2,-118v-13,-2,-33,-3,-58,-3v-73,0,-114,26,-114,78","w":439},"b":{"d":"244,-72v77,0,126,-73,126,-163v0,-109,-33,-164,-100,-164v-43,0,-84,17,-122,52r-2,234v25,27,57,41,98,41xm469,-277v0,179,-94,299,-257,299v-76,0,-130,-33,-163,-100r-1,-612v1,-27,100,-39,100,-3r0,251v45,-37,91,-56,137,-56v107,-1,184,107,184,221","w":508},"c":{"d":"262,-498v71,1,113,8,153,43v2,40,-10,66,-40,76r-8,-1v-19,-18,-55,-27,-108,-27v-80,-1,-127,76,-127,160v0,85,46,171,126,170v57,-1,74,-11,110,-40v26,-8,51,37,51,59v2,47,-109,80,-158,80v-136,0,-229,-132,-229,-272v0,-141,93,-250,230,-248","w":448},"d":{"d":"353,-687v4,-23,100,-37,100,3r0,660v-38,24,-128,46,-199,46v-143,1,-228,-93,-228,-238v0,-178,133,-317,327,-277r0,-194xm132,-216v0,90,44,141,125,143v34,0,67,-6,98,-19r-1,-301v-135,-23,-222,40,-222,177","w":495},"e":{"d":"229,-499v144,1,194,48,197,185v0,19,-1,40,-3,63v-2,23,-58,38,-168,35r-127,-3v3,93,56,147,144,149v31,1,69,-10,108,-22v21,-2,40,44,39,65v0,18,-18,31,-55,38v-37,7,-76,11,-117,11v-161,2,-221,-119,-222,-278v-1,-142,66,-244,204,-243xm129,-302r126,2v49,0,74,1,74,3v0,-38,0,-47,-7,-76v-6,-25,-20,-29,-44,-37v-12,-4,-28,-6,-47,-6v-69,-2,-97,52,-102,114","w":471},"f":{"d":"328,-618v-48,-23,-144,-12,-144,46r0,72r60,0r81,4v12,3,21,25,20,43v0,29,-8,45,-24,45v-37,0,-70,-3,-99,-3v-19,0,-31,0,-38,1r0,395v0,19,-15,28,-46,28v-21,1,-48,-7,-52,-21r1,-397r-22,0v-47,-2,-48,2,-48,-44v0,-43,7,-44,40,-44v16,0,26,0,29,-1r1,-90v0,-77,96,-141,180,-138v36,1,97,9,98,42v1,20,-20,64,-37,62","w":384},"g":{"d":"52,-299v0,-104,91,-199,196,-199v40,0,77,11,110,33v49,7,92,-22,119,-43v9,69,-1,124,-37,151v3,18,5,37,5,58v0,120,-113,218,-247,187r-21,24v14,5,46,7,95,7v144,1,215,58,211,179v-5,173,-277,213,-417,128v-50,-30,-76,-67,-76,-114v-1,-58,45,-121,85,-139v-10,-10,-21,-25,-34,-45r87,-74v-51,-46,-76,-97,-76,-153xm274,14v-51,0,-111,5,-148,-10v-27,33,-40,55,-36,90r1,0v20,49,87,76,156,76v61,0,132,-20,131,-76v-1,-67,-31,-80,-104,-80xm253,-413v-57,0,-108,57,-108,112v0,56,52,105,108,105v57,0,109,-48,109,-105v0,-57,-52,-112,-109,-112","w":511},"h":{"d":"384,-285v-10,-58,-75,-113,-145,-111v-28,0,-54,7,-79,20r0,380v-30,12,-71,12,-101,0r0,-696v6,-11,28,-23,52,-22v31,1,47,9,47,26r2,223v32,-21,69,-32,112,-32v114,-3,213,99,213,211r0,290v-36,11,-74,14,-101,-2r0,-287","w":506},"i":{"d":"129,-551v-45,0,-68,-16,-64,-63v3,-30,28,-44,64,-41v30,3,41,26,41,63v0,22,-19,41,-41,41xm65,-480v8,-23,100,-41,100,-2r1,466v0,20,-29,29,-51,29v-22,0,-48,-6,-49,-25","w":224},"j":{"d":"159,-475r1,421v-1,164,-53,279,-181,309v-26,6,-58,7,-84,2v-18,-32,-17,-51,0,-85v121,-3,161,-106,162,-226r-1,-421v9,-21,103,-43,103,0xm118,-542v-45,0,-65,-16,-61,-62v2,-31,25,-45,61,-42v31,2,42,26,42,63v0,24,-19,41,-42,41","w":223},"k":{"d":"369,-500v14,-2,60,43,57,58v0,7,-17,22,-50,46v-33,24,-66,45,-98,63r204,280v4,12,-49,74,-66,67v-7,0,-12,-3,-17,-9r-213,-294r-15,3r0,292v-41,8,-67,12,-98,-3r-1,-693v8,-22,99,-43,99,0r-1,311v28,-11,120,-71,172,-105r-1,0v15,-11,24,-16,28,-16","w":504},"l":{"d":"54,-732v8,-23,102,-42,102,-2r1,719v0,19,-30,29,-52,29v-22,0,-50,-7,-50,-25","w":218},"m":{"d":"264,-396v-50,0,-103,30,-123,67r0,324v0,11,-15,17,-45,17v-20,0,-52,-4,-56,-17r0,-460v0,-11,16,-25,48,-25v26,0,53,6,53,26r0,34v36,-45,81,-68,134,-68v78,0,133,33,165,99v35,-43,97,-99,165,-99v65,0,99,14,137,49v49,44,68,132,67,235r0,209v-11,24,-90,22,-102,0r0,-242v0,-99,-38,-149,-114,-149v-53,1,-108,26,-129,65v16,77,8,227,8,326v0,15,-28,19,-46,19v-19,0,-52,-6,-55,-18r0,-243v0,-99,-36,-149,-107,-149","w":849},"n":{"d":"277,-395v-50,0,-108,29,-129,66r0,329r-2,-2v-11,19,-94,21,-100,-6r1,-459v15,-25,96,-35,101,4r0,34v37,-46,84,-69,141,-69v162,0,207,120,205,285r-2,205v0,13,-15,20,-44,20v-21,0,-57,-5,-57,-20r0,-239v0,-99,-38,-148,-114,-148","w":530},"o":{"d":"277,-407v-79,0,-143,77,-143,159v0,96,52,177,143,177v103,0,150,-69,150,-177v0,-91,-65,-159,-150,-159xm279,22v-148,0,-244,-114,-244,-273v0,-138,109,-247,245,-247v136,0,245,109,245,247v0,162,-96,272,-246,273","w":551},"p":{"d":"153,236v-6,41,-104,37,-104,-4r0,-687v43,-23,138,-43,212,-43v154,-1,242,85,242,239v0,192,-148,317,-350,273r0,222xm391,-259v0,-97,-47,-146,-135,-148v-43,0,-78,5,-105,16r2,299v28,9,56,13,83,13v101,-4,155,-60,155,-180","w":525},"q":{"d":"24,-204v0,-217,164,-334,378,-282v40,10,51,16,70,34r0,690v-5,15,-29,26,-53,26v-23,0,-40,-8,-49,-25r-3,-231v-41,9,-81,14,-119,14v-143,0,-224,-79,-224,-226xm368,-86r0,-312v-24,-14,-68,-15,-103,-12v-80,8,-136,93,-136,190v0,112,72,160,187,144","w":520},"r":{"d":"283,-498v34,0,116,31,116,63v0,20,-25,66,-43,64v-28,-17,-54,-26,-79,-26v-49,0,-107,35,-122,72r0,311v-11,20,-26,30,-47,30v-19,0,-52,-13,-52,-26r0,-453v7,-32,89,-38,99,-4r0,34v31,-43,73,-65,128,-65","w":409},"s":{"d":"207,-69v39,0,71,-20,70,-60v0,-41,-22,-61,-66,-61v-66,0,-119,-12,-143,-49v-20,-31,-23,-51,-24,-98v-3,-98,84,-164,180,-163v49,0,96,16,132,54v15,16,3,36,-8,60v-8,18,-17,26,-26,26v-27,-34,-59,-51,-97,-51v-48,0,-83,25,-82,74v2,51,20,61,77,62v107,0,154,44,156,145v2,102,-67,154,-164,155v-67,0,-121,-19,-164,-56r1,0v-6,-3,-9,-8,-9,-15v-5,-18,42,-65,54,-65v22,22,70,42,113,42","w":408},"t":{"d":"285,-486v40,1,39,7,39,49v0,34,-6,51,-19,51r-114,-1r1,213v3,84,10,103,95,105v12,0,18,11,18,32v-1,22,-7,53,-34,47v-107,0,-134,-17,-162,-78v-10,-24,-17,-67,-17,-104r-2,-214r-18,1v-43,-3,-50,6,-50,-33v0,-45,6,-67,19,-67r51,1r0,-100v3,-29,99,-34,99,0r0,99","w":343},"u":{"d":"266,-81v49,0,107,-38,128,-74r0,-316v5,-25,94,-25,102,1r1,465v-16,22,-102,32,-102,-7r0,-42v-35,47,-69,76,-145,77v-164,1,-204,-126,-202,-293r2,-199v1,-31,93,-23,101,0r0,233v1,102,21,155,115,155","w":543},"v":{"d":"24,-454v2,-27,25,-37,56,-37v29,0,47,10,54,30r102,318r126,-325v21,-39,102,-24,100,17r-182,446v-28,21,-72,14,-98,0","w":487},"w":{"d":"39,-446v-10,-46,74,-56,97,-25v2,3,4,6,5,9r84,311r82,-306v10,-21,30,-31,59,-31v26,0,42,11,49,34r82,305r74,-286v9,-30,35,-52,63,-51v29,1,52,9,53,36r-138,445v-35,21,-73,14,-105,1r-83,-278r-84,277v-39,20,-63,17,-104,1","w":735},"x":{"d":"465,-47v18,35,-39,60,-77,56r-135,-176r-136,175v-30,11,-85,-17,-88,-40v0,-7,58,-80,173,-219r-131,-181v-21,-33,28,-58,57,-58v13,0,24,5,31,14r112,151r129,-160v35,-20,102,28,71,66r-150,181r144,192r0,-1","w":525},"y":{"d":"420,-492v23,1,77,18,67,46v-49,130,-94,250,-132,360v-33,95,-65,175,-96,241v-35,76,-107,113,-208,102v-17,-34,-18,-48,1,-84v112,-3,150,-90,162,-193r-197,-431v-3,-3,-4,-6,-4,-11v11,-30,91,-40,108,-3r147,325v8,-18,14,-33,18,-45r110,-293v1,-9,9,-14,24,-14","w":512},"z":{"d":"115,12v-62,0,-89,1,-92,-53v0,-17,6,-36,18,-56v51,-84,121,-174,212,-267v19,-19,31,-30,34,-35r-35,0r-163,5v-21,0,-31,-10,-31,-30v1,-38,0,-48,24,-58v94,-9,183,-8,287,1v17,1,33,31,33,55v0,22,-10,42,-27,61r-79,83v-68,68,-108,115,-163,204r247,-4v34,4,18,92,-11,92v-62,0,-188,2,-254,2","w":418},"{":{"d":"120,-227v0,-48,-23,-77,-65,-82v-17,-1,-26,-22,-26,-40v-2,-48,32,-37,59,-55v17,-11,33,-35,32,-64r0,-242v7,-58,32,-96,84,-108v32,-8,48,-9,85,-9v38,0,42,7,43,48v0,21,-6,31,-18,31v-61,2,-94,4,-94,56r1,226v-2,53,-23,85,-65,97v-3,0,-4,6,-4,19v0,14,1,21,2,21v46,7,67,49,67,104r0,257v2,52,33,54,93,56v12,0,18,11,18,32v-1,42,-6,46,-45,47v-76,1,-133,-13,-155,-69v-8,-17,-12,-37,-12,-61r0,-264","w":392},"|":{"d":"113,-690v7,-23,94,-41,94,-2r1,674v0,19,-27,29,-48,29v-21,0,-45,-7,-46,-25","w":344},"}":{"d":"28,-779v0,-19,7,-48,23,-48v57,0,97,5,120,14v43,17,69,52,69,103r0,242v0,43,29,75,66,79v16,1,24,15,24,40v0,25,-8,39,-25,40v-41,4,-65,35,-65,82r0,264v-2,65,-27,106,-80,120v-33,9,-48,10,-88,10v-39,0,-43,-5,-44,-47v0,-21,6,-32,18,-32v60,-2,93,-3,93,-56r0,-257v1,-54,22,-100,67,-104v1,0,2,-7,2,-21v0,-13,-1,-19,-4,-19v-40,-11,-65,-47,-65,-97r0,-226v-2,-52,-33,-54,-93,-56v-12,0,-18,-10,-18,-31","w":379},"~":{"d":"276,-341v19,1,71,50,50,76v-28,34,-59,53,-96,53v-16,6,-112,-44,-128,-44v-18,0,-33,9,-40,20v-8,4,-13,6,-14,6v-19,2,-50,-46,-48,-65v0,-7,4,-15,13,-24r0,3v55,-41,107,-22,169,15v36,21,55,5,81,-29r0,1v4,-8,8,-12,13,-12","w":354},"\u00a0":{"w":232},"\u00a1":{"d":"169,-408v-45,0,-68,-16,-64,-63v3,-30,28,-44,64,-41v30,3,41,26,41,63v0,22,-19,41,-41,41xm105,-337v8,-23,100,-41,100,-2r1,521v0,20,-29,29,-51,29v-22,0,-48,-6,-49,-25","w":317},"\u00a2":{"d":"465,-70v0,41,-80,70,-122,78r0,68v0,19,-27,29,-48,29v-21,0,-45,-7,-46,-25r-1,-77v-105,-24,-188,-131,-188,-257v0,-123,85,-219,188,-241r0,-107v7,-23,94,-41,94,-2r0,102v42,2,117,16,118,56v0,33,-15,54,-46,65v-18,-17,-42,-27,-72,-29r0,319v21,-5,45,-17,72,-38v26,-8,51,37,51,59xm248,-398v-51,19,-88,78,-88,147v0,71,36,128,88,149r0,-296","w":537},"\u00a3":{"d":"277,17v-37,0,-109,-23,-146,-24v-20,-1,-49,9,-84,17v-27,-4,-28,-84,-4,-90v25,-11,49,-17,73,-17v19,-47,31,-109,36,-186v-52,-4,-72,11,-70,-37r0,-20v0,-34,-2,-32,32,-32r37,0r1,-212v-2,-77,102,-132,184,-129v36,0,93,8,94,42v1,20,-20,64,-37,62v-45,-24,-144,-21,-144,37r0,193r60,0r81,4v12,3,21,25,20,43v0,29,-8,45,-24,45v-36,0,-69,-3,-98,-3v-19,0,-31,0,-38,1v-13,91,-20,152,-20,184v0,25,19,38,56,38v40,0,104,-15,191,-46v22,-1,33,28,33,51v0,18,-4,28,-13,31v-93,32,-166,48,-220,48","w":544},"\u00a4":{"d":"137,-62v-30,14,-76,-32,-78,-53v7,-22,21,-33,38,-55r32,-41v-69,-90,-70,-239,3,-323r-68,-88v-15,-28,-1,-38,28,-56v22,-14,36,-17,43,-12r75,97v63,-35,154,-36,218,-4r74,-94v1,-5,6,-8,13,-8v19,-1,73,29,69,52v0,3,-2,9,-6,17r-71,91v80,82,79,245,4,333r68,87r0,-1v2,2,3,6,3,13v-2,23,-57,78,-82,46r-63,-81v-67,41,-172,40,-237,-3xm319,-529v-79,0,-143,77,-143,159v0,86,58,166,143,166v98,0,150,-66,150,-166v0,-91,-65,-159,-150,-159","w":677},"\u00a5":{"d":"489,-175v23,8,41,100,2,100r-153,1r0,79v-42,8,-69,12,-100,-3r0,-76r-137,0v-21,0,-29,-27,-29,-51v0,-20,8,-48,25,-49r141,0r0,-62r-132,0v-21,0,-29,-27,-29,-51v0,-20,8,-48,25,-49r136,0r0,-25r-182,-299v-5,-11,54,-61,70,-55v7,0,15,3,19,10r143,244r215,-258v22,-7,33,4,53,28v16,20,22,33,21,39r-239,287r0,29r156,-1v23,8,41,100,2,100r-158,1r0,62","w":640},"\u00a6":{"d":"59,-693v8,-23,97,-41,97,-2r1,339v0,19,-28,29,-49,29v-22,0,-48,-7,-48,-25xm59,-246v8,-23,97,-41,97,-2r1,339v0,19,-28,29,-49,29v-22,0,-48,-7,-48,-25","w":224},"\u00a7":{"d":"389,-73v0,101,-67,148,-163,149v-66,0,-121,-17,-165,-50r1,0v-6,-3,-9,-7,-9,-14v-5,-18,42,-66,54,-66v33,25,73,37,118,37v50,0,75,-18,75,-55v0,-52,-23,-107,-74,-107v-128,0,-169,-48,-171,-172v0,-30,15,-58,44,-84v-29,-33,-44,-87,-44,-160v0,-80,97,-126,181,-126v42,0,122,14,124,53v1,18,-28,65,-42,65v-19,-17,-48,-26,-85,-26v-39,0,-84,11,-84,45v0,74,18,101,96,101v91,0,144,62,144,151v0,48,-13,85,-38,110v25,31,38,80,38,149xm155,-288v56,20,145,21,145,-43v0,-24,-4,-40,-20,-47v-43,-15,-131,-8,-131,38v0,26,2,43,6,52","w":458},"\u00a8":{"d":"167,-555v-37,0,-60,-22,-59,-58v1,-32,24,-54,59,-53v31,1,51,25,51,59v0,29,-22,52,-51,52xm339,-555v-37,0,-60,-22,-59,-58v1,-32,24,-54,59,-53v31,1,51,25,51,59v0,30,-22,52,-51,52","w":519},"\u00a9":{"d":"365,5v-180,0,-322,-173,-322,-359v0,-187,142,-359,322,-359v180,0,322,173,322,359v0,187,-142,359,-322,359xm364,-86v128,0,230,-134,230,-269v0,-137,-102,-273,-230,-273v-127,0,-228,141,-228,276v0,136,100,266,228,266xm505,-496v-2,18,-26,78,-52,55v-68,-41,-156,0,-156,82v0,54,41,103,91,103v23,0,45,-10,66,-31v25,-16,46,35,47,56v3,38,-79,63,-114,63v-97,0,-181,-92,-181,-193v0,-104,85,-182,185,-182v25,0,117,20,114,47","w":729},"\u00aa":{"d":"264,-747v79,31,48,172,48,268v0,38,20,70,60,96v-37,22,-65,33,-82,33v-20,0,-37,-9,-52,-26v-91,53,-217,22,-213,-97v3,-92,108,-150,211,-134v5,-37,-5,-70,-44,-70v-30,0,-57,8,-80,25r1,0v-25,18,-50,-38,-52,-54v-1,-20,101,-53,125,-52v38,2,50,0,78,11xm227,-451r2,-77v0,-1,-7,-2,-22,-2v-61,0,-91,17,-91,51v0,31,13,42,41,41v19,0,42,-4,70,-13","w":396},"\u00ab":{"d":"212,-232r1,0v-5,-5,-5,-27,-2,-35r144,-189v22,-32,80,13,79,34r-137,171r134,164v-1,18,-52,71,-78,37xm32,-232r1,0v-5,-5,-5,-27,-2,-35r144,-189v22,-32,80,13,79,34r-137,171r134,164v-1,18,-52,71,-78,37","w":474},"\u00ac":{"d":"519,-103v-5,24,-86,40,-86,2r-1,-129r-369,0v-38,1,-39,-89,-4,-89r407,-1v57,2,52,0,52,60","w":576},"\u00ad":{"d":"430,-389v23,8,41,100,2,100r-369,1v-21,0,-29,-27,-29,-51v0,-20,8,-48,25,-49","w":495},"\u00ae":{"d":"365,5v-180,0,-322,-173,-322,-359v0,-187,142,-359,322,-359v180,0,322,173,322,359v0,187,-142,359,-322,359xm364,-86v128,0,230,-134,230,-269v0,-137,-102,-273,-230,-273v-127,0,-228,141,-228,276v0,136,100,266,228,266xm333,-291r1,111v-29,13,-87,14,-87,-26r0,-318v100,-40,254,-22,254,103v0,58,-32,93,-78,105r81,99v-4,22,-57,65,-83,34xm334,-458r1,72v39,2,81,-6,77,-30v3,-41,-38,-51,-78,-42","w":741},"\u00af":{"d":"341,-675v16,2,26,19,25,40v0,23,-8,37,-23,37r-304,1v-23,-1,-29,-10,-29,-36v0,-27,8,-41,25,-41","w":376},"\u00b0":{"d":"218,-672v-43,-20,-84,4,-80,54v3,39,14,65,54,65v51,0,52,-61,41,-101v-3,-9,-8,-15,-15,-18xm323,-619v0,97,-46,147,-130,147v-91,0,-137,-49,-137,-147v0,-90,44,-135,132,-135v89,0,135,42,135,135","w":382},"\u00b1":{"d":"82,-487v0,-20,8,-48,25,-49r129,0r0,-127v0,-21,27,-29,51,-29v19,0,49,8,49,25r0,131r142,-1v23,8,41,100,2,100r-144,1r1,140v-8,24,-100,41,-100,2r-1,-142r-125,0v-21,0,-29,-27,-29,-51xm478,-174v23,8,41,100,2,100r-369,1v-21,0,-29,-27,-29,-51v0,-20,8,-48,25,-49","w":592},"\u00b2":{"d":"120,-582v-16,4,-56,-53,-54,-66v2,-18,12,-16,30,-28v27,-18,93,-41,141,-40v96,2,156,46,156,146v0,66,-39,102,-75,127v-53,37,-147,54,-148,144r207,0v14,35,10,63,-4,90r-275,0v-23,0,-35,-27,-35,-82v0,-67,25,-106,66,-139v51,-41,111,-50,151,-96v9,-11,14,-23,14,-36v0,-44,-18,-66,-53,-66v-45,1,-81,14,-107,41v-3,3,-8,5,-14,5","w":463},"\u00b3":{"d":"231,-491v31,-2,48,-41,48,-80v0,-37,-24,-55,-72,-55v-30,0,-58,11,-85,32r1,0v-21,16,-26,4,-48,-20v-16,-18,-23,-32,-22,-40v55,-40,107,-60,154,-60v93,0,166,47,165,148v0,61,-14,101,-43,121v33,25,50,64,50,117v1,84,-79,150,-170,150v-55,0,-110,-20,-163,-59v-4,-30,33,-77,57,-79v13,24,54,48,92,48v45,0,93,-27,93,-70v0,-42,-33,-63,-100,-63v-11,0,-25,1,-41,3v-23,-5,-34,-89,-2,-90","w":437},"\u00b4":{"d":"81,-544v-16,0,-42,-27,-42,-47v0,-15,9,-27,26,-36r147,-76v10,-4,58,48,52,64v0,8,-4,16,-13,24","w":320},"\u00b5":{"d":"166,262v-20,0,-46,-6,-46,-22r0,-738r98,0r0,364v33,52,125,75,201,50v18,-7,30,-15,37,-24v15,-59,7,-303,7,-390r103,0v5,124,6,415,-22,450v-38,48,-100,73,-189,73v-55,0,-101,-14,-137,-43r1,244v0,24,-18,36,-53,36","w":622},"\u00b6":{"d":"284,-303v-150,9,-236,-68,-236,-218v0,-141,80,-193,219,-194r220,-1v12,3,12,10,17,28v3,13,4,30,4,51r0,585v0,46,34,70,76,73v27,2,24,68,-2,71v-84,-9,-155,-51,-157,-144v-2,-92,-3,-202,-3,-330v0,-88,1,-171,3,-248v-21,-3,-38,-3,-56,1r0,575v1,74,15,132,67,151v20,0,27,9,27,36v0,33,-11,40,-39,35v-25,-5,-68,-26,-86,-46v-30,-34,-54,-103,-54,-176r0,-249","w":643},"\u00b7":{"d":"107,-209v-50,0,-81,-28,-79,-79v1,-41,33,-71,79,-69v40,2,68,33,68,78v0,38,-31,70,-68,70","w":216},"\u00b8":{"d":"73,159v-13,1,-33,-35,-32,-47v0,-9,10,-12,29,-17v43,-11,62,-14,67,-34v0,-12,-17,-25,-51,-39r5,-60r77,0r9,54v53,15,48,73,9,102v-31,23,-71,38,-113,41","w":254},"\u00b9":{"d":"91,-455v-15,-5,-75,-49,-46,-74r202,-173v22,-8,70,-6,70,20r0,482v-1,15,-16,13,-41,13v-26,0,-44,-2,-54,-7r0,-364","w":415},"\u00ba":{"d":"227,-670v-58,0,-104,57,-104,115v0,58,46,115,104,115v57,0,105,-57,105,-115v0,-58,-48,-115,-105,-115xm228,-350v-109,0,-196,-98,-196,-209v0,-110,88,-197,196,-197v107,0,194,88,194,197v0,110,-87,209,-194,209","w":474},"\u00bb":{"d":"303,-227r-138,177v-18,20,-42,11,-61,-9v-13,-13,-18,-23,-17,-28r135,-164r-68,-83v-31,-37,-54,-67,-70,-88v0,-20,54,-66,79,-34r144,189v2,9,1,33,-4,40xm483,-227r-138,177v-18,20,-42,11,-61,-9v-13,-13,-18,-23,-17,-28r135,-164r-68,-83v-31,-37,-54,-67,-70,-88v0,-20,54,-66,79,-34r144,189v2,9,1,33,-4,40","w":544},"\u00bc":{"d":"604,-130r-9,-9r6,-70r229,-293v28,-8,76,-6,76,24r0,255r65,0v7,43,11,61,-5,93r-60,0r0,137v-37,8,-63,12,-92,-3r0,-134r-210,0xm381,10v-23,28,-85,-14,-87,-36v0,-5,2,-9,5,-10r334,-669v1,-9,8,-13,19,-13v28,-1,70,19,69,47xm91,-455v-15,-5,-75,-49,-46,-74r202,-173v22,-8,70,-6,70,20r0,482v-1,15,-16,13,-41,13v-26,0,-44,-2,-54,-7r0,-364xm722,-218r92,-5r0,-113","w":1034},"\u00bd":{"d":"372,8v-23,32,-84,-12,-87,-34v0,-5,1,-9,4,-10r335,-662v0,-9,6,-13,19,-13v28,-1,70,19,69,47xm695,-364v-16,4,-56,-53,-54,-66v2,-18,11,-16,29,-28v27,-18,94,-41,142,-40v96,2,156,46,156,146v0,66,-39,102,-75,127v-53,37,-147,54,-148,144r207,0v14,35,9,63,-4,90r-275,0v-23,0,-35,-27,-35,-82v0,-67,25,-106,66,-139v51,-41,112,-50,152,-96v9,-11,13,-23,13,-36v0,-44,-18,-66,-53,-66v-45,1,-81,14,-107,41v-3,3,-8,5,-14,5xm91,-455v-15,-5,-75,-49,-46,-74r202,-173v22,-8,70,-6,70,20r0,482v-1,15,-16,13,-41,13v-26,0,-44,-2,-54,-7r0,-364","w":1016},"\u00be":{"d":"664,-130r-9,-9r6,-70r229,-293v28,-8,76,-6,76,24r0,255r65,0v7,43,11,61,-5,93r-60,0r0,137v-37,8,-63,12,-92,-3r0,-134r-210,0xm256,-491v31,-2,48,-41,48,-80v0,-37,-24,-55,-72,-55v-30,0,-58,11,-85,32r1,0v-21,16,-26,4,-48,-20v-16,-18,-23,-32,-22,-40v55,-40,107,-60,154,-60v93,0,166,47,165,148v0,61,-14,101,-43,121v33,25,50,64,50,117v1,84,-79,150,-170,150v-55,0,-110,-20,-163,-59v-4,-30,33,-77,57,-79v13,24,54,48,92,48v45,0,93,-27,93,-70v0,-42,-33,-63,-100,-63v-11,0,-25,1,-41,3v-23,-5,-34,-89,-2,-90xm441,10v-23,28,-85,-14,-87,-36v0,-5,2,-9,5,-10r334,-669v1,-9,8,-13,19,-13v28,-1,70,19,69,47xm785,-223r89,0r-2,-111","w":1094},"\u00bf":{"d":"329,-307v0,25,0,49,2,73v3,42,-27,83,-49,100v-53,42,-150,68,-150,164v0,64,31,96,92,96v55,0,98,-19,130,-58v14,-1,59,43,55,61v0,16,-20,33,-61,53v-41,20,-81,30,-119,30v-116,-1,-194,-63,-191,-189v2,-60,17,-101,50,-130v44,-39,105,-46,134,-99v14,-25,10,-60,10,-93v0,-29,17,-36,47,-36v33,0,50,9,50,28xm276,-512v37,0,59,22,59,59v0,32,-25,54,-59,53v-30,-1,-52,-25,-52,-59v0,-30,23,-53,52,-53","w":444},"\u00c0":{"d":"48,-28r278,-672v4,-19,89,-23,96,-1r230,675r-1,0v10,23,-8,36,-40,36v-33,0,-54,-7,-59,-23r-62,-198r-258,0r-75,182v-23,42,-54,51,-91,27v-12,-9,-18,-17,-18,-26xm456,-306r-91,-234r-96,234r187,0xm395,-756r-168,-69v-26,-20,-16,-44,7,-69v15,-16,25,-23,30,-21r147,76v31,15,35,47,11,69v-10,10,-20,14,-27,14","w":678},"\u00c1":{"d":"48,-28r278,-672v4,-19,89,-23,96,-1r230,675r-1,0v10,23,-8,36,-40,36v-33,0,-54,-7,-59,-23r-62,-198r-258,0r-75,182v-23,42,-54,51,-91,27v-12,-9,-18,-17,-18,-26xm456,-306r-91,-234r-96,234r187,0xm337,-756v-16,0,-42,-27,-42,-47v0,-15,9,-27,26,-36r147,-76v10,-4,58,48,52,64v0,8,-4,16,-13,24","w":678},"\u00c2":{"d":"48,-28r278,-672v4,-19,89,-23,96,-1r230,675r-1,0v10,23,-8,36,-40,36v-33,0,-54,-7,-59,-23r-62,-198r-258,0r-75,182v-23,42,-54,51,-91,27v-12,-9,-18,-17,-18,-26xm456,-306r-91,-234r-96,234r187,0xm359,-914v6,-3,19,-3,30,-3r133,73v26,24,-21,73,-39,74r-107,-61r-116,61v-17,-1,-56,-53,-32,-76","w":675},"\u00c3":{"d":"48,-28r278,-672v4,-19,89,-23,96,-1r230,675r-1,0v10,23,-8,36,-40,36v-33,0,-54,-7,-59,-23r-62,-198r-258,0r-75,182v-23,42,-54,51,-91,27v-12,-9,-18,-17,-18,-26xm456,-306r-91,-234r-96,234r187,0xm483,-892v19,1,71,50,50,76v-28,34,-59,53,-96,53v-16,6,-112,-44,-128,-44v-18,0,-33,9,-40,20v-8,4,-13,6,-14,6v-19,2,-50,-46,-48,-65v0,-7,4,-15,13,-24r0,3v55,-41,107,-22,169,15v36,21,55,5,81,-29r0,1v4,-8,8,-12,13,-12","w":678},"\u00c4":{"d":"48,-28r278,-672v4,-19,89,-23,96,-1r230,675r-1,0v10,23,-8,36,-40,36v-33,0,-54,-7,-59,-23r-62,-198r-258,0r-75,182v-23,42,-54,51,-91,27v-12,-9,-18,-17,-18,-26xm456,-306r-91,-234r-96,234r187,0xm289,-767v-37,0,-60,-22,-59,-58v1,-32,24,-54,59,-53v31,1,51,25,51,59v0,29,-22,52,-51,52xm461,-767v-37,0,-60,-22,-59,-58v1,-32,24,-54,59,-53v31,1,51,25,51,59v0,30,-22,52,-51,52","w":678},"\u00c5":{"d":"36,-28r278,-672v4,-19,89,-23,96,-1r230,675r-1,0v10,23,-8,36,-40,36v-33,0,-54,-7,-59,-23r-62,-198r-258,0r-75,182v-23,42,-54,51,-91,27v-12,-9,-18,-17,-18,-26xm365,-749v-68,0,-127,-58,-127,-126v0,-69,58,-127,127,-127v69,0,127,58,127,127v0,69,-58,126,-127,126xm444,-306r-91,-234r-96,234r187,0xm366,-926v-27,0,-51,24,-51,51v0,26,24,49,51,49v25,0,51,-24,51,-49v0,-27,-25,-51,-51,-51","w":657},"\u00c6":{"d":"744,-713r194,3v11,5,17,24,17,55v0,21,-5,32,-16,32v-66,-1,-129,-1,-190,-1v-84,0,-126,2,-126,6r0,195r263,0v21,0,32,15,32,44v1,22,-11,53,-29,54r-266,1r0,235v31,11,246,3,315,1v18,0,27,15,27,44v-1,29,-7,53,-41,53r-221,3v-109,0,-166,-7,-171,-22r-65,-201r-258,0r-74,183v-18,40,-52,47,-87,29v-15,-8,-21,-15,-23,-29r278,-674v24,-20,67,-15,94,-3r126,368r0,-335v0,-27,74,-43,221,-41xm433,-306r-91,-234r-96,234r187,0","w":1010},"\u00c7":{"d":"351,10v1,6,3,10,3,17v54,16,49,73,10,103v-31,24,-71,37,-113,40v-13,1,-33,-35,-32,-47v0,-9,10,-12,29,-17v43,-11,62,-14,67,-34v0,-12,-17,-25,-51,-39r2,-38v-124,-40,-221,-183,-221,-346v0,-228,214,-444,438,-329v39,20,58,40,58,57v-1,15,-25,88,-49,61v-32,-37,-65,-52,-132,-52v-123,-2,-217,132,-217,263v0,131,94,265,217,263v52,0,97,-18,134,-53r-1,0v29,-16,55,37,55,62v0,23,-21,44,-62,62v-44,19,-85,28,-135,27","w":601},"\u00c8":{"d":"259,-713r194,3v11,5,17,24,17,55v0,21,-5,32,-16,32v-66,-1,-129,-1,-190,-1v-84,0,-126,2,-126,6r0,195r263,0v21,0,32,15,32,44v1,22,-11,53,-29,54r-266,1r0,235v31,11,246,3,315,1v18,0,27,15,27,44v0,24,-8,52,-27,53v-105,2,-413,16,-414,-32r-1,-649v0,-27,74,-43,221,-41xm308,-756r-168,-69v-26,-20,-15,-44,8,-69v15,-16,24,-23,29,-21r147,76v31,15,34,47,10,69v-10,10,-19,14,-26,14","w":524},"\u00c9":{"d":"266,-713r194,3v11,5,17,24,17,55v0,21,-5,32,-16,32v-66,-1,-129,-1,-190,-1v-84,0,-126,2,-126,6r0,195r263,0v21,0,32,15,32,44v1,22,-11,53,-29,54r-266,1r0,235v31,11,246,3,315,1v18,0,27,15,27,44v0,24,-8,52,-27,53v-105,2,-413,16,-414,-32r-1,-649v0,-27,74,-43,221,-41xm262,-756v-16,0,-42,-27,-42,-47v0,-15,9,-27,26,-36r147,-76v10,-4,58,48,52,64v0,8,-4,16,-13,24","w":531},"\u00ca":{"d":"264,-713r194,3v11,5,17,24,17,55v0,21,-5,32,-16,32v-66,-1,-129,-1,-190,-1v-84,0,-126,2,-126,6r0,195r263,0v21,0,32,15,32,44v1,22,-11,53,-29,54r-266,1r0,235v31,11,246,3,315,1v18,0,27,15,27,44v0,24,-8,52,-27,53v-105,2,-413,16,-414,-32r-1,-649v0,-27,74,-43,221,-41xm255,-914v6,-3,19,-3,30,-3r133,73v26,24,-21,73,-39,74r-107,-61r-116,61v-17,-1,-56,-53,-32,-76","w":521},"\u00cb":{"d":"257,-713r194,3v11,5,17,24,17,55v0,21,-5,32,-16,32v-66,-1,-129,-1,-190,-1v-84,0,-126,2,-126,6r0,195r263,0v21,0,32,15,32,44v1,22,-11,53,-29,54r-266,1r0,235v31,11,246,3,315,1v18,0,27,15,27,44v0,24,-8,52,-27,53v-105,2,-413,16,-414,-32r-1,-649v0,-27,74,-43,221,-41xm165,-767v-37,0,-60,-22,-59,-58v1,-32,24,-54,59,-53v31,1,51,25,51,59v0,29,-22,52,-51,52xm337,-767v-37,0,-60,-22,-59,-58v1,-32,24,-54,59,-53v31,1,51,25,51,59v0,30,-22,52,-51,52","w":518},"\u00cc":{"d":"63,-693v8,-23,97,-41,97,-2r1,680v0,19,-28,29,-49,29v-22,0,-48,-7,-48,-25xm152,-756r-168,-69v-26,-20,-15,-44,8,-69v15,-16,24,-23,29,-21r147,76v31,15,34,47,10,69v-10,10,-19,14,-26,14","w":222},"\u00cd":{"d":"123,-756v-16,0,-42,-27,-42,-47v0,-15,9,-27,26,-36r147,-76v10,-4,58,48,52,64v0,8,-4,16,-13,24xm84,-693v8,-23,97,-41,97,-2r1,680v0,19,-28,29,-49,29v-22,0,-48,-7,-48,-25","w":273},"\u00ce":{"d":"125,-693v8,-23,97,-41,97,-2r1,680v0,19,-28,29,-49,29v-22,0,-48,-7,-48,-25xm164,-914v6,-3,19,-3,30,-3r133,73v26,24,-21,73,-39,74r-107,-61r-116,61v-17,-1,-56,-53,-32,-76","w":340},"\u00cf":{"d":"104,-693v8,-23,97,-41,97,-2r1,680v0,19,-28,29,-49,29v-22,0,-48,-7,-48,-25xm73,-767v-37,0,-60,-22,-59,-58v1,-32,24,-54,59,-53v31,1,51,25,51,59v0,29,-22,52,-51,52xm245,-767v-37,0,-60,-22,-59,-58v1,-32,24,-54,59,-53v31,1,51,25,51,59v0,30,-22,52,-51,52","w":297},"\u00d0":{"d":"270,10v-40,0,-144,6,-144,-16r-1,-307r-69,0v-21,0,-29,-27,-29,-51v0,-20,8,-48,25,-49r73,0r0,-274v1,-14,130,-24,148,-23v253,-1,377,116,377,360v0,260,-111,359,-380,360xm224,-80v212,9,328,-65,328,-270v0,-200,-119,-286,-329,-267r0,204r190,-1v23,8,41,100,2,100r-192,1","w":689},"\u00d1":{"d":"503,-685v7,-26,99,-45,99,1r1,660v3,40,-73,46,-95,26r-368,-523r0,511v-1,15,-34,24,-54,23v-31,0,-46,-9,-46,-28r0,-661v1,-42,81,-44,101,-15r362,513r0,-507xm436,-892v19,1,71,50,50,76v-28,34,-59,53,-96,53v-16,6,-112,-44,-128,-44v-18,0,-33,9,-40,20v-8,4,-13,6,-14,6v-19,2,-50,-46,-48,-65v0,-7,4,-15,13,-24r0,3v55,-41,107,-22,169,15v36,21,55,5,81,-29r0,1v4,-8,8,-12,13,-12","w":672},"\u00d2":{"d":"326,22v-167,0,-289,-193,-289,-374v0,-181,122,-372,289,-370v129,1,215,87,255,186v23,56,34,117,34,184v0,182,-120,374,-289,374xm517,-365v0,-121,-74,-259,-184,-259v-47,0,-91,24,-128,76v-42,58,-67,120,-70,206v-5,121,87,267,196,267v51,0,95,-29,131,-87v36,-58,55,-126,55,-203xm378,-756r-168,-69v-26,-20,-15,-44,8,-69v15,-16,24,-23,29,-21r147,76v31,15,34,47,10,69v-10,10,-19,14,-26,14","w":652},"\u00d3":{"d":"339,22v-167,0,-289,-193,-289,-374v0,-181,122,-372,289,-370v129,1,215,87,255,186v23,56,34,117,34,184v0,182,-120,374,-289,374xm530,-365v0,-121,-74,-259,-184,-259v-47,0,-91,24,-128,76v-42,58,-67,120,-70,206v-5,121,87,267,196,267v51,0,96,-29,132,-87v36,-58,54,-126,54,-203xm318,-756v-16,0,-42,-27,-42,-47v0,-15,9,-27,26,-36r147,-76v10,-4,58,48,52,64v0,8,-4,16,-13,24","w":662},"\u00d4":{"d":"332,22v-167,0,-289,-193,-289,-374v0,-181,122,-372,289,-370v129,1,215,87,255,186v23,56,34,117,34,184v0,182,-120,374,-289,374xm523,-365v0,-121,-74,-259,-184,-259v-47,0,-91,24,-128,76v-42,58,-67,120,-70,206v-5,121,87,267,196,267v51,0,95,-29,131,-87v36,-58,55,-126,55,-203xm324,-914v6,-3,19,-3,30,-3r133,73v26,24,-21,73,-39,74r-107,-61r-116,61v-17,-1,-56,-53,-32,-76","w":669},"\u00d5":{"d":"328,22v-167,0,-289,-193,-289,-374v0,-181,122,-372,289,-370v129,1,215,87,255,186v23,56,34,117,34,184v0,182,-120,374,-289,374xm519,-365v0,-121,-74,-259,-184,-259v-47,0,-91,24,-128,76v-42,58,-67,120,-70,206v-5,121,87,267,196,267v51,0,95,-29,131,-87v36,-58,55,-126,55,-203xm443,-892v19,1,71,50,50,76v-28,34,-59,53,-96,53v-16,6,-112,-44,-128,-44v-18,0,-33,9,-40,20v-8,4,-13,6,-14,6v-19,2,-50,-46,-48,-65v0,-7,4,-15,13,-24r0,3v55,-41,107,-22,169,15v36,21,55,5,81,-29r0,1v4,-8,8,-12,13,-12","w":659},"\u00d6":{"d":"335,22v-167,0,-289,-193,-289,-374v0,-181,122,-372,289,-370v129,1,215,87,255,186v23,56,34,117,34,184v0,182,-120,374,-289,374xm526,-365v0,-121,-74,-259,-184,-259v-47,0,-91,24,-128,76v-42,58,-67,120,-70,206v-5,121,87,267,196,267v51,0,96,-29,132,-87v36,-58,54,-126,54,-203xm265,-767v-37,0,-60,-22,-59,-58v1,-32,24,-54,59,-53v31,1,51,25,51,59v0,29,-22,52,-51,52xm437,-767v-37,0,-60,-22,-59,-58v1,-32,24,-54,59,-53v31,1,51,25,51,59v0,30,-22,52,-51,52","w":659},"\u00d7":{"d":"319,-507v30,-28,78,32,80,55v0,5,-2,10,-5,13r-90,90r85,85v4,7,7,14,10,22v3,21,-43,64,-62,62v-7,0,-11,-2,-13,-6r0,2r-92,-92r-99,100v-2,2,-6,3,-11,3v-16,1,-71,-39,-66,-59v0,-2,2,-7,6,-15r99,-101r-104,-104v-2,-15,41,-75,60,-70v5,0,11,3,20,8r95,93","w":454},"\u00d8":{"d":"324,-87v119,0,203,-142,203,-275v0,-73,-19,-135,-56,-184r-183,453v15,4,27,6,36,6xm347,-613v-117,0,-202,148,-202,280v0,73,20,135,59,184r185,-458v-15,-4,-29,-6,-42,-6xm625,-348v0,210,-155,420,-376,347r-27,63v-18,37,-93,-3,-94,-27v9,-33,25,-59,37,-90v-67,-61,-118,-170,-118,-293v0,-209,159,-421,378,-345r26,-50v25,-24,92,2,89,37r-33,67v67,61,118,168,118,291","w":699},"\u00d9":{"d":"608,-256v2,156,-113,278,-269,278v-163,0,-290,-113,-290,-277r0,-434v8,-22,99,-41,99,0r0,439v-3,104,93,175,194,177v95,2,166,-88,166,-179r1,-434v0,-42,90,-21,99,0r0,430xm408,-756r-168,-69v-26,-20,-15,-44,8,-69v15,-16,24,-23,29,-21r147,76v31,15,34,47,10,69v-10,10,-19,14,-26,14","w":675},"\u00da":{"d":"608,-256v2,156,-113,278,-269,278v-163,0,-290,-113,-290,-277r0,-434v8,-22,99,-41,99,0r0,439v-3,104,93,175,194,177v95,2,166,-88,166,-179r1,-434v0,-42,90,-21,99,0r0,430xm315,-756v-16,0,-42,-27,-42,-47v0,-15,9,-27,26,-36r147,-76v10,-4,58,48,52,64v0,8,-4,16,-13,24","w":682},"\u00db":{"d":"608,-256v2,156,-113,278,-269,278v-163,0,-290,-113,-290,-277r0,-434v8,-22,99,-41,99,0r0,439v-3,104,93,175,194,177v95,2,166,-88,166,-179r1,-434v0,-42,90,-21,99,0r0,430xm319,-914v6,-3,19,-3,30,-3r133,73v26,24,-21,73,-39,74r-107,-61r-116,61v-17,-1,-56,-53,-32,-76","w":652},"\u00dc":{"d":"246,-767v-37,0,-59,-22,-59,-58v0,-32,25,-54,59,-53v31,1,51,25,51,59v0,29,-22,52,-51,52xm458,-767v-37,0,-59,-22,-59,-58v0,-32,25,-54,59,-53v31,1,51,25,51,59v0,30,-22,52,-51,52xm622,-256v2,157,-113,265,-269,265v-165,0,-290,-99,-290,-264r0,-434v8,-22,99,-41,99,0r0,439v-2,105,92,162,194,164v94,2,167,-76,166,-166r1,-434v0,-42,90,-21,99,0r0,430","w":675},"\u00dd":{"d":"215,2r0,-321r-206,-338v-5,-11,54,-61,70,-55v7,0,15,3,19,10r168,282r236,-280v23,-18,36,-4,58,22v16,19,22,33,21,39r-266,315r0,329v-42,8,-69,12,-100,-3xm269,-756v-16,0,-42,-27,-42,-47v0,-15,9,-27,26,-36r147,-76v10,-4,58,48,52,64v0,8,-4,16,-13,24","w":615},"\u00de":{"d":"52,-668v7,-23,94,-41,94,-2r1,233v45,-39,91,-58,140,-58v109,-1,184,105,184,221v0,169,-99,282,-257,283v-25,0,-47,-6,-66,-17r-1,186v0,19,-27,29,-48,29v-21,0,-45,-7,-46,-25xm371,-243v0,-82,-27,-153,-99,-153v-47,0,-98,28,-122,51r-2,219v23,27,56,41,98,41v72,0,125,-77,125,-158","w":551},"\u00df":{"d":"218,-444v62,-10,101,-51,101,-106v0,-55,-36,-83,-107,-83r-70,9r-8,619v0,11,-12,16,-35,16v-29,0,-64,-7,-64,-34r2,-654v33,-27,114,-39,185,-39v117,0,194,55,194,162v0,57,-24,124,-60,150v62,31,122,93,122,192v0,142,-91,225,-232,225v-32,0,-31,-89,-1,-91v78,-5,130,-45,130,-131v0,-92,-78,-138,-160,-138v-41,0,-32,-59,-21,-82v6,-12,13,-18,24,-15","w":506},"\u00e0":{"d":"312,-484v100,39,59,230,59,343v0,57,22,100,67,128v-56,41,-106,52,-147,0v-50,24,-92,36,-126,36v-84,0,-148,-64,-145,-164v3,-116,145,-181,271,-151r1,-19v0,-63,-17,-97,-52,-97v-44,0,-87,11,-130,28v-19,2,-37,-47,-36,-65v2,-36,100,-54,144,-53v44,0,62,1,94,14xm115,-141v0,50,19,73,60,74v24,0,70,-11,110,-31v-6,-24,2,-85,2,-118v-13,-2,-33,-3,-58,-3v-73,0,-114,26,-114,78xm283,-544r-168,-69v-26,-20,-16,-44,7,-69v15,-16,25,-23,30,-21r147,76v31,15,35,47,11,69v-10,10,-20,14,-27,14","w":457},"\u00e1":{"d":"319,-484v100,39,59,230,59,343v0,57,22,100,67,128v-56,41,-106,52,-147,0v-50,24,-92,36,-126,36v-84,0,-148,-64,-145,-164v3,-116,145,-181,271,-151r1,-19v0,-63,-17,-97,-52,-97v-44,0,-87,11,-130,28v-19,2,-37,-47,-36,-65v2,-36,100,-54,144,-53v44,0,62,1,94,14xm122,-141v0,50,19,73,60,74v24,0,70,-11,110,-31v-6,-24,2,-85,2,-118v-13,-2,-33,-3,-58,-3v-73,0,-114,26,-114,78xm213,-544v-16,0,-42,-27,-42,-47v0,-15,9,-27,26,-36r147,-76v10,-4,58,48,52,64v0,8,-4,16,-13,24","w":456},"\u00e2":{"d":"323,-484v100,39,59,230,59,343v0,57,22,100,67,128v-56,41,-106,52,-147,0v-50,24,-92,36,-126,36v-84,0,-148,-64,-145,-164v3,-116,145,-181,271,-151r1,-19v0,-63,-17,-97,-52,-97v-44,0,-87,11,-130,28v-19,2,-37,-47,-36,-65v2,-36,100,-54,144,-53v44,0,62,1,94,14xm126,-141v0,50,19,73,60,74v24,0,70,-11,110,-31v-6,-24,2,-85,2,-118v-13,-2,-33,-3,-58,-3v-73,0,-114,26,-114,78xm223,-702v6,-3,19,-3,30,-3r133,73v26,24,-21,73,-39,74r-107,-61r-116,61v-17,-1,-56,-53,-32,-76","w":470},"\u00e3":{"d":"321,-484v100,39,59,230,59,343v0,57,22,100,67,128v-56,41,-106,52,-147,0v-50,24,-92,36,-126,36v-84,0,-148,-64,-145,-164v3,-116,145,-181,271,-151r1,-19v0,-63,-17,-97,-52,-97v-44,0,-87,11,-130,28v-19,2,-37,-47,-36,-65v2,-36,100,-54,144,-53v44,0,62,1,94,14xm124,-141v0,50,19,73,60,74v24,0,70,-11,110,-31v-6,-24,2,-85,2,-118v-13,-2,-33,-3,-58,-3v-73,0,-114,26,-114,78xm356,-680v19,1,71,50,50,76v-28,34,-59,53,-96,53v-16,6,-112,-44,-128,-44v-18,0,-33,9,-40,20v-8,4,-13,6,-14,6v-19,2,-50,-46,-48,-65v0,-7,4,-15,13,-24r0,3v55,-41,107,-22,169,15v36,21,55,5,81,-29r0,1v4,-8,8,-12,13,-12","w":464},"\u00e4":{"d":"322,-484v100,39,59,230,59,343v0,57,22,100,67,128v-56,41,-106,52,-147,0v-50,24,-92,36,-126,36v-84,0,-148,-64,-145,-164v3,-116,145,-181,271,-151r1,-19v0,-63,-17,-97,-52,-97v-44,0,-87,11,-130,28v-19,2,-37,-47,-36,-65v2,-36,100,-54,144,-53v44,0,62,1,94,14xm125,-141v0,50,19,73,60,74v24,0,70,-11,110,-31v-6,-24,2,-85,2,-118v-13,-2,-33,-3,-58,-3v-73,0,-114,26,-114,78xm159,-555v-37,0,-60,-22,-59,-58v1,-32,24,-54,59,-53v31,1,51,25,51,59v0,29,-22,52,-51,52xm331,-555v-37,0,-60,-22,-59,-58v1,-32,24,-54,59,-53v31,1,51,25,51,59v0,30,-22,52,-51,52","w":459},"\u00e5":{"d":"254,-713v-27,0,-51,24,-51,51v0,26,24,49,51,49v25,0,51,-24,51,-49v0,-27,-25,-51,-51,-51xm253,-536v-68,0,-127,-58,-127,-126v0,-69,58,-127,127,-127v69,0,127,58,127,127v0,69,-58,126,-127,126xm314,-484v100,39,59,230,59,343v0,57,22,100,67,128v-56,41,-106,52,-147,0v-50,24,-92,36,-126,36v-84,0,-148,-64,-145,-164v3,-116,145,-181,271,-151r1,-19v0,-63,-17,-97,-52,-97v-44,0,-87,11,-130,28v-19,2,-37,-47,-36,-65v2,-36,100,-54,144,-53v44,0,62,1,94,14xm117,-141v0,50,19,73,60,74v24,0,70,-11,110,-31v-6,-24,2,-85,2,-118v-13,-2,-33,-3,-58,-3v-73,0,-114,26,-114,78","w":452},"\u00e6":{"d":"27,-147v3,-120,146,-186,276,-153v4,-16,6,-33,6,-50v0,-45,-17,-68,-50,-68v-49,0,-109,12,-145,25v-22,-29,-25,-53,-18,-89r6,-4r0,2v3,-3,8,-5,16,-7v57,-15,106,-23,148,-23v61,0,100,21,117,62v43,-35,94,-53,153,-53v123,1,208,53,206,179v0,66,-23,99,-70,99r-270,0v13,99,56,148,131,148v53,0,96,-5,125,-23v43,-27,61,-4,62,61v0,18,-24,31,-71,40v-50,9,-92,15,-136,13v-76,-3,-102,-22,-144,-67v-81,46,-145,69,-194,69v-86,0,-150,-60,-148,-161xm121,-148v0,49,25,75,70,76v33,0,65,-8,98,-23v-4,-41,-3,-98,5,-131r-62,-4v-57,0,-111,25,-111,82xm417,-310r211,3v9,-4,14,-18,14,-41v0,-42,-34,-63,-102,-63v-53,0,-115,56,-123,101","w":770},"\u00e7":{"d":"279,-502v71,1,113,8,153,43v2,40,-10,66,-40,76r-8,-1v-19,-18,-55,-27,-108,-27v-79,0,-144,78,-144,160v0,104,92,191,202,154v15,-5,33,-16,52,-32v26,-8,51,37,51,59v0,45,-93,77,-139,80r0,5v53,15,49,73,10,103v-31,23,-71,38,-113,41v-13,1,-33,-35,-32,-47v0,-9,10,-12,29,-17v43,-11,62,-14,67,-34v0,-12,-17,-25,-51,-39r2,-22v-99,-28,-178,-129,-178,-254v0,-139,110,-251,247,-248","w":471},"\u00e8":{"d":"231,-499v144,1,194,48,197,185v0,19,-1,40,-3,63v-2,23,-58,38,-168,35r-127,-3v3,93,56,147,144,149v31,1,69,-10,108,-22v21,-2,40,44,39,65v0,18,-18,31,-55,38v-37,7,-76,11,-117,11v-161,2,-221,-119,-222,-278v-1,-142,66,-244,204,-243xm131,-302r126,2v49,0,74,1,74,3v0,-38,0,-47,-7,-76v-6,-25,-20,-29,-44,-37v-12,-4,-28,-6,-47,-6v-69,-2,-97,52,-102,114xm290,-544r-168,-69v-26,-20,-15,-44,8,-69v15,-16,24,-23,29,-21r147,76v31,15,34,47,10,69v-10,10,-19,14,-26,14","w":479},"\u00e9":{"d":"222,-499v144,1,194,48,197,185v0,19,-1,40,-3,63v-2,44,-208,34,-295,32v3,93,56,147,144,149v31,1,69,-10,108,-22v21,-2,40,44,39,65v0,18,-19,31,-56,38v-37,7,-75,11,-116,11v-161,2,-221,-119,-222,-278v-1,-142,66,-244,204,-243xm122,-302r126,2v49,0,74,1,74,3v0,-38,1,-47,-6,-76v-6,-25,-20,-29,-44,-37v-12,-4,-29,-6,-48,-6v-69,-2,-97,52,-102,114xm198,-544v-16,0,-42,-27,-42,-47v0,-15,9,-27,26,-36r147,-76v10,-4,58,48,52,64v0,8,-4,16,-13,24","w":466},"\u00ea":{"d":"234,-499v144,1,194,48,197,185v0,19,-1,40,-3,63v-2,44,-208,34,-295,32v3,93,56,147,144,149v31,1,69,-10,108,-22v21,-2,40,44,39,65v0,18,-19,31,-56,38v-37,7,-75,11,-116,11v-161,2,-221,-119,-222,-278v-1,-142,66,-244,204,-243xm134,-302r126,2v49,0,74,1,74,3v0,-38,1,-47,-6,-76v-6,-25,-20,-29,-44,-37v-12,-4,-29,-6,-48,-6v-69,-2,-97,52,-102,114xm235,-702v6,-3,19,-3,30,-3r133,73v26,24,-21,73,-39,74r-107,-61r-116,61v-17,-1,-56,-53,-32,-76","w":483},"\u00eb":{"d":"234,-499v144,1,194,48,197,185v0,19,-1,40,-3,63v-2,44,-208,34,-295,32v3,93,56,147,144,149v31,1,69,-10,108,-22v21,-2,40,44,39,65v0,18,-19,31,-56,38v-37,7,-75,11,-116,11v-161,2,-221,-119,-222,-278v-1,-142,66,-244,204,-243xm134,-302r126,2v49,0,74,1,74,3v0,-38,1,-47,-6,-76v-6,-25,-20,-29,-44,-37v-12,-4,-29,-6,-48,-6v-69,-2,-97,52,-102,114xm166,-555v-37,0,-59,-22,-59,-58v0,-32,25,-54,59,-53v31,1,51,25,51,59v0,29,-22,52,-51,52xm338,-555v-37,0,-59,-22,-59,-58v0,-32,25,-54,59,-53v31,1,51,25,51,59v0,30,-22,52,-51,52","w":477},"\u00ec":{"d":"94,-480v8,-23,100,-41,100,-2r1,466v0,20,-29,29,-51,29v-22,0,-48,-6,-49,-25xm193,-544r-168,-69v-26,-20,-16,-44,7,-69v15,-16,25,-23,30,-21r147,76v31,15,35,47,11,69v-10,10,-20,14,-27,14","w":273},"\u00ed":{"d":"74,-480v8,-23,100,-41,100,-2r1,466v0,20,-29,29,-51,29v-22,0,-48,-6,-49,-25xm71,-544v-16,0,-42,-27,-42,-47v0,-15,9,-27,26,-36r147,-76v10,-4,58,48,52,64v0,8,-4,16,-13,24","w":259},"\u00ee":{"d":"122,-480v8,-23,100,-41,100,-2r1,466v0,19,-30,29,-51,29v-22,0,-48,-6,-49,-25xm155,-702v6,-3,19,-3,30,-3r133,73v26,24,-21,73,-39,74r-107,-61r-116,61v-17,-1,-56,-53,-32,-76","w":342},"\u00ef":{"d":"83,-480v8,-23,100,-41,100,-2r1,466v0,20,-29,29,-51,29v-22,0,-48,-6,-49,-25xm73,-555v-37,0,-60,-22,-59,-58v1,-32,24,-54,59,-53v31,1,51,25,51,59v0,29,-22,52,-51,52xm218,-555v-37,0,-59,-22,-59,-58v0,-32,25,-54,59,-53v31,1,51,25,51,59v0,30,-22,52,-51,52","w":281},"\u00f0":{"d":"221,-473v-23,6,-38,-31,-37,-53v0,-25,5,-31,29,-32v45,0,78,-3,99,-10v-11,-40,-42,-52,-84,-67v-39,-14,14,-78,33,-79r9,3r-1,-1v75,14,116,50,136,116v17,-11,44,-17,81,-17v32,0,48,21,48,63v0,15,-6,23,-18,23v-46,0,-72,-2,-79,13v21,60,32,158,32,293v0,138,-99,237,-225,238v-118,0,-212,-87,-212,-213v0,-85,26,-152,73,-186v51,-36,139,-53,211,-28v20,2,28,58,12,78v-6,8,-13,12,-22,12v-11,-11,-40,-13,-65,-13v-66,-2,-111,75,-110,142v1,66,42,124,113,124v70,0,138,-78,136,-149v-2,-92,-8,-209,-25,-273v-31,11,-75,16,-134,16","w":563},"\u00f1":{"d":"283,-395v-50,0,-108,29,-129,66r0,329r-2,-2v-11,19,-94,21,-100,-6r1,-459v15,-25,96,-35,101,4r0,34v37,-46,84,-69,141,-69v162,0,207,120,205,285r-2,205v0,13,-15,20,-44,20v-21,0,-57,-5,-57,-20r0,-239v0,-99,-38,-148,-114,-148xm380,-680v19,1,71,50,50,76v-28,34,-59,53,-96,53v-16,6,-112,-44,-128,-44v-18,0,-33,9,-40,20v-8,4,-13,6,-14,6v-19,2,-50,-46,-48,-65v0,-7,4,-15,13,-24r0,3v55,-41,107,-22,169,15v36,21,55,5,81,-29r0,1v4,-8,8,-12,13,-12","w":543},"\u00f2":{"d":"282,-407v-79,0,-143,77,-143,159v0,96,52,177,143,177v103,0,150,-69,150,-177v0,-91,-65,-159,-150,-159xm284,22v-148,0,-244,-114,-244,-273v0,-138,109,-247,245,-247v136,0,245,109,245,247v0,162,-96,272,-246,273xm334,-544r-168,-69v-26,-20,-15,-44,8,-69v15,-16,24,-23,29,-21r147,76v31,15,34,47,10,69v-10,10,-19,14,-26,14"},"\u00f3":{"d":"282,-407v-79,0,-143,77,-143,159v0,96,52,177,143,177v103,0,150,-69,150,-177v0,-91,-65,-159,-150,-159xm284,22v-148,0,-244,-114,-244,-273v0,-138,109,-247,245,-247v136,0,245,109,245,247v0,162,-96,272,-246,273xm231,-544v-16,0,-42,-27,-42,-47v0,-15,9,-27,26,-36r147,-76v10,-4,58,48,52,64v0,8,-4,16,-13,24"},"\u00f4":{"d":"282,-407v-79,0,-143,77,-143,159v0,96,52,177,143,177v103,0,150,-69,150,-177v0,-91,-65,-159,-150,-159xm284,22v-148,0,-244,-114,-244,-273v0,-138,109,-247,245,-247v136,0,245,109,245,247v0,162,-96,272,-246,273xm274,-702v6,-3,19,-3,30,-3r133,73v26,24,-21,73,-39,74r-107,-61r-116,61v-17,-1,-56,-53,-32,-76"},"\u00f5":{"d":"282,-407v-79,0,-143,77,-143,159v0,96,52,177,143,177v103,0,150,-69,150,-177v0,-91,-65,-159,-150,-159xm284,22v-148,0,-244,-114,-244,-273v0,-138,109,-247,245,-247v136,0,245,109,245,247v0,162,-96,272,-246,273xm391,-680v19,1,71,50,50,76v-28,34,-59,53,-96,53v-16,6,-112,-44,-128,-44v-18,0,-33,9,-40,20v-8,4,-13,6,-14,6v-19,2,-50,-46,-48,-65v0,-7,4,-15,13,-24r0,3v55,-41,107,-22,169,15v36,21,55,5,81,-29r0,1v4,-8,8,-12,13,-12"},"\u00f6":{"d":"282,-407v-79,0,-143,77,-143,159v0,96,52,177,143,177v103,0,150,-69,150,-177v0,-91,-65,-159,-150,-159xm284,22v-148,0,-244,-114,-244,-273v0,-138,109,-247,245,-247v136,0,245,109,245,247v0,162,-96,272,-246,273xm206,-555v-37,0,-59,-22,-59,-58v0,-32,25,-54,59,-53v31,1,51,25,51,59v0,29,-22,52,-51,52xm378,-555v-37,0,-59,-22,-59,-58v0,-32,25,-54,59,-53v31,1,51,25,51,59v0,30,-22,52,-51,52"},"\u00f7":{"d":"249,-125v-43,0,-71,-25,-70,-69v1,-36,29,-65,70,-63v35,2,61,31,61,70v0,35,-27,62,-61,62xm249,-423v-44,0,-72,-26,-70,-70v1,-36,30,-64,70,-62v36,2,61,30,61,70v0,35,-27,62,-61,62xm429,-389v23,8,41,100,2,100r-369,1v-21,0,-29,-27,-29,-51v0,-20,8,-48,25,-49","w":494},"\u00f8":{"d":"273,-69v87,0,157,-87,157,-181v0,-38,-12,-73,-35,-106r-180,273v18,5,44,14,58,14xm323,-401v-106,-30,-191,58,-189,158v0,37,9,68,26,95xm522,-252v0,173,-173,325,-346,236r-39,61r0,-1v-20,32,-76,-7,-77,-31v0,-6,1,-10,4,-12r43,-65v-46,-49,-69,-109,-69,-180v0,-174,158,-299,336,-239v17,-30,36,-53,54,-81v3,-3,6,-5,9,-5v25,0,75,22,59,53r-49,88v50,53,75,112,75,176","w":569},"\u00f9":{"d":"271,-81v49,0,107,-38,128,-74r0,-316v5,-25,94,-25,102,1r1,465v-16,22,-102,32,-102,-7r0,-42v-35,47,-69,76,-145,77v-164,1,-204,-126,-202,-293r2,-199v1,-31,93,-23,101,0r0,233v1,102,21,155,115,155xm286,-544r-168,-69v-26,-20,-15,-44,8,-69v15,-16,24,-23,29,-21r147,76v31,15,34,47,10,69v-10,10,-19,14,-26,14","w":549},"\u00fa":{"d":"271,-81v49,0,107,-38,128,-74r0,-316v5,-25,94,-25,102,1r1,465v-16,22,-102,32,-102,-7r0,-42v-35,47,-69,76,-145,77v-164,1,-204,-126,-202,-293r2,-199v1,-31,93,-23,101,0r0,233v1,102,21,155,115,155xm257,-544v-16,0,-42,-27,-42,-47v0,-15,9,-27,26,-36r147,-76v10,-4,58,48,52,64v0,8,-4,16,-13,24","w":549},"\u00fb":{"d":"271,-81v49,0,107,-38,128,-74r0,-316v5,-25,94,-25,102,1r1,465v-16,22,-102,32,-102,-7r0,-42v-35,47,-69,76,-145,77v-164,1,-204,-126,-202,-293r2,-199v1,-31,93,-23,101,0r0,233v1,102,21,155,115,155xm265,-702v6,-3,19,-3,30,-3r133,73v26,24,-21,73,-39,74r-107,-61r-116,61v-17,-1,-56,-53,-32,-76","w":548},"\u00fc":{"d":"184,-555v-37,0,-59,-22,-59,-58v0,-32,25,-54,59,-53v31,1,51,25,51,59v0,29,-22,52,-51,52xm376,-555v-37,0,-59,-22,-59,-58v0,-32,25,-54,59,-53v31,1,51,25,51,59v0,30,-22,52,-51,52xm265,-81v49,0,107,-38,128,-74r0,-316v5,-25,94,-25,102,1r1,465v-16,22,-102,32,-102,-7r0,-42v-35,47,-69,76,-145,77v-164,1,-204,-126,-202,-293r2,-199v1,-31,93,-23,101,0r0,233v1,102,21,155,115,155","w":541},"\u00fd":{"d":"442,-492v23,1,77,18,67,46v-49,130,-94,250,-132,360v-33,95,-65,175,-96,241v-35,76,-107,113,-208,102v-17,-34,-18,-48,1,-84v112,-3,150,-90,162,-193r-197,-431v-3,-3,-4,-6,-4,-11v11,-30,91,-40,108,-3r147,325v8,-18,14,-33,18,-45r110,-293v1,-9,9,-14,24,-14xm247,-544v-16,0,-42,-27,-42,-47v0,-15,9,-27,26,-36r147,-76v10,-4,58,48,52,64v0,8,-4,16,-13,24","w":548},"\u00fe":{"d":"59,-668v7,-23,94,-41,94,-2r1,233v45,-39,91,-58,140,-58v109,-1,184,105,184,221v0,169,-99,282,-257,283v-25,0,-47,-6,-66,-17r-1,186v0,19,-27,29,-48,29v-21,0,-45,-7,-46,-25xm378,-243v0,-82,-27,-153,-99,-153v-47,0,-96,29,-122,51r-2,219v23,27,56,41,98,41v72,0,125,-77,125,-158","w":514},"\u00ff":{"d":"425,-492v23,1,77,18,67,46v-49,130,-94,250,-132,360v-33,95,-65,175,-96,241v-35,76,-107,113,-208,102v-17,-34,-18,-48,1,-84v112,-3,150,-90,162,-193r-197,-431v-3,-3,-4,-6,-4,-11v11,-30,91,-40,108,-3r147,325v8,-18,14,-33,18,-45r110,-293v1,-9,9,-14,24,-14xm192,-555v-37,0,-59,-22,-59,-58v0,-32,25,-54,59,-53v31,1,51,25,51,59v0,29,-22,52,-51,52xm364,-555v-37,0,-59,-22,-59,-58v0,-32,25,-54,59,-53v31,1,51,25,51,59v0,30,-22,52,-51,52","w":527},"\u0152":{"d":"956,-625v-79,-3,-143,3,-210,19v-58,14,-113,49,-106,119r0,62r206,0v21,0,32,15,32,44v1,22,-11,53,-29,54r-209,1r0,159v0,55,72,82,215,82r98,-5v19,0,29,15,29,44v1,20,-9,52,-26,53v-166,12,-338,-5,-401,-107v-55,72,-124,108,-207,108v-168,2,-289,-181,-289,-362v0,-181,121,-363,289,-361v100,2,173,60,219,126v23,-40,62,-71,108,-89v72,-28,155,-38,254,-37v35,1,43,18,43,58v0,21,-5,32,-16,32xm539,-368v0,-121,-70,-251,-180,-251v-123,0,-203,142,-203,280v0,120,71,246,180,246v119,0,203,-142,203,-275","w":1021},"\u0153":{"d":"862,-332v0,137,-184,100,-319,105v1,95,72,159,161,160v41,0,74,-8,100,-24v27,-9,44,42,45,64v0,18,-18,31,-55,38v-37,7,-76,11,-117,11v-83,-1,-150,-49,-189,-101v-40,54,-110,102,-196,102v-147,0,-244,-116,-244,-274v0,-138,109,-249,245,-247v84,1,153,40,193,90v39,-54,106,-96,192,-97v123,0,184,58,184,173xm290,-407v-79,0,-143,77,-143,159v0,97,52,179,143,179v98,0,148,-79,150,-179v2,-91,-65,-159,-150,-159xm543,-310r175,0v33,0,50,-16,50,-49v0,-38,-34,-57,-102,-57v-53,0,-115,60,-123,106","w":901},"\u0178":{"d":"237,2r0,-321r-206,-338v-5,-11,54,-61,70,-55v7,0,15,3,19,10r168,282r236,-280v23,-18,36,-4,58,22v16,19,22,33,21,39r-266,315r0,329v-42,8,-69,12,-100,-3xm215,-767v-37,0,-60,-22,-59,-58v1,-32,24,-54,59,-53v31,1,51,25,51,59v0,29,-22,52,-51,52xm387,-767v-37,0,-60,-22,-59,-58v1,-32,24,-54,59,-53v31,1,51,25,51,59v0,30,-22,52,-51,52","w":628},"\u02c6":{"d":"206,-702v6,-3,19,-3,30,-3r133,73v26,24,-21,73,-39,74r-107,-61r-116,61v-17,-1,-56,-53,-32,-76","w":424},"\u02dc":{"d":"308,-680v19,1,71,50,50,76v-28,34,-59,53,-96,53v-16,6,-112,-44,-128,-44v-18,0,-33,9,-40,20v-8,4,-13,6,-14,6v-19,2,-50,-46,-48,-65v0,-7,4,-15,13,-24r0,3v55,-41,107,-22,169,15v36,21,55,5,81,-29r0,1v4,-8,8,-12,13,-12","w":395},"\u2013":{"d":"420,-389v23,8,41,100,2,100r-369,1v-21,0,-29,-27,-29,-51v0,-20,8,-48,25,-49","w":489},"\u2014":{"d":"540,-389v23,8,41,100,2,100r-489,1v-21,0,-29,-27,-29,-51v0,-20,8,-48,25,-49","w":604},"\u2018":{"d":"124,-709v46,0,74,28,74,74v0,33,-21,58,-49,64v11,37,32,53,62,62r0,-1v13,6,18,8,18,20r0,35v-114,-1,-169,-69,-169,-181v0,-40,24,-73,64,-73","w":314},"\u2019":{"d":"145,-571v-30,-7,-51,-34,-50,-72v1,-39,31,-66,74,-66v36,0,65,30,64,66v-1,123,-53,186,-167,188v-4,-10,-3,-21,-3,-34v1,-9,1,-22,13,-21v33,-3,58,-31,69,-61","w":308},"\u201a":{"d":"94,-100v53,0,65,48,59,100v-5,51,-71,119,-136,114v-8,-14,-4,-25,-4,-42v25,-5,54,-33,56,-64v-20,-10,-28,-28,-28,-55v0,-30,24,-53,53,-53","w":168},"\u201c":{"d":"271,-634v30,7,50,33,49,72v-1,39,-31,66,-74,66v-36,0,-65,-30,-64,-66v0,-125,56,-188,169,-188v0,24,5,54,-18,54v-30,9,-51,26,-62,62xm113,-634v30,7,50,33,49,72v-1,39,-31,66,-74,66v-36,0,-65,-30,-64,-66v0,-125,56,-188,169,-188v-1,25,6,51,-18,55r0,-1v-30,9,-51,26,-62,62","w":349},"\u201d":{"d":"96,-612v-30,-7,-51,-34,-50,-72v1,-39,31,-66,74,-66v36,0,65,30,64,66v-1,123,-53,186,-167,188v-4,-10,-3,-21,-3,-34v1,-9,2,-22,13,-21v33,-3,58,-31,69,-61xm254,-612v-30,-7,-51,-34,-50,-72v1,-39,31,-66,74,-66v36,0,65,30,64,66v-1,123,-53,186,-167,188v-4,-10,-3,-21,-3,-34v1,-9,2,-22,13,-21v33,-3,58,-31,69,-61","w":366},"\u201e":{"d":"111,-100v53,0,65,48,59,100v-5,51,-71,119,-136,114v-8,-14,-4,-25,-4,-42v25,-5,54,-33,56,-64v-20,-10,-28,-28,-28,-55v0,-30,23,-53,53,-53xm244,-100v53,0,65,48,59,100v-5,51,-71,119,-136,114v-8,-14,-4,-25,-4,-42v25,-5,54,-33,56,-64v-20,-10,-28,-28,-28,-55v0,-30,24,-53,53,-53","w":347},"\u2022":{"d":"154,-246v-68,0,-109,-39,-107,-107v2,-56,45,-97,107,-94v54,3,92,45,92,106v0,53,-40,95,-92,95","w":292},"\u2026":{"d":"189,12v-46,0,-76,-27,-74,-73v1,-39,31,-68,74,-66v38,2,64,31,64,74v0,36,-28,65,-64,65xm466,12v-46,0,-76,-27,-74,-73v1,-39,31,-68,74,-66v38,2,64,31,64,74v0,36,-28,65,-64,65xm740,12v-46,0,-76,-27,-74,-73v1,-39,31,-68,74,-66v38,2,64,31,64,74v0,36,-28,65,-64,65","w":936},"\u2039":{"d":"71,-232r1,0v-5,-5,-5,-27,-2,-35r144,-189v22,-32,80,13,79,34r-137,171r134,164v-1,18,-52,71,-78,37","w":352},"\u203a":{"d":"260,-227r-138,177v-18,20,-41,11,-60,-9v-13,-13,-19,-23,-18,-28r135,-164r-68,-83v-31,-37,-54,-67,-70,-88v0,-20,54,-66,79,-34r144,189v2,9,1,33,-4,40","w":295},"\u20ac":{"d":"136,-318r1,-70r-65,1v-19,0,-29,-23,-29,-43v0,-20,7,-43,25,-43r78,-1v14,-82,41,-144,81,-186v64,-68,158,-74,261,-44v58,17,86,29,126,52r-3,86v-53,-25,-159,-56,-241,-57v-28,0,-52,13,-74,39v-22,26,-38,63,-48,110r224,0v18,15,27,69,4,86r-240,3r-1,67r245,0v11,32,18,65,-4,86r-232,0v19,103,61,155,126,155v93,0,177,-13,234,-45r7,-6r0,91v-50,42,-138,59,-235,59v-135,0,-213,-85,-234,-254r-70,1v-19,0,-29,-23,-29,-43v0,-20,7,-43,25,-43","w":693},"\u2122":{"d":"306,-485v-12,11,-40,8,-57,3r0,-209v0,-13,10,-20,29,-20v14,0,22,5,25,15r57,104r27,-50r0,1r31,-57v9,-17,38,-17,51,-2r0,215v-12,10,-34,11,-55,2r0,-104r-40,71v-1,1,-7,2,-18,2v-21,1,-20,-19,-30,-30r-20,-34r0,93xm108,-655v-29,-2,-64,10,-64,-24v0,-10,2,-24,12,-29v11,-2,159,-1,171,0v2,19,2,37,-2,53r-62,0r0,158v0,13,-9,19,-26,19v-19,0,-29,-6,-29,-19r0,-158","w":509}}});
